%YAML:1.0
---
opencv_ml_svm:
   format: 3
   svmType: C_SVC
   kernel:
      type: LINEAR
   C: 1.
   term_criteria: { iterations:100 }
   var_count: 900
   class_count: 3
   class_labels: !!opencv-matrix
      rows: 3
      cols: 1
      dt: i
      data: [ -1, 1, 1701867625 ]
   sv_total: 3
   support_vectors:
      - [ 9.99841169e-02, -1.23615503e-01, -1.50941685e-01,
          -3.19305211e-02, 1.08894430e-01, -1.91070721e-01,
          4.83807512e-02, 3.20049822e-02, -8.48145341e-04,
          3.21381055e-02, 1.54147834e-01, 1.44420549e-01, 5.27969413e-02,
          3.68002541e-02, -8.25240184e-03, 1.51038334e-01,
          1.49285555e-01, 1.28733758e-02, -2.58673411e-02,
          -1.31242216e-01, -2.53063496e-02, 2.44945232e-02,
          -1.05982602e-01, -3.23580503e-02, 6.79560453e-02,
          -4.46456596e-02, -6.67532533e-02, -1.58899501e-01,
          -1.90932080e-01, -6.52423427e-02, -9.38657001e-02,
          -1.53183043e-01, -1.02676287e-01, 3.31858248e-02,
          -5.81238344e-02, -1.27799168e-01, -5.21514416e-02,
          3.31685133e-02, -4.17719781e-02, -1.13372626e-02,
          -4.01853584e-02, 6.14798479e-02, 6.77781999e-02,
          8.14518034e-02, -7.98514411e-02, 2.20900793e-02,
          2.15770770e-03, -1.78986907e-01, -1.19552761e-01,
          -6.48160204e-02, 1.32413089e-01, 1.07064977e-01,
          5.71071394e-02, 2.20541786e-02, 1.67430490e-01, 4.07908410e-02,
          -2.05756761e-02, 4.67315651e-02, 9.49821547e-02,
          -1.14410836e-02, 9.84387845e-03, -2.23938469e-03,
          1.75323784e-01, -3.41474116e-02, -8.10949951e-02,
          -1.87726304e-01, 5.73703200e-02, -5.58188781e-02,
          -2.20803171e-02, 2.71264054e-02, -1.41017642e-02,
          -5.72095551e-02, 1.91534851e-02, 1.60219088e-01,
          8.54039043e-02, 9.57147181e-02, 1.25522137e-01, 6.29375204e-02,
          2.49302626e-01, 8.61490071e-02, 1.86418742e-02,
          -1.59436688e-01, 1.81540057e-01, -3.73201109e-02,
          9.42570344e-02, 1.02352135e-01, 8.68506450e-03,
          -1.66336641e-01, -9.36997980e-02, -1.43258423e-01,
          5.35482652e-02, 6.84660152e-02, -1.02555625e-01,
          -2.52259988e-03, 1.57007143e-01, -2.87571978e-02,
          -9.29049626e-02, -1.29546672e-02, 5.45305684e-02,
          -6.11048117e-02, -8.87244381e-03, -1.01023972e-01,
          1.23490155e-01, -2.95521431e-02, -1.56960543e-02,
          -5.29810376e-02, -1.72062725e-01, -3.51696163e-02,
          5.02257608e-02, -2.14534421e-02, -4.15970050e-02,
          -1.37818921e-02, 2.10319772e-01, 3.23324837e-02,
          -5.36300875e-02, 8.21892545e-02, 8.29244629e-02,
          1.04823202e-01, 1.46156680e-02, 1.15916776e-02, 6.81490675e-02,
          -1.74615551e-02, 2.28511855e-01, 5.55701070e-02,
          6.16614074e-02, 5.05737364e-02, 9.48632881e-02, 2.40234416e-02,
          1.38854504e-01, 3.41770686e-02, -1.85073179e-03,
          8.09383318e-02, 9.24413949e-02, 5.05024493e-02, 1.64826676e-01,
          -2.39610616e-02, -1.33186325e-01, -8.34490880e-02,
          6.87453104e-03, -7.12377280e-02, 1.92056656e-01,
          1.36209214e-02, 7.47233555e-02, 7.85945579e-02, 2.48164069e-02,
          1.27520403e-02, 6.53508678e-02, -3.00018992e-02,
          1.43758073e-01, 1.06718212e-01, 6.46007759e-03, 3.52379605e-02,
          -3.60202193e-02, 1.41085491e-01, -8.92547891e-03,
          -1.50432110e-01, 4.20916043e-02, -8.06636810e-02,
          -2.81732604e-02, 9.47116464e-02, 7.66705945e-02,
          1.18276872e-01, 1.09380215e-01, 1.71485427e-03, 5.70535287e-02,
          -5.62866889e-02, -2.49199718e-02, 8.67629610e-03,
          -1.61961779e-01, 1.73729900e-02, 1.57900408e-01,
          1.91036135e-01, -6.25341162e-02, -1.81208700e-01,
          7.51725659e-02, -1.35747105e-01, -7.43934736e-02,
          6.92268610e-02, -4.14717458e-02, 1.13643214e-01,
          -1.86376438e-01, -2.45977074e-01, -8.20328593e-02,
          -8.15298706e-02, -2.17928328e-02, -2.16806486e-01,
          -2.98646837e-02, -1.53231218e-01, -9.30364579e-02,
          -1.45677656e-01, -7.47672170e-02, -4.23815101e-02,
          -4.33546789e-02, 2.53979936e-02, -1.15700237e-01,
          8.77475441e-02, -6.62565604e-02, -1.25458211e-01,
          -5.56004383e-02, -1.58585176e-01, -3.47728521e-01,
          -7.49144354e-04, 2.55882344e-03, -5.91521263e-02,
          2.05211565e-01, 1.29896447e-01, -9.97249708e-02,
          -6.12316988e-02, -5.73224351e-02, -1.03256278e-01,
          7.40525275e-02, 9.18914676e-02, -1.34682417e-01,
          -2.32468516e-01, -1.37001976e-01, -6.26268461e-02,
          -1.60837084e-01, -9.66729373e-02, -1.57050654e-01,
          7.64098624e-03, 2.48106658e-01, -6.33247644e-02,
          2.73508370e-01, 8.99523944e-02, -1.95234776e-01,
          -1.27159253e-01, 5.70363319e-03, -4.66971174e-02,
          5.51225245e-02, -2.54826277e-01, 5.46352491e-02,
          -1.16604060e-01, -1.13852071e-02, -8.50091353e-02,
          5.96392602e-02, 8.96897342e-04, -2.12009519e-01,
          1.20122507e-02, -7.75903910e-02, -8.63722041e-02,
          -2.61276275e-01, 4.56933817e-03, 5.89586534e-02,
          7.56938905e-02, -2.18952537e-01, -9.61297005e-02,
          -5.95317455e-03, -9.04045403e-02, -3.20496298e-02,
          2.82448009e-02, 3.12025379e-02, 2.49401806e-03,
          -8.94189849e-02, 9.44050178e-02, 7.35616386e-02,
          9.47071016e-02, -4.15462768e-03, -2.16001961e-02,
          -1.93032652e-01, -1.46946624e-01, -6.30845949e-02,
          5.25406143e-03, -1.78034492e-02, -1.76937357e-01,
          4.38826308e-02, -1.86358228e-01, -2.16077007e-02,
          -1.05769008e-01, -2.38726035e-01, 4.08374425e-03,
          -5.52366413e-02, -6.94208220e-02, 5.91288554e-03,
          3.32428627e-02, 1.48459017e-01, -5.44654801e-02,
          -8.82068649e-02, 3.13653462e-02, -1.17876254e-01,
          5.31997234e-02, -4.31967713e-02, -9.44366902e-02,
          6.84843585e-02, 4.92335414e-04, 2.49032285e-02,
          -3.85583239e-03, 4.05382253e-02, 2.51238719e-02,
          6.80482686e-02, 3.72846462e-02, 2.57108420e-01,
          -8.18726141e-03, 1.01523705e-01, 3.61396149e-02,
          1.26656234e-01, 5.92417046e-02, 3.66784930e-02, 7.62775689e-02,
          3.76729481e-02, 2.73530539e-02, 7.72547871e-02,
          -5.12540899e-03, 6.91028908e-02, -5.86847924e-02,
          -1.27871364e-01, 1.22779943e-01, 1.41470671e-01,
          5.23304529e-02, -5.87960705e-03, 1.25790611e-01,
          9.58947837e-02, -1.48569848e-02, 8.28395784e-02,
          -6.13267124e-02, 1.51307210e-01, -4.43647020e-02,
          -6.06535301e-02, -9.14391801e-02, 8.32856372e-02,
          -8.44314396e-02, 7.24726021e-02, 3.08216721e-01,
          5.09224311e-02, -4.94719557e-02, -4.43744883e-02,
          -8.99141803e-02, 4.47151531e-03, -8.71796757e-02,
          3.63874063e-02, -1.01499520e-01, -1.14183158e-01,
          1.30071729e-01, 1.56514049e-02, 1.17198788e-01,
          -1.97018925e-02, -1.04544297e-01, 3.08050551e-02,
          -1.13985658e-01, -6.02135481e-03, 1.36653170e-01,
          1.41685277e-01, 7.90436491e-02, -7.59415329e-02,
          -4.75963727e-02, -4.75323871e-02, -7.51684085e-02,
          2.72930205e-01, -1.33207902e-01, 7.20727593e-02,
          2.25039087e-02, -2.88700312e-02, 8.87081772e-02,
          -1.09316453e-01, -4.24121283e-02, -9.66562703e-02,
          -1.00837648e-01, -1.26485854e-01, 2.18659267e-01,
          1.07703460e-02, 6.69350624e-02, -1.57492563e-01,
          -8.45763981e-02, -8.60798806e-02, 1.23319708e-01,
          4.41833623e-02, 1.54691162e-02, -7.40575790e-02,
          2.96986271e-02, -7.15640858e-02, 3.16111334e-02,
          1.10061765e-01, -2.43519284e-02, 1.28021523e-01,
          3.00382763e-01, -4.13658246e-02, 3.83868180e-02,
          4.51394431e-02, 1.04282238e-01, -9.68572646e-02,
          2.92832088e-02, -6.62768865e-03, -3.43491696e-02,
          -1.17951222e-02, 6.91469982e-02, 2.51239818e-02,
          -3.87439802e-02, -1.37949318e-01, 8.08758754e-03,
          1.74144194e-01, 1.27002999e-01, -4.51606289e-02,
          2.96212375e-01, 1.65605009e-01, 6.03646301e-02, 1.13868460e-01,
          5.34260869e-02, -1.02361947e-01, -1.66516975e-02,
          -1.09537020e-02, 8.33531842e-02, 1.62551999e-02,
          -5.93135506e-02, 5.91334626e-02, 1.93267405e-01,
          -6.24584034e-02, -2.57798564e-02, 5.98569773e-02,
          1.16709717e-01, 5.85236736e-02, 5.27048297e-02,
          -3.85730490e-02, 1.87260225e-01, 2.06563115e-01,
          -4.73130532e-02, -1.15818635e-01, 7.78761804e-02,
          -3.37569113e-03, -1.72669161e-02, -7.84580782e-02,
          5.28598391e-02, 1.12229310e-01, -7.08022267e-02,
          -2.85312068e-03, 5.10798283e-02, 1.41607955e-01,
          1.92699194e-01, 1.13639750e-01, 3.30902706e-03,
          -6.32354058e-03, 1.58568144e-01, -5.26405051e-02,
          1.24055788e-01, -3.68238464e-02, -1.12446789e-02,
          1.64235562e-01, 3.21971364e-02, -7.82108530e-02,
          -1.38843417e-01, -1.85579687e-01, -1.27801239e-01,
          -6.76899329e-02, 4.95787850e-03, -2.50905827e-02,
          1.13672614e-01, 1.85304061e-01, 1.96430355e-01, 9.67260525e-02,
          -2.30410621e-01, -1.34705245e-01, -6.61279960e-03,
          1.27310142e-01, -1.20615192e-01, -7.34682456e-02,
          -3.84473777e-03, 9.31574777e-02, -3.42631452e-02,
          1.83461815e-01, -2.42773420e-03, 1.04713805e-01,
          1.79694723e-02, -2.05340296e-01, -1.92402631e-01,
          1.05566941e-01, 8.87364708e-03, 7.92946070e-02, 4.56764065e-02,
          -3.26509438e-02, -6.59740418e-02, -1.52774945e-01,
          -1.15812652e-01, -9.54452679e-02, 7.20694959e-02,
          1.82772502e-01, -7.96706080e-02, -8.28224868e-02,
          -9.58368629e-02, -2.34663978e-01, 3.52555700e-02,
          9.41534340e-02, 1.05902910e-01, -8.47769231e-02,
          -7.10752681e-02, 7.14205578e-02, 8.76603648e-02,
          5.43527640e-02, -2.50160694e-02, -1.51532665e-01,
          -1.83824107e-01, -1.10889629e-01, -5.60458191e-02,
          6.72598854e-02, -1.07737400e-01, 5.54001592e-02,
          -7.86467269e-02, -1.32722780e-01, -2.25785021e-02,
          -6.30945861e-02, -1.22426309e-01, -3.84807475e-02,
          -4.90644015e-02, -1.80981364e-02, 5.26003279e-02,
          -2.56272528e-04, 1.47991152e-02, -1.31911308e-01,
          2.88018603e-02, 3.29072424e-03, -2.70288557e-01,
          1.79529950e-01, -1.63395360e-01, -2.11616352e-01,
          -1.12572767e-01, -1.70892984e-01, 4.96188104e-02,
          1.68877281e-02, 3.52436565e-02, -5.12931384e-02,
          -1.12750962e-01, 1.06210569e-02, 2.83606257e-02,
          5.23946248e-03, 1.56192947e-02, -1.53822646e-01,
          -4.81684208e-02, -1.15778074e-01, -1.03163041e-01,
          8.16879198e-02, -2.26211593e-01, -6.98454678e-02,
          -8.37082192e-02, -8.56559500e-02, 1.44927293e-01,
          -5.06402226e-03, 1.96846388e-02, 7.76785538e-02,
          -1.54559910e-01, -2.72386912e-02, 9.45606083e-03,
          5.90408593e-03, 1.18986599e-01, -5.03565893e-02,
          7.74371028e-02, 3.61793488e-02, -7.89519474e-02,
          -8.64556879e-02, -4.63187657e-02, -2.45475546e-02,
          -4.44295481e-02, -1.55731112e-01, -1.25280604e-01,
          -8.55668783e-02, -6.84105754e-02, -2.06316561e-01,
          -2.52652187e-02, 2.80347951e-02, -2.63099782e-02,
          -6.77010790e-02, -9.45067182e-02, 1.85797531e-02,
          -1.92587465e-01, -2.84542460e-02, -9.64770019e-02,
          1.45872850e-02, -1.91493243e-01, -1.05166405e-01,
          -3.16597015e-01, -1.18896581e-01, -1.77804027e-02,
          -7.64372349e-02, 1.42465100e-01, -8.37990455e-03,
          -1.52255312e-01, -3.90595943e-02, 6.60656765e-02,
          -8.85471050e-03, 1.13096535e-02, -7.25030201e-03,
          4.60643359e-02, -1.32204264e-01, 9.07933456e-04,
          1.18521944e-01, 2.08729915e-02, 4.88806814e-02, 5.56637272e-02,
          9.60021168e-02, -9.68937948e-03, -6.58619180e-02,
          2.67113317e-02, 5.35702631e-02, -7.95859247e-02,
          -7.47057274e-02, -1.20199695e-01, -2.44136959e-01,
          7.16428757e-02, -8.18880573e-02, 5.50047494e-03,
          8.84924978e-02, 1.90565512e-01, 6.26634806e-02, 1.51408955e-01,
          -4.59316187e-02, -3.12610716e-02, -8.97432119e-02,
          -1.47187158e-01, 1.02189913e-01, -7.94759616e-02,
          4.43229601e-02, -3.18693757e-01, 7.75589421e-02,
          -1.83699187e-02, -3.95719446e-02, -5.76621965e-02,
          -1.19110696e-01, -5.07473871e-02, 1.03809156e-01,
          1.52074462e-02, 7.94302374e-02, 1.31020518e-02,
          -9.04129818e-02, -1.01510517e-01, -4.67042252e-02,
          -2.74666231e-02, 6.29130602e-02, -9.04658064e-03,
          9.89705920e-02, -1.10619359e-01, -2.46632043e-02,
          -1.62005331e-02, 4.71944995e-02, -2.13425290e-02,
          -1.24135412e-01, -5.55120744e-02, -8.38191155e-03,
          -7.85807669e-02, 6.26172274e-02, 1.03808172e-01,
          -6.62079826e-02, 4.66600135e-02, -6.49362803e-02,
          -1.49993822e-02, -7.70638958e-02, -6.06769621e-02,
          5.10820467e-03, -3.10201377e-01, -7.39570111e-02,
          -1.52600378e-01, -1.10391378e-02, 8.46159086e-03,
          -3.64879817e-02, -9.70699638e-02, 2.07173023e-02,
          -7.85120502e-02, -5.92284724e-02, -2.83713769e-02,
          -1.45798981e-01, -3.20102423e-02, -8.64145905e-03,
          -1.00183308e-01, -2.72125471e-02, 4.52688672e-02,
          8.19926634e-02, -2.63336033e-01, 1.10450014e-01,
          -2.80328780e-01, -2.86352765e-02, -1.79467618e-01,
          -8.63370486e-03, 8.14798847e-02, 3.84312682e-03,
          4.80645485e-02, 1.89710796e-01, -1.04634464e-01,
          8.23488981e-02, -6.64982293e-03, -1.96383949e-02,
          -9.53137595e-03, -7.26535693e-02, -2.34758556e-01,
          9.45452005e-02, 6.25617877e-02, 1.27591580e-01,
          -1.58406153e-01, -1.24978751e-03, -8.82430822e-02,
          4.19375151e-02, -1.61505770e-02, -1.13780864e-01,
          3.98333035e-02, 2.16309026e-01, -2.88480334e-02,
          1.59831308e-02, -1.21772066e-02, -3.76113132e-03,
          6.48964196e-02, -9.66294333e-02, -3.72395106e-02,
          3.96969058e-02, -9.57030058e-02, -1.11242622e-01,
          -5.68014150e-03, -2.60386337e-02, 1.95616726e-02,
          1.49739102e-01, 1.26551777e-01, -7.33909458e-02,
          -6.78497553e-03, 1.07111722e-01, -5.52266352e-02,
          1.05961651e-01, 5.66539122e-03, 2.29912382e-02, 1.03896901e-01,
          7.49754906e-02, 1.10111147e-01, 1.56039596e-01,
          -8.30042958e-02, 8.82262141e-02, -2.61807173e-01,
          -7.04194456e-02, 1.10822663e-01, -2.11360492e-02,
          2.18208078e-02, 2.38036409e-01, -2.48787971e-03,
          -1.59577772e-01, 1.50153078e-02, -1.69585794e-01,
          -2.14388892e-01, 8.56555030e-02, -4.15530652e-02,
          -8.58636126e-02, 2.63966713e-02, 7.60440826e-02,
          -1.39112845e-01, -4.15708795e-02, -7.25899786e-02,
          -9.35181901e-02, -5.05814105e-02, 3.22535373e-02,
          7.10606575e-02, 4.38938588e-02, -1.52581483e-01,
          1.94867119e-01, 3.85049582e-02, -2.11632729e-01,
          -9.45064053e-02, 1.64680302e-01, -6.61038309e-02,
          1.58979475e-01, 8.20128694e-02, 7.59353563e-02, 1.70077145e-01,
          4.79947589e-02, 1.26608223e-01, 8.31785798e-02,
          -7.33830333e-02, 2.25219622e-01, -5.14308363e-02,
          2.38770265e-02, 2.02231765e-01, 8.85323808e-02, 5.77395372e-02,
          -4.92466688e-02, 2.83276290e-02, 1.69553652e-01,
          7.19206631e-02, 1.28898636e-01, 1.29437879e-01,
          -1.06402310e-02, 9.95671526e-02, 1.10581554e-01,
          -5.79968095e-02, -1.00689991e-04, 1.72172874e-01,
          -4.50340286e-02, 1.22263089e-01, 1.33453935e-01,
          8.93936902e-02, -6.97128754e-03, -2.41255444e-02,
          -3.18486430e-02, -6.95965588e-02, -1.03048690e-01,
          -2.43614048e-01, 1.30242750e-01, 4.40308750e-02,
          -1.66432001e-02, -3.36527303e-02, -8.49024430e-02,
          -1.16334334e-01, -1.77256148e-02, -1.97798207e-01,
          8.35198313e-02, -7.26652937e-03, -9.90757495e-02,
          -7.73416683e-02, 7.62242898e-02, 6.71343356e-02,
          1.73876006e-02, 1.41388699e-01, 1.52720958e-01,
          -6.40110951e-03, -2.88268831e-02, 6.04947284e-02,
          4.85750288e-02, 2.44314224e-02, 4.94253673e-02, 5.52183837e-02,
          8.79027918e-02, 1.09574916e-02, 2.07779352e-02, 1.39379695e-01,
          1.70393139e-01, 7.73012415e-02, -4.12682928e-02,
          6.75823307e-03, -9.34379771e-02, 5.30397817e-02,
          1.24187939e-01, 4.98572662e-02, -1.76926598e-01,
          -1.96186304e-01, 1.11137733e-01, -1.21493181e-02,
          1.29346773e-01, 1.50429174e-01, 1.85656771e-01, 7.34455511e-02,
          5.52380681e-02, 1.20597728e-01, 1.63436994e-01, 1.49758220e-01,
          1.13927061e-02, 9.21013672e-03, 1.85283691e-01, 8.92737284e-02,
          1.26102474e-02, -1.06919445e-02, 1.01509266e-01,
          3.57683636e-02, 1.46013781e-01, -1.67262077e-01,
          6.93538561e-02, -2.58543134e-01, -7.32982606e-02,
          -8.79700705e-02, 1.19452566e-01, 4.17000800e-02,
          6.59386367e-02, 1.91382822e-02, 2.65215784e-02,
          -1.01960868e-01, -3.47326823e-05, -7.09215626e-02,
          1.02772579e-01, -1.90944541e-02, 1.09201796e-01,
          3.92838418e-02, 1.38070554e-01, 4.61734198e-02, 1.12454057e-01,
          -3.98556739e-02, 4.42190208e-02, 9.09917057e-02,
          -4.36764397e-03, 8.34977329e-02, 9.41305235e-02,
          5.02618626e-02, 5.43056354e-02, 5.74973673e-02,
          -1.09517291e-01, 3.95150743e-02, 7.82074556e-02,
          3.40302624e-02, -1.97330341e-01, -1.57485977e-01,
          -1.53217940e-02, -1.36497885e-01, 2.42232047e-02,
          -5.03763370e-02, 9.17319325e-04, 4.03841622e-02,
          -1.25529572e-01, -7.79210925e-02, -6.03164993e-02,
          6.45840587e-03, 5.53334504e-02, -4.65919226e-02,
          3.08126491e-02, -1.05667330e-01, 3.87086859e-03,
          1.13889657e-01, 8.62123966e-02, 3.90799493e-02, 2.62570963e-03,
          3.38762775e-02, 6.73982222e-03, -2.65941732e-02,
          2.45061498e-02, 1.60068572e-01 ]
      - [ 4.92924964e-03, -5.94905519e-04, 9.39298514e-03,
          9.15545598e-03, -2.70404131e-03, 6.06178492e-03,
          -4.12779674e-02, -4.93054697e-03, 1.09141786e-02,
          -2.73666363e-02, 2.80521531e-03, 8.43838416e-03,
          1.50791518e-02, -5.66646340e-04, 5.23124635e-03,
          -2.08684523e-02, -4.30006161e-02, -2.47058459e-02,
          -9.79047082e-03, -2.18058514e-04, 2.04083440e-03,
          1.47236027e-02, 9.02256817e-02, 1.17207663e-02,
          -3.89980190e-02, -6.87692268e-03, 2.62956750e-02,
          -4.91157696e-02, -2.17259582e-02, -2.80883014e-02,
          1.06951203e-02, 5.53251244e-02, 9.20066517e-03,
          -1.84073728e-02, -2.83537116e-02, -4.28209789e-02,
          -2.05283593e-02, 6.34910632e-03, -3.96692157e-02,
          7.77716935e-03, 1.90278038e-03, 4.80473321e-03,
          -1.26736481e-02, -3.09716612e-02, -1.80516709e-02,
          2.67698318e-02, 3.58929974e-03, -1.40684908e-02,
          4.57591144e-03, 4.03834507e-02, 7.25545129e-03, 3.02577633e-02,
          2.45950557e-02, 3.66651900e-02, -4.43341471e-02,
          9.18337237e-03, -3.59680527e-03, 3.53559502e-03,
          1.11889839e-02, 8.19016062e-03, -1.59925651e-02,
          -6.13581948e-02, -4.72480990e-02, 2.55039316e-02,
          4.61407239e-03, 9.86744836e-03, -1.14106818e-03,
          -3.06370966e-02, 2.12772400e-03, -7.25296214e-02,
          -2.91951019e-02, 2.30427049e-02, 5.27066626e-02,
          4.03091870e-02, 1.78836863e-02, 9.80995502e-03, 2.74014115e-01,
          1.68861430e-02, 5.27188629e-02, 4.74183448e-02, 5.27054742e-02,
          4.61156294e-02, 1.02221537e-02, 1.30463960e-02, 5.71891405e-06,
          4.92010526e-02, 2.73860502e-03, 1.30928634e-02, 1.99055150e-02,
          4.61156294e-02, 1.36644021e-02, 4.78659943e-03, 1.05634779e-02,
          1.53191073e-03, 2.31288493e-01, 7.89614860e-04, 1.03206784e-02,
          2.08591321e-03, 1.42025212e-02, 5.16951899e-04, 6.47332345e-04,
          1.91372982e-03, 4.67911104e-06, 5.58254495e-03, 7.34423975e-06,
          1.18998563e-04, 4.69014012e-05, 5.16951899e-04, 6.36656880e-02,
          1.31005254e-02, 6.30346462e-02, 0., 6.37447834e-02, 0.,
          1.46275549e-03, 7.30176317e-03, 6.36656880e-02, 1.31425550e-02,
          4.88786027e-04, 1.46262860e-03, 0., 5.66634983e-02, 0.,
          1.78464614e-02, 4.04680055e-03, 1.31425550e-02, 4.53138695e-04,
          5.93304518e-04, 1.46275549e-03, 0., 1.23001158e-03, 0.,
          1.79625786e-04, 6.00279309e-05, 4.53138695e-04, 7.93174026e-04,
          7.02471472e-04, 2.10205466e-03, 0., 8.04768875e-03, 0.,
          3.41030001e-03, 1.13966537e-03, 7.93174026e-04, 5.03110252e-02,
          1.56235686e-02, 1.47379180e-02, 9.87699786e-06, 5.71936816e-02,
          1.64481226e-05, 3.46648358e-02, 1.02418512e-02, 5.03438450e-02,
          5.34620211e-02, 2.90469024e-02, 2.65611820e-02, 2.71466619e-04,
          5.51191233e-02, 3.33542586e-04, 2.93958038e-02, 1.00798402e-02,
          5.34586832e-02, 1.39831420e-04, 2.64433707e-04, 6.85829844e-04,
          1.83429929e-05, 8.05922970e-03, 3.60507729e-05, 3.63189890e-03,
          1.25225133e-03, 1.79945797e-04, 5.35283424e-03, 2.33843224e-03,
          3.67737142e-03, 7.98502297e-04, 8.60971678e-03, 1.30515033e-03,
          4.12234245e-03, 2.80022016e-03, 5.35283424e-03,
          -1.48450006e-02, 1.89016070e-02, 3.39561589e-02,
          1.62921511e-02, 1.43861517e-01, 1.39500247e-02,
          -9.76689234e-02, -2.22695302e-02, 1.39081879e-02,
          -7.60462582e-02, -1.49820345e-02, -4.86851074e-02,
          -6.31337101e-03, -1.66356098e-02, 7.02598644e-03,
          -7.48218819e-02, -5.86566329e-02, -7.43468702e-02,
          8.28167144e-03, 2.76727322e-02, 5.59979491e-02, 1.29916435e-02,
          2.35656817e-02, 1.12477047e-02, 2.02391297e-02, 1.44215645e-02,
          1.14868106e-02, -4.08746535e-03, -2.93863062e-02,
          -2.59664189e-02, -7.93819875e-03, 7.93692376e-03,
          8.14198889e-03, -2.09983978e-02, 1.66433994e-02,
          4.20030346e-03, 3.49440314e-02, -3.57008236e-03,
          -4.69144844e-02, -2.33005676e-02, -3.60183269e-02,
          1.22583483e-03, -4.72968407e-02, -4.26505171e-02,
          3.03496122e-02, 3.18823457e-02, -1.08663132e-02,
          -2.72479784e-02, -5.81758702e-03, -9.02327523e-02,
          3.02188826e-04, -3.78936641e-02, -2.12013740e-02,
          3.12579125e-02, 6.62783310e-02, -3.69457677e-02,
          -4.16959152e-02, -2.53133941e-02, -2.06290698e-03,
          6.79948041e-03, -1.42898727e-02, 4.58945744e-02,
          7.65316635e-02, 1.80669762e-02, -2.50690877e-02,
          -8.89896825e-02, -9.30362847e-03, -7.01462850e-02,
          1.49445364e-03, 4.26938720e-02, 1.40043152e-02, 2.46536545e-02,
          1.37325209e-02, 5.07350080e-03, 1.34771513e-02, 9.41919920e-04,
          5.53860702e-02, 5.94089448e-04, 7.07621267e-03, 1.40039460e-03,
          1.40399886e-02, 3.84675921e-04, 2.17584704e-04, 6.38945843e-04,
          1.22323936e-05, 3.77983926e-03, 1.05439840e-05, 6.07994560e-04,
          1.98223934e-04, 3.62516614e-04, 2.57822685e-02, 1.01289302e-02,
          2.15655118e-02, 8.19723122e-04, -3.60129893e-01,
          7.87334749e-04, 3.40453200e-02, 1.35543505e-02, 2.58733388e-02,
          4.54017986e-03, 3.65797197e-03, 4.73045371e-03, 1.95069384e-04,
          7.38132186e-03, 2.50418234e-04, 2.97107152e-03, 2.25025136e-03,
          4.20738291e-03, 3.12422751e-04, 9.39497491e-04, 1.90378143e-03,
          0., 2.22859113e-03, 0., 1.98815280e-04, 7.44477875e-05,
          3.12422751e-04, 4.48345556e-04, 9.05315275e-04, 2.70903809e-03,
          0., 6.39098138e-03, 0., 5.48551965e-04, 1.83316894e-04,
          4.48345556e-04, 5.51982969e-03, 2.24868045e-03, 5.20786690e-03,
          3.62460501e-04, 8.29648226e-03, 2.89960764e-04, 5.24370885e-03,
          4.65039629e-03, 5.50325727e-03, 3.61533440e-03, 6.87875273e-03,
          9.08007100e-03, 1.72608910e-04, 7.97779858e-03, 4.99082031e-04,
          1.08448230e-03, 4.63196106e-04, 3.61533440e-03, 2.67660187e-04,
          5.32575708e-04, 1.63554691e-03, 1.45767863e-05, 6.29856763e-03,
          1.82448439e-05, 1.24969415e-03, 4.43634432e-04, 2.78890802e-04,
          6.21827738e-03, 2.17896397e-03, 2.77716434e-03, 1.29230972e-03,
          9.12116654e-03, 1.90770207e-03, 5.09552285e-03, 3.68434959e-03,
          6.25689235e-03, 2.77068256e-03, 3.47475242e-03, 7.98383076e-03,
          3.78444325e-04, 6.89633330e-03, 2.25530501e-04, 1.27288594e-03,
          4.72919550e-04, 2.77068256e-03, 5.50637674e-03, 1.38870324e-03,
          2.87705800e-03, 1.21567352e-03, 9.93289798e-03, 5.78550040e-04,
          4.67640860e-03, 1.67841662e-03, 5.11901034e-03, 2.88684294e-03,
          9.16600227e-03, 1.17708219e-03, 1.05940690e-02, 1.54682742e-02,
          8.01657885e-03, 1.95459798e-02, 1.37959663e-02, 4.63053584e-03,
          -2.15511606e-03, -9.93491337e-03, -9.87232197e-03,
          7.69071421e-03, 1.41672567e-02, 1.40866265e-02,
          -3.47797479e-03, 4.81711961e-02, -2.25628144e-03,
          -1.66799761e-02, -4.08090986e-02, -7.02007562e-02,
          4.43760026e-03, 1.37313390e-02, 6.78684330e-03,
          -7.12550357e-02, -3.08408048e-02, -1.40294461e-02,
          -1.90574657e-02, -4.67306487e-02, -2.42840108e-02,
          5.04675088e-03, 1.75999887e-02, 1.12778042e-02,
          -2.99412310e-02, -4.53790417e-04, -9.36174486e-03,
          -6.41947938e-03, -5.29947765e-02, -2.21143719e-02,
          -6.42055972e-03, 1.17227975e-02, 1.83881186e-02,
          5.70963253e-04, 2.76518464e-02, -5.14590601e-03,
          2.12176447e-03, -1.18976459e-02, -5.78250326e-02,
          -4.08512261e-03, -8.29409584e-02, 4.12731851e-03,
          2.41974089e-02, 1.31212510e-02, 1.44953243e-02,
          -2.40509938e-02, -2.80182529e-02, -3.65306027e-02,
          4.79809055e-03, -1.18410718e-02, 1.69317685e-02,
          -2.71687973e-02, 1.24553833e-02, -2.46811695e-02,
          3.82309407e-02, 8.30392540e-03, 7.36460928e-03, 3.05671222e-03,
          4.60225567e-02, 5.94058167e-03, 3.47709768e-02, 1.48144905e-02,
          4.36830670e-02, 7.23482016e-03, 6.01477036e-03, 1.34580573e-02,
          6.08136004e-04, -1.98284104e-01, 8.01389746e-04,
          1.24215949e-02, 5.02252160e-03, 6.94613298e-03, 3.66602768e-03,
          1.26275956e-03, 2.76647275e-03, 4.43272729e-04, 6.80657849e-03,
          7.81682669e-04, 3.44261783e-03, 3.24804918e-03, 3.37650720e-03,
          3.21467444e-02, 5.46820788e-03, 1.25418222e-02, 5.40477317e-03,
          -1.66427210e-01, 2.97267339e-03, 3.02928798e-02,
          1.37030287e-02, 3.10393311e-02, 4.54101386e-03, 2.21464527e-03,
          2.66505335e-03, 5.30431571e-04, 8.38845596e-03, 1.05051522e-03,
          3.81462299e-03, 2.21515074e-03, 4.75038635e-03, 3.57393082e-03,
          2.85859662e-03, 5.45358332e-03, 1.69478837e-04, 8.22792575e-03,
          2.50789890e-04, 3.81255057e-03, 1.79921777e-03, 3.27554345e-03,
          5.58128068e-03, 3.27335158e-03, 6.82858424e-03, 1.24997663e-04,
          5.94266970e-03, 4.17234842e-04, 2.08610902e-03, 8.43540358e-04,
          5.59389638e-03, 5.38549758e-03, 2.27436004e-03, 3.75405699e-03,
          2.61532579e-04, 7.16830418e-03, 5.45200484e-04, 4.79049888e-03,
          2.08320213e-03, 5.34393918e-03, 5.43383649e-03, 2.37195450e-03,
          6.24589110e-03, 2.29674610e-04, 5.81704127e-03, 3.89250228e-04,
          2.96550384e-03, 1.11266039e-03, 5.58700832e-03, 6.08247332e-03,
          3.39323655e-03, 7.76859513e-03, 4.56505833e-04, 7.34952744e-03,
          6.11446623e-04, 2.02558329e-03, 9.21259401e-04, 6.05379744e-03,
          7.24261114e-03, 7.93789630e-04, 2.53679953e-03, 8.05731805e-04,
          3.28012719e-03, 2.83550035e-04, 4.69041057e-03, 1.54327136e-03,
          7.15516182e-03, 5.22181578e-03, 1.66181219e-03, 4.50896844e-03,
          3.42643325e-04, 6.78358320e-03, 4.71502106e-04, 1.77883415e-03,
          7.91627215e-04, 5.48559101e-03, 5.08611510e-03, 1.16975640e-03,
          2.53766449e-03, 2.85482529e-04, 2.06957781e-03, 2.44543800e-04,
          4.09556786e-03, 2.00555334e-03, 4.95030265e-03, 1.80822443e-02,
          2.30170172e-02, 3.87432724e-02, 7.28560938e-03,
          -9.36271064e-03, 2.15024501e-03, -7.46173114e-02,
          -2.90249232e-02, 1.86141003e-02, -2.62632016e-02,
          -9.90230870e-03, -1.04606887e-02, 1.64156186e-03,
          6.76032389e-03, 7.92345125e-03, -4.03434671e-02,
          -1.29848961e-02, -1.50959296e-02, 9.47942585e-03,
          3.29114273e-02, 5.00414409e-02, 8.96759424e-03,
          -1.24539742e-02, 5.74655645e-03, -3.83675322e-02,
          -1.13568278e-02, 1.34296631e-02, -1.16002476e-02,
          4.97429911e-03, -2.76933257e-02, 1.07162129e-02,
          1.05616981e-02, 4.18478809e-03, -8.62030089e-02,
          -3.74398008e-02, -2.21247002e-02, -3.80387977e-02,
          -3.61100361e-02, -1.20152934e-02, 4.91769752e-03,
          4.55252565e-02, 1.60005875e-02, -2.66057309e-02,
          3.28387343e-03, -3.35533433e-02, 2.13268362e-02,
          -2.69071106e-02, -1.03386268e-01, 5.41281421e-03,
          -1.75555926e-02, 8.10005609e-03, -1.71066076e-02,
          -4.31495981e-04, 2.67900359e-02, -1.94224678e-02,
          -5.17321471e-03, -3.62080336e-02, 1.23568522e-02,
          4.52742279e-02, 1.05119487e-02, -5.41741885e-02,
          -6.64249286e-02, -2.68984009e-02, 1.07510881e-02,
          -6.08266890e-03, -4.57982868e-02, 8.65761843e-03,
          9.40227695e-03, 8.85607023e-03, -6.89117797e-03,
          2.97202496e-04, 1.29072564e-02, 1.39813870e-02, 4.64917393e-03,
          6.41659740e-03, 4.90134954e-03, -2.20426753e-01,
          3.38717410e-03, 2.01108567e-02, 7.23031955e-03, 1.38675068e-02,
          5.55158313e-03, 2.03579338e-03, 3.03919101e-03, 6.90622837e-04,
          9.45581775e-03, 2.07182229e-03, 4.30648215e-03, 3.89857683e-03,
          5.82024129e-03, 1.58178404e-01, 5.12867374e-03, 8.15807469e-03,
          9.43996478e-03, -3.36163253e-01, 5.49107557e-03,
          4.02734764e-02, 1.48194022e-02, 1.57405555e-01, 1.21303141e-01,
          7.24951911e-04, 1.79148011e-03, 3.95130046e-04, 1.30324475e-02,
          2.13293824e-04, 4.71255742e-03, 1.78810093e-03, 1.21123776e-01,
          8.35378841e-03, 3.20850685e-03, 5.58263669e-03, 4.77931113e-04,
          5.83359785e-03, 1.16049522e-03, 4.40842891e-03, 2.08310597e-03,
          8.35378841e-03, 6.33226382e-03, 2.69790972e-03, 5.98188676e-03,
          2.03952033e-04, 4.83284891e-03, 2.34569990e-04, 1.83123187e-03,
          6.89898850e-04, 6.38936600e-03, 6.00890722e-04, 9.80194425e-04,
          2.92267324e-03, 1.07498323e-04, 4.17902879e-03, 9.09100563e-05,
          3.46268644e-03, 1.28357904e-03, 7.21072662e-04, 8.69096257e-04,
          1.23542221e-03, 3.71529255e-03, 1.18267992e-04, 7.53448345e-03,
          2.05090968e-04, 3.35855549e-03, 1.27722509e-03, 8.87286908e-04,
          5.95360575e-03, 2.98521528e-03, 8.56813230e-03, 2.71871570e-04,
          9.37918201e-03, 2.99285835e-04, 1.07781636e-03, 5.50892844e-04,
          6.01776829e-03, 6.29597437e-03, 1.77017204e-03, 3.18148290e-03,
          2.54024955e-04, 3.00356979e-03, 6.99308177e-04, 5.41740935e-03,
          2.89627258e-03, 6.29597437e-03, 1.46517972e-03, 1.20529137e-03,
          3.41115450e-03, 1.94921784e-04, 6.07098639e-03, 3.25736502e-04,
          1.97450374e-03, 8.84561567e-04, 1.68816664e-03, 5.39941201e-03,
          1.99650601e-03, 4.83344682e-03, 8.25530151e-04, 6.52228249e-03,
          3.70065827e-04, 1.24570006e-03, 6.62224600e-04, 5.35154808e-03,
          -4.76366701e-03, 2.35756114e-03, -3.82121764e-02,
          1.07481927e-02, -5.71870171e-02, 1.22975986e-02,
          -3.02772727e-02, 4.72992146e-03, -1.20186794e-03,
          2.78182537e-03, 2.51417011e-02, -3.64141203e-02,
          1.73435155e-02, -1.46264210e-02, 6.76434673e-03,
          -5.56820072e-02, -1.94229856e-02, -7.00294878e-03,
          3.33041116e-03, -6.37029996e-03, -1.18223215e-02,
          6.73710252e-04, 7.42624328e-03, 1.66481975e-02,
          -1.13451481e-02, 3.92089225e-02, 6.32332085e-05,
          6.57133386e-03, 1.94694977e-02, -2.22069677e-02,
          1.81655716e-02, 1.71629339e-02, -7.73146190e-03,
          -1.28223272e-02, -6.35999674e-03, 6.54752646e-03,
          -1.88625325e-03, 1.34740062e-02, -4.19105999e-02,
          8.62386543e-03, -4.01649773e-02, 1.20767998e-03,
          -1.10361025e-01, -5.82834519e-02, -1.96260959e-02,
          7.49010593e-02, 2.61282139e-02, 3.83140557e-02, 1.13192378e-02,
          9.29290727e-02, 1.14830118e-02, 3.86872515e-02, 2.21783891e-02,
          6.75567314e-02, 1.87574588e-02, -4.01611701e-02,
          -3.07340100e-02, 2.75268592e-02, 2.30187327e-02,
          1.45870692e-03, -1.97363403e-02, -6.15592524e-02,
          1.92995295e-02, -2.06100419e-02, -1.16938598e-01,
          -9.25210267e-02, 3.68436351e-02, 1.12352753e-02,
          3.72924879e-02, 1.49822682e-01, 1.94587596e-02,
          -1.80819463e-02, 5.10613024e-02, 1.93182286e-02,
          2.14821547e-02, 1.42816557e-02, 1.28205225e-01, 9.62384325e-03,
          5.67046627e-02, 3.10370456e-02, 3.86011042e-02, 3.27360742e-02,
          6.20908197e-03, 5.97432116e-03, 3.56282364e-03, 4.56463695e-02,
          2.34169350e-03, 2.89858803e-02, 1.42821474e-02, 3.07989586e-02,
          -7.40129501e-02, -1.84304580e-01, -1.59884647e-01,
          -2.16383450e-02, -3.95475142e-02, 1.90933663e-02,
          8.89377743e-02, -1.16920426e-01, -9.06098634e-02,
          -8.82624909e-02, -2.11317409e-02, 5.06890714e-02,
          2.68773194e-02, -7.56073818e-02, 3.96768302e-02,
          8.52690786e-02, 2.65435558e-02, -8.81716460e-02,
          2.42648665e-02, 3.01028322e-03, 2.11450225e-03, 3.05026071e-04,
          2.88932957e-02, 6.74825395e-04, 5.87322190e-03, 3.02580977e-03,
          2.64873337e-02, 2.00541858e-02, 2.43050628e-03, 4.64721862e-03,
          6.14611839e-04, 1.41139077e-02, 1.24836492e-03, 9.99963935e-03,
          3.24459211e-03, 2.21351963e-02, -1.83193028e-01,
          4.00974005e-02, 1.24419950e-01, 2.20567938e-02,
          -1.36659637e-01, 2.71391440e-02, -1.99412972e-01,
          -6.66638138e-03, -1.82893082e-01, 9.65278968e-02,
          9.11710486e-02, 7.40950778e-02, 2.80719195e-02,
          -1.17502064e-01, 2.09679883e-02, 1.34036168e-01,
          5.84425256e-02, 9.65278968e-02, 1.76117178e-02, 1.62385486e-03,
          3.58845945e-03, 5.60044951e-04, 1.03267683e-02, 1.49787776e-03,
          1.16942357e-02, 4.06009704e-03, 1.92342382e-02, 1.38030890e-02,
          2.26260489e-03, 9.53171961e-03, 9.54312680e-04, 1.07449060e-02,
          8.82001827e-04, 4.78180358e-03, 1.96235022e-03, 1.40560931e-02,
          -1.14302516e-01, 7.13844001e-02, -2.34592278e-02,
          5.57281412e-02, -1.17553324e-01, 2.14620978e-02,
          7.47694075e-02, -3.40765789e-02, -1.11249298e-01,
          -1.31816000e-01, -1.70838330e-02, -1.46854203e-02,
          2.37117391e-02, -1.11525953e-01, 1.55718504e-02,
          -2.11669523e-02, -1.15190700e-01, -1.31666139e-01 ]
      - [ -9.74574685e-03, -5.43864968e-04, -7.38411676e-03,
          7.26863369e-03, -3.63796316e-02, 5.03427116e-03,
          -4.06288244e-02, -9.66775231e-03, -8.44063424e-03,
          -2.41849180e-02, -6.78565446e-03, -2.14694310e-02,
          3.63410497e-03, -3.06175016e-02, 4.24882770e-03,
          -3.87366600e-02, -2.55560037e-02, -2.39368808e-02,
          9.00244527e-03, 4.78241546e-03, -1.34251069e-03,
          1.09453136e-02, 1.45450318e-02, 6.24394603e-03,
          -2.96076275e-02, -5.82457706e-03, 1.52260344e-02,
          -1.77285112e-02, -7.96067622e-03, -2.47775149e-02,
          7.10432837e-03, -3.60654062e-03, 2.65374081e-03,
          -3.44975740e-02, -1.77781601e-02, -1.81660186e-02,
          -2.89760102e-02, -1.37791494e-02, -3.70166078e-02,
          4.60539851e-03, -3.45269069e-02, 5.95980138e-03,
          -4.36678305e-02, -2.97858715e-02, -2.88255718e-02,
          1.07541950e-02, 4.69973497e-03, -8.82987340e-04,
          5.57001727e-03, -3.49281775e-03, 3.87119129e-03,
          -6.99460926e-03, -1.64160773e-03, 1.20084947e-02,
          -2.80671101e-02, -1.30671961e-02, -3.62880006e-02,
          6.84787752e-03, -3.73788513e-02, 3.20652779e-03,
          -4.04850058e-02, -3.32842395e-02, -2.91309152e-02,
          1.75408702e-02, 1.58354436e-04, 1.05157640e-04, 2.93129915e-03,
          -1.89067293e-02, 4.58618579e-03, -1.88295785e-02,
          -6.02451060e-03, 1.84012409e-02, 1.82171911e-02,
          1.19609600e-02, 1.69760250e-02, 5.70914708e-03, 2.59663742e-02,
          5.02171926e-03, 9.05778911e-03, 6.24158978e-03, 1.76566746e-02,
          1.56500377e-02, 8.42302665e-03, 1.17056035e-02, 2.69544381e-03,
          1.71004143e-02, 3.66142183e-03, 1.26269469e-02, 1.07484059e-02,
          1.53942108e-02, 2.12218519e-02, 8.95931944e-03, 1.44924028e-02,
          8.44305754e-03, 2.72801779e-02, 6.30559307e-03, 1.26955733e-02,
          1.07266949e-02, 2.06358302e-02, 1.76345203e-02, 1.22179184e-02,
          1.70177072e-02, 1.08876396e-02, 2.17002369e-02, 7.53545342e-03,
          1.15953619e-02, 1.17161432e-02, 1.59752239e-02, 1.24969073e-02,
          6.50305487e-03, 9.90900211e-03, 3.96103319e-03, 2.02447847e-02,
          1.37581024e-03, 1.10905785e-02, 8.34129471e-03, 1.19631216e-02,
          1.48246791e-02, 3.37048993e-03, 8.16982239e-03, 1.36791170e-03,
          9.38207842e-03, 5.14825631e-04, 1.18922032e-02, 5.66265685e-03,
          1.49107613e-02, 2.62567718e-02, 1.08751627e-02, 1.45328650e-02,
          1.08013777e-02, 2.79091801e-02, 3.14474991e-03, 1.19666196e-02,
          8.80659744e-03, 2.27381047e-02, 2.32131891e-02, 8.35946575e-03,
          1.61346551e-02, 3.31284036e-03, 2.04064045e-02, 1.85301714e-03,
          1.95400584e-02, 1.14380298e-02, 2.31210236e-02, 1.72382649e-02,
          6.34982716e-03, 1.03220344e-02, 1.31073000e-03, 1.18088713e-02,
          2.61860929e-04, 1.41664129e-02, 5.09907445e-03, 1.82150062e-02,
          1.50813796e-02, 8.82270001e-03, 1.53066246e-02, 2.06865324e-03,
          1.76979695e-02, 4.28940053e-04, 1.20035764e-02, 4.28292248e-03,
          1.49801075e-02, 2.03918666e-02, 3.31290206e-03, 1.56126628e-02,
          1.58751174e-03, 1.31426407e-02, 1.12871733e-03, 1.62814911e-02,
          9.91631020e-03, 2.03538667e-02, 1.89599413e-02, 7.20781181e-03,
          2.22052056e-02, 2.75552226e-03, 2.33759470e-02, 1.87859626e-03,
          1.67344250e-02, 9.06800479e-03, 1.89305805e-02, 7.16033997e-03,
          1.18040042e-02, 1.39889596e-02, 1.54765313e-02, 2.60785446e-02,
          9.21369251e-03, -2.92443950e-02, -5.03807049e-03,
          1.41699379e-02, -2.97702663e-02, -9.93803423e-03,
          -2.82742679e-02, 3.17009329e-03, -2.82897577e-02,
          -3.76595388e-04, -4.16383259e-02, -1.95842683e-02,
          -2.98449788e-02, 1.86539348e-02, 1.33480066e-02,
          1.54633094e-02, 1.17500667e-02, 1.07234539e-02, 7.04658357e-03,
          -7.84238987e-03, 6.02959655e-04, 1.89721622e-02,
          -1.67129375e-02, -7.00168079e-03, -2.50983518e-02,
          3.41674872e-03, -2.27229688e-02, 4.28009965e-03,
          -4.06851023e-02, -1.52067561e-02, -1.47121446e-02,
          4.23188461e-03, -9.50174406e-03, -3.58521789e-02,
          -3.19433864e-03, -4.12295125e-02, 4.31073189e-04,
          -4.53312397e-02, -2.03820281e-02, 5.46826236e-03,
          3.32059525e-02, -9.32023453e-04, -6.17550779e-03,
          2.93843425e-03, -2.91965790e-02, 3.27919982e-03,
          -7.01009948e-03, -2.37906585e-03, 3.28169800e-02,
          6.36022817e-03, -2.11986192e-02, -3.37632522e-02,
          -2.18409067e-03, -3.91639285e-02, 3.48664355e-03,
          -3.49293277e-02, -1.32296681e-02, 8.63003638e-03,
          2.48686783e-02, 3.71860107e-03, -1.56783890e-02,
          6.67835493e-03, -3.64613533e-02, 6.79722615e-03,
          2.51873117e-03, 4.05067718e-03, 2.51761843e-02, 3.27516720e-02,
          1.00150919e-02, 1.38066104e-02, 8.00579693e-03,
          -4.76603210e-02, 5.23914443e-03, 2.12414619e-02,
          1.14094978e-02, 3.26207764e-02, 2.91877873e-02, 1.05945868e-02,
          1.68354120e-02, 1.13392444e-02, 3.02438475e-02, 6.01112982e-03,
          2.01069936e-02, 1.68062616e-02, 2.81616673e-02, 3.33761983e-02,
          1.14519829e-02, 1.63401738e-02, 6.67118048e-03,
          -1.58039287e-01, 7.22155906e-03, 2.80136727e-02,
          1.55642871e-02, 3.29279192e-02, 3.47575098e-02, 7.37439375e-03,
          1.22008137e-02, 6.97432971e-03, 2.93214340e-02, 4.90586646e-03,
          2.49880645e-02, 1.26466146e-02, 3.36437188e-02, 2.58125011e-02,
          1.28289508e-02, 1.43981483e-02, 1.28098242e-02, 2.32421905e-02,
          3.68734170e-03, 1.21406168e-02, 7.92810600e-03, 2.35139485e-02,
          2.46686116e-02, 7.39807077e-03, 1.67009179e-02, 5.09983767e-03,
          2.25001946e-02, 5.05405711e-03, 2.07487512e-02, 1.15023796e-02,
          2.44806018e-02, 3.86957787e-02, 7.67538138e-03, 1.27362479e-02,
          7.61874020e-03, 3.47946361e-02, 6.20178506e-03, 2.25316975e-02,
          1.50659392e-02, 3.80015746e-02, 3.06751616e-02, 6.99263858e-03,
          1.19449235e-02, 3.61425197e-03, 2.27220170e-02, 2.75313063e-03,
          1.80575438e-02, 1.05061950e-02, 2.96420958e-02, 2.48203557e-02,
          5.29333577e-03, 1.49115622e-02, 3.07800598e-03, 1.36754755e-02,
          1.93012145e-03, 1.63877346e-02, 9.43690352e-03, 2.38456745e-02,
          2.12997254e-02, 7.47417053e-03, 2.16815099e-02, 4.58503794e-03,
          2.63885781e-02, 3.02810408e-03, 1.18774790e-02, 7.34402798e-03,
          2.02907007e-02, 2.82825083e-02, 2.77205231e-03, 5.00544021e-03,
          1.26635563e-03, 1.89610515e-02, 2.36079469e-03, 2.21555773e-02,
          1.30871199e-02, 2.89881062e-02, 2.77715269e-02, 1.57485288e-02,
          2.76951473e-02, 5.13235759e-03, 3.85610014e-02, 6.41697925e-03,
          1.20079415e-02, 7.46710412e-03, 2.74260975e-02, 2.78137010e-02,
          1.14729116e-02, 2.20463332e-03, 1.16088307e-02, 9.53090470e-03,
          1.03074964e-02, -1.52067598e-02, 1.27433927e-03,
          2.80084684e-02, -1.66092236e-02, -1.12617696e-02,
          -2.63928119e-02, 5.13242977e-03, -2.98562329e-02,
          6.30815513e-03, -3.92111093e-02, -1.21263629e-02,
          -1.52777554e-02, 2.04228908e-02, 3.63529520e-03,
          -1.23371240e-02, 1.18445260e-02, 3.51527147e-03,
          1.38019705e-02, -2.43933871e-02, -3.84835526e-03,
          1.88178699e-02, -1.37595981e-02, -1.71085317e-02,
          -2.90481616e-02, 5.53567614e-03, -3.11438795e-02,
          6.16914313e-03, -3.02482955e-02, -8.25102907e-03,
          -1.23930564e-02, -1.22399284e-02, -2.46441923e-02,
          -3.29028033e-02, 5.88146877e-03, -3.47192697e-02,
          1.01343319e-02, -3.54648121e-02, -1.45030115e-02,
          -1.37512879e-02, 2.28691641e-02, 7.29065668e-03,
          -8.30220245e-03, 1.06153293e-02, -2.40219776e-02,
          1.19802812e-02, 1.14187477e-02, 1.09070316e-02, 2.62068808e-02,
          -1.69178322e-02, -1.60151608e-02, -3.34196314e-02,
          1.17271105e-02, -2.96548046e-02, 1.16202487e-02,
          -1.83905549e-02, 4.79570078e-03, -1.55641818e-02,
          3.14128809e-02, 6.09461404e-03, 4.28912137e-03, 1.09633561e-02,
          1.81892067e-02, 1.16748847e-02, 2.05331817e-02, 1.78133063e-02,
          2.91311406e-02, 3.98295335e-02, 1.23291453e-02, 1.61795523e-02,
          9.24624410e-03, -9.69843641e-02, 1.02881538e-02,
          2.39966847e-02, 1.40790297e-02, 3.91766615e-02, 3.80343348e-02,
          7.07196398e-03, 1.12464884e-02, 7.23265950e-03, 2.92480253e-02,
          5.95883979e-03, 2.20447425e-02, 1.19404811e-02, 3.67439054e-02,
          3.08639258e-02, 1.04808817e-02, 1.99695136e-02, 1.00214574e-02,
          -9.21128169e-02, 8.73583090e-03, 2.21889783e-02,
          1.39610535e-02, 3.11731901e-02, 3.24525014e-02, 1.60594340e-02,
          1.85226109e-02, 7.33248144e-03, 3.49605680e-02, 5.70411235e-03,
          1.21218059e-02, 7.82359857e-03, 3.30180638e-02, 3.67100537e-02,
          6.75040158e-03, 1.43717658e-02, 7.43323285e-03, 4.38968316e-02,
          3.79249756e-03, 1.84033103e-02, 1.21449232e-02, 3.74634452e-02,
          2.78512798e-02, 7.56610977e-03, 1.66501198e-02, 4.35817894e-03,
          2.69831922e-02, 3.57668358e-03, 2.24504974e-02, 1.56544875e-02,
          2.91770641e-02, 3.32385339e-02, 1.23311980e-02, 1.48602957e-02,
          5.19807916e-03, 4.89847958e-02, 4.70262626e-03, 1.65044181e-02,
          9.14579723e-03, 3.20615470e-02, 3.31386961e-02, 8.64620414e-03,
          1.72822028e-02, 3.62370885e-03, 2.89966669e-02, 5.11186104e-03,
          3.34577449e-02, 1.72313210e-02, 3.23195830e-02, 2.64630858e-02,
          5.48262475e-03, 1.14920111e-02, 2.25131563e-03, 2.02443339e-02,
          2.68441089e-03, 2.01103445e-02, 9.85238142e-03, 2.69491095e-02,
          2.54859626e-02, 1.25835584e-02, 2.99169309e-02, 7.27943145e-03,
          3.94394845e-02, 5.72431833e-03, 2.53162254e-02, 1.42501248e-02,
          2.64135711e-02, 2.96754055e-02, 7.50278356e-03, 1.72781628e-02,
          4.15942678e-03, 2.37195268e-02, 4.45966981e-03, 2.61764470e-02,
          1.43947117e-02, 2.93386951e-02, 3.06647960e-02, 1.57020390e-02,
          3.03899571e-02, 8.61445628e-03, 4.67436127e-02, 9.77317151e-03,
          3.73423547e-02, 1.96748041e-02, 3.01522482e-02, 1.33638950e-02,
          3.48733668e-03, -4.44608647e-03, 1.10562844e-02,
          -2.19673431e-03, 1.43829901e-02, -2.06041466e-02,
          6.71746500e-04, 1.45212784e-02, -2.15825476e-02,
          -1.10614700e-02, -3.52815539e-02, 5.13360137e-03,
          -2.87978239e-02, 5.85669838e-03, -2.60853488e-02,
          -5.26294578e-03, -1.99641678e-02, 1.81707963e-02,
          3.86011926e-03, -4.87443712e-03, 1.46230143e-02,
          3.20966216e-03, 2.22551376e-02, 1.31602790e-02, 1.92495100e-02,
          1.73591301e-02, -1.58555545e-02, -4.42208629e-03,
          -2.93464810e-02, 5.21793356e-03, -1.26654645e-02,
          8.93718842e-03, -3.22445706e-02, -7.90436752e-03,
          -1.94029361e-02, -1.98027473e-02, -2.41528414e-02,
          -3.40782404e-02, 8.04615952e-03, -2.02181954e-02,
          5.95187256e-03, -2.45845467e-02, -9.00578918e-04,
          -1.90511439e-02, 1.70666650e-02, -3.33280046e-03,
          -2.83773653e-02, 8.28432851e-03, -1.94067485e-03,
          1.03765903e-02, 4.19182237e-03, 1.35916006e-02, 1.57450587e-02,
          -6.66804891e-03, -7.42762908e-03, -2.99057495e-02,
          1.17252106e-02, -2.11673863e-02, 7.79006165e-03,
          -2.22577546e-02, -1.10359872e-02, -1.24565689e-02,
          2.35447548e-02, 4.21936391e-03, -3.57168983e-03,
          6.75215293e-03, 1.91877484e-02, 6.09491579e-03, 8.27643834e-03,
          6.73194090e-03, 2.24364586e-02, 3.70812081e-02, 1.87834166e-02,
          2.46604867e-02, 9.04021226e-03, -9.34666246e-02,
          6.16803998e-03, 2.33240630e-02, 1.27987005e-02, 3.54442261e-02,
          3.04506347e-02, 1.55936871e-02, 2.50898860e-02, 6.20849757e-03,
          4.72527668e-02, 5.49959857e-03, 1.50523745e-02, 8.83240439e-03,
          3.02205849e-02, 4.25838083e-02, 1.72443297e-02, 2.92061269e-02,
          7.25984527e-03, -9.85701308e-02, 9.37340595e-03,
          2.86848992e-02, 1.68605428e-02, 4.11919169e-02, 3.53387818e-02,
          2.17380915e-02, 3.12402863e-02, 6.41279668e-03, 4.99572642e-02,
          1.04581947e-02, 2.89180111e-02, 1.70409139e-02, 3.58337387e-02,
          3.72713283e-02, 1.40961874e-02, 1.62753016e-02, 8.21349397e-03,
          4.22167815e-02, 5.18168928e-03, 9.91598144e-03, 9.66073480e-03,
          3.94547097e-02, 3.35425027e-02, 9.81559418e-03, 1.32006761e-02,
          7.77807087e-03, 3.19154263e-02, 1.49710318e-02, 2.87903175e-02,
          2.52638254e-02, 3.57666649e-02, 2.69174892e-02, 9.35401022e-03,
          1.78755131e-02, 3.81663186e-03, 3.73221934e-02, 1.29088666e-02,
          1.80442296e-02, 1.38730928e-02, 3.02873626e-02, 2.61790454e-02,
          1.44911781e-02, 2.48861350e-02, 5.77925239e-03, 3.38096991e-02,
          5.36920130e-03, 1.72678940e-02, 8.13933741e-03, 2.70901080e-02,
          2.54982114e-02, 9.44383908e-03, 1.63892563e-02, 6.20369613e-03,
          2.38205548e-02, 5.79754589e-03, 2.12691706e-02, 1.38589088e-02,
          2.63765752e-02, 3.09928339e-02, 1.47911683e-02, 2.65267305e-02,
          1.12294760e-02, 4.72569615e-02, 1.34253977e-02, 2.91405544e-02,
          2.25850996e-02, 3.12978998e-02, 2.28900835e-02, 9.59888194e-03,
          1.90324821e-02, 4.15945007e-03, 2.28441060e-02, 5.87446196e-03,
          1.40301967e-02, 9.15935636e-03, 2.34093536e-02, 2.12781671e-02,
          7.02748261e-03, 1.18431542e-02, 2.79286294e-03, 3.15660052e-02,
          4.36949031e-03, 2.04821620e-02, 8.88746791e-03, 2.16272268e-02,
          2.00759340e-02, -2.87567708e-03, -1.84078533e-02,
          9.21247527e-03, 7.78206578e-03, 1.20388595e-02, 9.11567081e-03,
          1.46565130e-02, 1.59804821e-02, -9.22873267e-04,
          -3.75847192e-03, -2.32219100e-02, 5.32980915e-03,
          -2.47789756e-03, 7.66755221e-03, -2.03363486e-02,
          -3.41393775e-03, -5.03098685e-03, -9.24269203e-03,
          -1.40517317e-02, -2.23126411e-02, 3.99248034e-04,
          -1.61902476e-02, 2.09602807e-03, -2.53951899e-03,
          3.32154869e-03, -1.05968537e-02, -7.38578057e-03,
          -2.15424746e-02, -2.87789013e-02, 2.69039324e-03,
          -1.56417731e-02, -4.83000232e-03, -9.46056284e-03,
          -1.42097557e-02, -9.11177415e-03, -1.05932411e-02,
          -4.27510077e-03, -2.00175140e-02, 4.96789906e-03,
          -2.46761292e-02, 4.89693973e-03, -3.00494321e-02,
          -1.80114210e-02, -1.46558229e-02, 2.08244249e-02,
          6.68075681e-03, 9.55173559e-03, 6.83245389e-03, 1.39038628e-02,
          5.17878169e-03, 1.16694085e-02, 4.98202210e-03, 1.96953416e-02,
          -8.50481447e-03, -2.31274106e-02, -2.18738597e-02,
          9.55577474e-03, -1.41911516e-02, -1.47120131e-03,
          -1.43708196e-02, -2.40233261e-02, -8.10023677e-03,
          -1.04634771e-02, -3.06835361e-02, -2.58971155e-02,
          4.62036487e-03, -5.03090350e-03, 5.67492284e-03,
          2.36300677e-02, -1.05204957e-03, -9.30822268e-03,
          1.90536138e-02, 7.99352862e-03, 1.10902069e-02, 5.97291021e-03,
          2.66310517e-02, 6.48461096e-03, 1.91125292e-02, 1.09954607e-02,
          1.91429947e-02, 1.64695401e-02, 1.05965957e-02, 1.54703883e-02,
          5.20282472e-03, 2.63725463e-02, 6.85897563e-03, 1.75751243e-02,
          1.17535442e-02, 1.75134595e-02, -2.40717418e-02,
          -4.86648791e-02, -3.81871760e-02, -7.93724321e-03,
          -1.72705986e-02, 3.95080913e-03, 9.17982776e-03,
          -3.36431935e-02, -2.26252768e-02, -2.88473945e-02,
          -6.25094306e-03, 7.82399997e-03, 6.04355847e-03,
          -2.16685459e-02, 4.88801999e-03, -3.30247357e-03,
          -4.99786437e-03, -2.81250551e-02, 1.64445788e-02,
          1.13469716e-02, 1.59035306e-02, 5.45462826e-03, 3.27655412e-02,
          1.16765648e-02, 1.58085562e-02, 1.16422195e-02, 2.01618169e-02,
          2.06969343e-02, 1.05441455e-02, 1.93750206e-02, 3.43671301e-03,
          2.14922540e-02, 4.56124172e-03, 1.47313634e-02, 6.79171970e-03,
          2.17593517e-02, -5.01957051e-02, 5.88006433e-03,
          1.83993336e-02, 9.48271621e-03, -4.41067219e-02,
          9.12786927e-03, -6.65830076e-02, -2.84442236e-03,
          -4.78771664e-02, 2.45145019e-02, 7.41327507e-03,
          -3.48806777e-03, 5.90864383e-03, -4.15558927e-02,
          6.24801638e-03, 2.02955529e-02, 1.27245085e-02, 2.43275035e-02,
          2.11242326e-02, 9.19269398e-03, 1.61867030e-02, 2.84113945e-03,
          2.09072940e-02, 3.05844634e-03, 2.09037475e-02, 8.77791736e-03,
          2.21489631e-02, 2.43911128e-02, 1.35177271e-02, 2.03290693e-02,
          4.88561625e-03, 3.29429023e-02, 7.91690219e-03, 2.71503422e-02,
          1.25928195e-02, 2.45467108e-02, -3.19605581e-02,
          -1.08258496e-03, -2.40114108e-02, 5.23528084e-03,
          -3.87690216e-02, 9.01069399e-03, 5.05888648e-03,
          -3.44574917e-04, -3.21056657e-02, -3.89675610e-02,
          1.31846196e-03, -1.42104486e-02, 6.71562599e-03,
          -3.47241834e-02, 1.01503609e-02, -9.28871334e-03,
          -2.14724075e-02, -3.88862304e-02 ]
   uncompressed_sv_total: 186
   uncompressed_support_vectors:
      - [ 4.40379456e-02, 1.74869541e-02, 5.23274392e-02, 0.,
          3.55999619e-02, 0., 2.15828456e-02, 7.21261464e-03,
          4.40379456e-02, 5.36323115e-02, 2.27230676e-02, 5.04924506e-02,
          3.09230550e-03, 4.65110317e-02, 1.86675054e-04, 2.15475932e-02,
          6.86540036e-03, 5.04930429e-02, 3.10625017e-01, 3.32109705e-02,
          3.30665857e-01, 9.45946053e-02, 6.68579787e-02, 0.,
          8.61104429e-02, 1.94355637e-01, 3.30665857e-01, 3.30665857e-01,
          2.64205068e-01, 3.30665857e-01, 3.30665857e-01, 1.63451433e-01,
          1.87174529e-02, 1.82493448e-01, 1.85471445e-01, 3.30665857e-01,
          3.39310989e-02, 3.37281413e-02, 4.79408428e-02, 5.08228363e-03,
          6.34320304e-02, 3.90651915e-03, 2.94784326e-02, 1.00412443e-02,
          2.79800985e-02, 8.68069753e-02, 1.41767606e-01, 1.36664644e-01,
          1.47695486e-02, 1.56063512e-01, 5.73054440e-02, 7.61597976e-02,
          1.91543903e-02, 8.83219764e-02, 2.96350747e-01, 2.96350747e-01,
          1.34433091e-01, 1.93375871e-01, 2.21330658e-01, 1.18402317e-01,
          1.63098738e-01, 6.70655072e-02, 2.96350747e-01, 2.96350747e-01,
          2.96350747e-01, 1.89760908e-01, 7.13783652e-02, 2.96350747e-01,
          2.38882944e-01, 1.75938502e-01, 7.09626600e-02, 2.96350747e-01,
          2.53340602e-01, 2.53340602e-01, 2.36768112e-01, 8.85170698e-02,
          2.53340602e-01, 9.27505121e-02, 1.10609792e-01, 3.43073457e-02,
          1.98963583e-01, 2.53340602e-01, 2.03528300e-01, 1.94317058e-01,
          1.17223851e-01, 2.53340602e-01, 5.40478267e-02, 6.17028885e-02,
          3.16587202e-02, 1.51054338e-01, 2.25129023e-01, 2.53340602e-01,
          2.53340602e-01, 5.13158180e-02, 2.53340602e-01, 1.40294641e-01,
          1.24027811e-01, 3.32242996e-02, 2.21769556e-01, 1.07482918e-01,
          1.29621521e-01, 1.79525033e-01, 3.51631045e-02, 1.67414874e-01,
          1.50042744e-02, 4.09425795e-02, 1.59223750e-02, 6.61720783e-02,
          2.59559546e-02, 2.03322917e-02, 2.76342109e-02, 8.02047830e-03,
          4.35568467e-02, 9.89342015e-03, 1.34915952e-02, 5.31757111e-03,
          1.76558960e-02, 2.02714764e-02, 7.94021189e-02, 1.80168733e-01,
          2.76599936e-02, 9.35104266e-02, 1.78340837e-01, 1.24527197e-02,
          1.14487708e-01, 7.81606734e-02, 1.05451448e-02, 8.28179996e-03,
          5.13088666e-02, 1.31061217e-02, 5.01275808e-02, 1.61165539e-02,
          5.04564447e-03, 1.12775974e-02, 3.59230898e-02, 1.89537868e-01,
          1.61008790e-01, 3.89519513e-01, 2.39836857e-01, 3.89519513e-01,
          3.89519513e-01, 8.13427493e-02, 3.89519513e-01, 3.89519513e-01,
          5.71428873e-02, 7.74408653e-02, 1.80505797e-01, 3.48379500e-02,
          8.56940150e-02, 1.55380085e-01, 1.41221760e-02, 6.37379736e-02,
          1.64056331e-01, 2.04399824e-01, 2.32289925e-01, 2.58071214e-01,
          4.46014516e-02, 2.40569562e-01, 2.58071214e-01, 4.07681689e-02,
          1.32090405e-01, 2.58071214e-01, 1.00606710e-01, 1.06725276e-01,
          2.58071214e-01, 6.65915683e-02, 2.58071214e-01, 2.58071214e-01,
          2.04286035e-02, 1.70355573e-01, 2.58071214e-01, 1.03803806e-01,
          9.32921320e-02, 2.39853978e-01, 3.71166728e-02, 1.65820256e-01,
          1.41965821e-01, 1.12654855e-02, 5.13252579e-02, 2.58071214e-01,
          1.23123400e-01, 7.54614398e-02, 2.42360964e-01, 3.39765511e-02,
          9.82704386e-02, 9.36533511e-02, 4.73920889e-02, 6.10115603e-02,
          1.85083345e-01, 2.43082911e-01, 1.50065854e-01, 2.43082911e-01,
          1.08415619e-01, 2.43082911e-01, 1.25747874e-01, 5.48173375e-02,
          6.38224930e-02, 2.43082911e-01, 1.98786080e-01, 2.05660477e-01,
          2.43082911e-01, 4.27964516e-02, 1.80766761e-01, 1.29144758e-01,
          5.75908311e-02, 6.69465885e-02, 2.43082911e-01, 2.43082911e-01,
          1.65986255e-01, 2.43082911e-01, 9.77175534e-02, 2.43082911e-01,
          1.57857582e-01, 5.59830479e-02, 6.45238087e-02, 2.43082911e-01,
          2.53481239e-01, 8.76781195e-02, 4.07379493e-02, 1.45138398e-01,
          2.10859463e-01, 1.34668604e-01, 2.44505089e-02, 2.13053990e-02,
          2.53481239e-01, 1.98446244e-01, 2.09598634e-02, 7.49700703e-03,
          1.52684286e-01, 1.04462050e-01, 1.09910481e-01, 5.77460751e-02,
          3.19124013e-02, 2.04345092e-01, 2.53481239e-01, 8.21302459e-02,
          4.76107746e-02, 1.87559217e-01, 2.53481239e-01, 2.04289079e-01,
          4.45327684e-02, 4.62891683e-02, 2.53481239e-01, 2.53481239e-01,
          3.65159623e-02, 1.05369575e-02, 2.53481239e-01, 2.53481239e-01,
          2.46788949e-01, 1.55512676e-01, 1.27496883e-01, 2.53481239e-01,
          8.20444599e-02, 1.13302525e-02, 7.11413939e-03, 5.15054576e-02,
          3.97774950e-02, 3.62663046e-02, 5.29484563e-02, 3.02628223e-02,
          8.82998034e-02, 1.50837684e-02, 3.12320818e-03, 7.24611618e-03,
          1.71878410e-03, 7.69521203e-03, 1.97130465e-03, 5.09513216e-03,
          5.90929389e-03, 1.11716492e-02, 3.09268087e-01, 5.76064289e-02,
          9.30873677e-03, 3.09268087e-01, 3.09268087e-01, 2.44125530e-01,
          1.83442175e-01, 2.05179960e-01, 3.09268087e-01, 3.09268087e-01,
          9.94090289e-02, 1.61881387e-01, 3.09268087e-01, 3.09268087e-01,
          9.89086106e-02, 1.08829387e-01, 1.03685364e-01, 3.09268087e-01,
          2.71698926e-02, 3.03212907e-02, 6.59549385e-02, 1.45309400e-02,
          5.05744070e-02, 3.62935327e-02, 9.53039969e-04, 1.30206216e-02,
          4.31417599e-02, 1.35698363e-01, 1.07721828e-01, 2.70713747e-01,
          8.08351561e-02, 2.70713747e-01, 1.97316140e-01, 1.09553132e-02,
          9.21907574e-02, 2.70713747e-01, 2.27400899e-01, 1.63178414e-01,
          2.70713747e-01, 9.30984691e-02, 2.46431306e-01, 1.05787627e-01,
          4.49639484e-02, 6.36202991e-02, 1.40881509e-01, 2.70713747e-01,
          2.70713747e-01, 2.70713747e-01, 1.06518902e-01, 2.70713747e-01,
          1.85100794e-01, 1.40987700e-02, 1.04122020e-01, 2.70713747e-01,
          2.44322598e-01, 1.69564620e-01, 3.11692715e-01, 1.38100967e-01,
          3.11692715e-01, 3.11692715e-01, 3.00550815e-02, 2.15075046e-01,
          3.11692715e-01, 3.25835198e-02, 3.03012561e-02, 7.56510645e-02,
          1.03198485e-02, 9.12112817e-02, 5.84899336e-02, 6.86886627e-03,
          2.61548534e-02, 9.44598317e-02, 2.71886885e-01, 2.00156271e-01,
          3.11692715e-01, 1.15603596e-01, 3.11692715e-01, 1.45008996e-01,
          1.04961256e-02, 8.03034753e-02, 2.73950011e-01, 2.54755025e-03,
          1.30630692e-03, 9.55289113e-04, 3.16090795e-04, 7.86238909e-03,
          1.61260650e-05, 4.24082344e-03, 1.60943996e-03, 3.65981460e-03,
          3.44821483e-01, 3.44821483e-01, 3.44821483e-01, 6.64886832e-02,
          3.44821483e-01, 2.15882555e-01, 4.09716144e-02, 6.77350760e-02,
          3.44821483e-01, 2.08008289e-01, 1.02473237e-01, 1.43246353e-01,
          2.56615262e-02, 2.09853426e-01, 1.16233744e-01, 3.03639248e-02,
          2.66329832e-02, 2.99576700e-01, 1.65142089e-01, 1.10983208e-01,
          1.79300204e-01, 1.01285940e-02, 1.72592565e-01, 4.70698811e-02,
          1.10990386e-02, 5.41959098e-03, 1.23450577e-01, 9.14211478e-03,
          1.16615715e-02, 3.48957330e-02, 0., 1.10473353e-02, 0.,
          8.96953628e-04, 2.99746229e-04, 9.14211478e-03, 3.17231923e-01,
          3.24557871e-02, 4.46811579e-02, 1.36096716e-01, 2.07169354e-01,
          1.76925436e-01, 7.41250888e-02, 7.30715245e-02, 3.17231923e-01,
          3.17231923e-01, 7.28577226e-02, 1.58842970e-02, 3.17231923e-01,
          3.17231923e-01, 3.17231923e-01, 2.93093204e-01, 2.98830211e-01,
          3.17231923e-01, 1.34813040e-03, 6.37034606e-03, 1.90624315e-02,
          0., 8.95223487e-03, 0., 1.97314378e-03, 7.86275661e-04,
          1.34813040e-03, 3.57533433e-02, 2.25497410e-03, 6.74771611e-03,
          2.96077365e-03, 4.68021668e-02, 2.94550019e-03, 1.50740733e-02,
          7.92827364e-03, 2.58231610e-02, 2.96930730e-01, 3.43032479e-02,
          9.17967595e-03, 1.86359018e-01, 2.96930730e-01, 1.44192949e-01,
          7.61974305e-02, 1.05536565e-01, 2.96930730e-01, 2.96930730e-01,
          1.13863178e-01, 2.53598154e-01, 2.96930730e-01, 2.96930730e-01,
          1.53406009e-01, 2.24238679e-01, 1.37329623e-01, 2.96930730e-01,
          7.25619048e-02, 1.24387909e-03, 2.48882989e-03, 1.02104489e-02,
          4.72996943e-02, 8.45500827e-03, 9.52345692e-03, 6.27372647e-03,
          4.40944172e-02, 1.93080932e-01, 2.71355920e-02, 8.35305452e-02,
          5.19200638e-02, 1.73296764e-01, 6.51019886e-02, 1.41109437e-01,
          7.67842382e-02, 1.36569872e-01, 2.40760908e-01, 1.79293647e-01,
          2.67266870e-01, 8.91620219e-02, 2.67266870e-01, 1.33623436e-01,
          1.94666266e-01, 1.13638081e-01, 1.94591463e-01, 1.69553310e-01,
          1.74145952e-01, 2.67266870e-01, 3.98897119e-02, 2.67266870e-01,
          1.08267963e-01, 8.76609981e-02, 7.76709467e-02, 1.53738901e-01,
          1.48764580e-01, 5.81196807e-02, 1.78827465e-01, 2.69751772e-02,
          2.67266870e-01, 8.11698586e-02, 1.94296911e-01, 9.55256671e-02,
          1.90630421e-01, 1.46635771e-01, 4.62908335e-02, 1.39976844e-01,
          2.18570307e-02, 2.67266870e-01, 6.85668364e-02, 1.40657380e-01,
          6.55931011e-02, 1.84070438e-01, 3.39960873e-01, 2.49044567e-01,
          3.39960873e-01, 1.32343531e-01, 3.39960873e-01, 2.05016389e-01,
          5.70465848e-02, 1.01271003e-01, 2.11957633e-01, 7.01333908e-03,
          9.48251749e-04, 2.83753080e-03, 1.78695380e-04, 1.62372217e-02,
          0., 1.38679817e-02, 4.63443855e-03, 7.01333908e-03,
          3.39960873e-01, 3.88158746e-02, 1.13850541e-01, 7.17039928e-02,
          3.39960873e-01, 1.60782009e-01, 2.32906535e-01, 1.05572172e-01,
          3.39960873e-01, 6.14382401e-02, 6.11279043e-04, 1.52790127e-03,
          8.60882225e-04, 8.19299296e-02, 2.39949790e-03, 1.81261338e-02,
          6.05744775e-03, 2.93063689e-02, 9.10409465e-02, 9.25113540e-03,
          7.70787336e-03, 2.73870789e-02, 1.11244678e-01, 1.40890023e-02,
          8.23557451e-02, 3.20777446e-02, 9.94638652e-02, 7.17628282e-03,
          3.72375827e-03, 1.11428630e-02, 0., 2.46595358e-03,
          5.49911092e-05, 1.60152384e-03, 5.34017279e-04, 7.17628282e-03,
          4.01197433e-01, 1.43563151e-01, 9.97591689e-02, 1.88519761e-01,
          4.01197433e-01, 5.18860035e-02, 4.01197433e-01, 4.01197433e-01,
          4.01197433e-01, 1.19322039e-01, 1.35150431e-02, 2.64245681e-02,
          4.37789643e-03, 5.23080900e-02, 2.77850404e-03, 2.27613866e-01,
          6.00165389e-02, 9.69395339e-02, 6.75936714e-02, 3.97641473e-02,
          1.18989028e-01, 0., 6.51004314e-02, 0., 2.40686713e-04,
          8.04334777e-05, 6.75936714e-02, 3.31633091e-02, 6.85019493e-02,
          2.04983190e-01, 0., 3.34868193e-01, 0., 8.66486318e-03,
          2.89565232e-03, 3.31633091e-02, 3.34868193e-01, 6.05420060e-02,
          1.55691877e-01, 6.67830333e-02, 1.57745957e-01, 2.62489077e-02,
          1.38353646e-01, 9.82693136e-02, 3.34868193e-01, 3.34868193e-01,
          1.31996423e-01, 2.99795806e-01, 1.80193424e-01, 3.34868193e-01,
          5.10840230e-02, 1.18526921e-01, 5.05912863e-02, 3.34868193e-01,
          2.36334484e-02, 2.76319068e-02, 8.26848820e-02, 0.,
          1.65831238e-01, 6.47663313e-04, 3.06727476e-02, 1.31495269e-02,
          2.42386479e-02, 2.23360226e-01, 8.35739449e-02, 2.08833888e-01,
          1.15775596e-02, 2.92931199e-01, 9.79107022e-02, 2.92931199e-01,
          2.26189122e-01, 2.92931199e-01, 2.92931199e-01, 1.01042822e-01,
          2.11397350e-01, 1.73827961e-01, 1.86062604e-01, 2.44276337e-02,
          4.80491966e-02, 1.20995911e-02, 2.15171173e-01, 2.02332065e-01,
          2.67287642e-01, 2.92931199e-01, 1.26957327e-01, 1.55493066e-01,
          2.60083862e-02, 1.04702227e-01, 4.95059639e-02, 1.82891428e-01,
          1.82911754e-01, 8.32789764e-03, 1.60404705e-02, 1.76791009e-02,
          2.67316729e-01, 2.83469986e-02, 1.21298045e-01, 6.95015267e-02,
          1.99506149e-01, 3.50708604e-01, 4.42355499e-03, 4.18613246e-03,
          1.55977428e-01, 3.50708604e-01, 6.94700480e-02, 1.88261792e-01,
          9.47483033e-02, 3.50708604e-01, 2.31150240e-02, 3.02384812e-02,
          3.69350538e-02, 5.21634379e-03, 2.92579439e-02, 8.40922445e-03,
          1.20492112e-02, 5.17282076e-03, 2.11514514e-02, 3.50708604e-01,
          2.09825300e-02, 1.77019984e-02, 1.45312771e-01, 3.50708604e-01,
          1.90980285e-02, 1.79278161e-02, 6.77962974e-03, 3.39425653e-01,
          3.73590320e-01, 2.28544348e-03, 2.60227360e-03, 1.22440867e-01,
          3.73590320e-01, 3.26166153e-02, 7.93828219e-02, 3.26457806e-02,
          3.73590320e-01, 1.12353764e-01, 5.10750338e-04, 1.33038580e-03,
          5.43593010e-03, 2.02064246e-01, 1.91838189e-03, 1.01236627e-02,
          3.38315894e-03, 6.46579191e-02, 3.73590320e-01, 7.20146997e-03,
          1.26594817e-02, 1.30738020e-01, 3.73590320e-01, 7.50885950e-03,
          1.82547439e-02, 6.35344349e-03, 3.73590320e-01, 1.07679814e-01,
          1.02710992e-03, 3.18136695e-03, 6.11837162e-03, 2.07374051e-01,
          7.90442107e-04, 3.94622143e-03, 1.31876138e-03, 7.23260045e-02,
          2.73833990e-01, 4.38268706e-02, 8.72059539e-02, 3.96638550e-02,
          2.13008076e-01, 2.41150372e-02, 2.73833990e-01, 1.88878790e-01,
          2.03212902e-01, 1.16590284e-01, 8.96155089e-03, 2.23645568e-02,
          6.73134858e-03, 7.42859468e-02, 3.75198130e-03, 2.73833990e-01,
          1.14739075e-01, 1.04206637e-01, 2.62413085e-01, 2.58260891e-02,
          9.92801338e-02, 2.15702523e-02, 1.68883845e-01, 1.92163158e-02,
          2.73833990e-01, 1.40223518e-01, 2.41771758e-01, 2.73833990e-01,
          7.18374411e-03, 2.40143109e-02, 1.96731277e-02, 2.73833990e-01,
          5.91767579e-03, 2.73833990e-01, 1.77979648e-01, 2.73833990e-01,
          6.04189262e-02, 1.41620927e-03, 3.15212831e-03, 8.29795562e-03,
          4.81629409e-02, 2.52545043e-03, 1.26802370e-01, 5.02330661e-02,
          5.94090857e-02, 5.86703643e-02, 1.58693902e-02, 4.19354998e-02,
          9.16732010e-03, 2.52980366e-02, 8.69750232e-03, 6.13572961e-03,
          1.72220287e-03, 5.16029745e-02, 3.38804156e-01, 2.51360377e-03,
          1.08268252e-02, 2.80731004e-02, 3.28157425e-01, 7.74521334e-03,
          3.38804156e-01, 1.17440812e-01, 3.38804156e-01, 3.38804156e-01,
          7.25747645e-02, 2.85254478e-01, 6.86428510e-03, 3.09719235e-01,
          4.41995040e-02, 2.78485745e-01, 3.09730005e-02, 3.38804156e-01,
          1.11060932e-01, 2.66157519e-02, 7.33807907e-02, 1.10736564e-02,
          5.18514328e-02, 7.93500617e-03, 1.88647080e-02, 6.03785925e-03,
          1.04881749e-01, 9.96219069e-02, 1.52510274e-02, 3.73200364e-02,
          6.50419248e-03, 6.62320033e-02, 2.09573517e-03, 3.42424214e-02,
          1.22831613e-02, 1.00144647e-01, 3.27349752e-01, 1.12682283e-01,
          3.27349752e-01, 1.94072463e-02, 3.27349752e-01, 5.18613346e-02,
          1.95635855e-01, 5.78542203e-02, 3.27349752e-01, 3.27349752e-01,
          7.40996748e-02, 1.92743406e-01, 2.42804624e-02, 3.27349752e-01,
          4.06374261e-02, 2.67155111e-01, 1.13826983e-01, 3.27349752e-01,
          1.52861595e-01, 7.22019523e-02, 6.88387528e-02, 1.62780508e-02,
          1.73587948e-01, 1.62763912e-02, 7.56492689e-02, 3.14925276e-02,
          1.44751519e-01, 2.00970486e-01, 4.75934409e-02, 3.50401066e-02,
          6.39879629e-02, 2.38987938e-01, 3.44224758e-02, 2.76219612e-03,
          1.17763923e-03, 1.84935600e-01, 3.87263298e-01, 1.20005816e-01,
          2.18102545e-01, 4.52054925e-02, 3.87263298e-01, 1.34618714e-01,
          3.87263298e-01, 2.77790934e-01, 3.87263298e-01, 4.38454375e-02,
          1.39040491e-02, 1.91772580e-02, 1.85439968e-03, 3.08436770e-02,
          1.79947168e-03, 8.91771354e-03, 4.38147644e-03, 3.54965553e-02,
          4.70632851e-01, 8.71271044e-02, 1.57435089e-01, 3.00198257e-01,
          4.70632851e-01, 5.89178912e-02, 0., 0., 4.70632851e-01,
          1.40281647e-01, 1.07795959e-02, 3.33813354e-02, 9.38344188e-03,
          3.24365199e-01, 0., 0., 0., 1.39951915e-01, 1.19551197e-01,
          2.95576081e-02, 7.90126547e-02, 6.41647121e-03, 1.57471284e-01,
          3.10094235e-03, 3.04416381e-03, 1.01730600e-03, 1.06947266e-01,
          1.01013808e-02, 3.53017286e-03, 1.05635813e-02, 0.,
          3.18756774e-02, 0., 0., 0., 1.01013808e-02 ]
      - [ 7.92933162e-03, 1.00411933e-04, 3.00470216e-04, 0.,
          4.80840448e-03, 0., 1.61900837e-03, 5.41044865e-04,
          7.78774126e-03, 2.51513775e-02, 8.85212969e-04, 2.64888839e-03,
          0., 5.49230957e-03, 0., 9.35394550e-04, 3.12592863e-04,
          2.53964495e-02, 3.32143128e-01, 1.80418059e-01, 3.32143128e-01,
          0., 2.48304397e-01, 4.24577817e-02, 5.31690456e-02,
          2.96044555e-02, 3.32143128e-01, 3.32143128e-01, 1.25566378e-01,
          3.32143128e-01, 1.05522098e-02, 2.90549904e-01, 9.31291189e-03,
          3.32143128e-01, 1.51280448e-01, 3.32143128e-01, 2.32773200e-02,
          1.73266965e-03, 5.18479664e-03, 0., 7.91672897e-03, 0.,
          3.14507470e-03, 1.05102966e-03, 2.37062797e-02, 9.23386030e-03,
          3.50641995e-03, 1.04925269e-02, 0., 1.35649284e-02, 0.,
          3.56744346e-03, 1.19217765e-03, 9.24735330e-03, 3.49100173e-01,
          6.08699992e-02, 1.83168799e-01, 6.79385290e-02, 1.18993342e-01,
          2.00477783e-02, 3.49100173e-01, 2.77258843e-01, 3.49100173e-01,
          3.49100173e-01, 8.32385868e-02, 2.48193666e-01, 1.11952730e-01,
          1.56241983e-01, 8.26961100e-02, 3.49100173e-01, 1.34052649e-01,
          3.49100173e-01, 1.58302560e-02, 7.71677122e-03, 2.30914801e-02,
          0., 2.77847387e-02, 0., 9.42218862e-03, 3.14873410e-03,
          1.58302560e-02, 1.14658345e-02, 3.60460160e-03, 1.07863210e-02,
          0., 3.46090309e-02, 0., 2.13850066e-02, 7.14650052e-03,
          1.14658345e-02, 3.25395554e-01, 1.71498924e-01, 3.25395554e-01,
          3.09128851e-01, 2.89949238e-01, 1.95363611e-01, 2.74097085e-01,
          9.19329822e-02, 3.25395554e-01, 3.25395554e-01, 8.04170743e-02,
          1.84895441e-01, 2.23551154e-01, 1.30163863e-01, 6.70709237e-02,
          1.36149034e-01, 4.33292873e-02, 3.25395554e-01, 3.15230601e-02,
          1.13132223e-02, 3.38533707e-02, 0., 1.61606923e-01, 0.,
          6.87040761e-02, 2.29597148e-02, 3.15230601e-02, 3.24848294e-02,
          2.91897729e-02, 8.73466730e-02, 2.69474374e-04, 1.42390206e-01,
          0., 7.71074370e-02, 2.57679727e-02, 3.24848294e-02,
          3.89890313e-01, 9.02603641e-02, 1.49627507e-01, 1.93574816e-01,
          2.43991047e-01, 1.11068711e-02, 1.53856054e-01, 4.66712639e-02,
          3.89890313e-01, 3.19102742e-02, 3.89890313e-01, 3.89890313e-01,
          2.41324902e-02, 3.89890313e-01, 9.08743963e-03, 8.35993960e-02,
          2.64527984e-02, 3.23604532e-02, 9.28972673e-04, 3.12851407e-02,
          9.57191288e-02, 1.38808251e-03, 1.04393423e-01, 0.,
          1.86878431e-03, 6.24515174e-04, 9.28972673e-04, 4.46822634e-03,
          2.50721097e-01, 3.65396231e-01, 3.83993541e-03, 3.65396231e-01,
          3.32756958e-04, 8.72251985e-04, 2.91491422e-04, 4.46822634e-03,
          5.39712491e-04, 1.34016663e-01, 3.65396231e-01, 4.00116900e-03,
          3.57673287e-01, 0., 1.09604676e-03, 3.66279681e-04,
          5.39712491e-04, 3.73611518e-04, 3.14438790e-01, 3.65396231e-01,
          5.70935616e-03, 3.65396231e-01, 5.87217946e-05, 9.23413085e-04,
          3.08588409e-04, 3.73611518e-04, 2.77573943e-01, 2.08541036e-01,
          2.77573943e-01, 0., 2.77573943e-01, 4.23295349e-02,
          5.08858971e-02, 3.43637168e-02, 2.77573943e-01, 2.77573943e-01,
          7.81697780e-02, 2.28866056e-01, 7.00494042e-03, 2.77573943e-01,
          9.73823760e-03, 2.77573943e-01, 1.16702750e-01, 2.77573943e-01,
          9.91787016e-02, 1.71987623e-01, 2.77573943e-01, 0.,
          2.77573943e-01, 1.42855709e-02, 1.73146222e-02, 1.51171926e-02,
          1.15742557e-01, 1.04838230e-01, 1.51610803e-02, 4.50060032e-02,
          1.23616576e-03, 1.30690187e-01, 3.56676639e-03, 9.16272029e-02,
          3.15990224e-02, 1.10311367e-01, 2.78309673e-01, 5.74111976e-02,
          1.73550367e-01, 4.37979288e-02, 1.28628150e-01, 1.94288325e-02,
          2.78309673e-01, 2.00745553e-01, 2.78309673e-01, 2.78309673e-01,
          1.26423702e-01, 2.78309673e-01, 9.00444314e-02, 2.13314757e-01,
          9.11541581e-02, 2.78309673e-01, 1.30410016e-01, 2.78309673e-01,
          1.20423324e-01, 2.16010250e-02, 6.53900057e-02, 7.72904372e-03,
          6.37137294e-02, 6.56848308e-03, 1.70225829e-01, 5.69853485e-02,
          1.23587057e-01, 1.92998037e-01, 7.86323771e-02, 2.33476043e-01,
          2.43936852e-02, 1.28592849e-01, 3.76162566e-02, 1.92854196e-01,
          6.41087145e-02, 1.97139129e-01, 2.44733438e-01, 1.09145418e-01,
          2.44733438e-01, 1.22399636e-01, 1.58731595e-01, 1.02569751e-01,
          1.94254190e-01, 6.39503077e-02, 2.44733438e-01, 2.44733438e-01,
          5.95407933e-02, 1.35399565e-01, 1.21839352e-01, 1.80217952e-01,
          7.16463998e-02, 2.44733438e-01, 1.02868997e-01, 2.44733438e-01,
          1.78286284e-01, 7.61619210e-02, 2.22087890e-01, 4.86341864e-02,
          1.00652166e-01, 5.64399175e-02, 1.64579228e-01, 5.44465967e-02,
          1.75619885e-01, 2.44733438e-01, 4.73514013e-02, 1.07071169e-01,
          1.00927390e-01, 2.14870200e-01, 7.66819119e-02, 2.44733438e-01,
          1.92686960e-01, 2.29111716e-01, 1.07444845e-01, 1.57462377e-02,
          2.44294088e-02, 5.36971129e-02, 1.16213754e-01, 2.14708690e-02,
          2.27858633e-01, 7.63331801e-02, 9.32549536e-02, 1.25995167e-02,
          8.39735791e-02, 2.55093247e-01, 1.42932758e-02, 1.78890243e-01,
          1.96678028e-03, 2.30158009e-02, 7.85091892e-03, 1.34053659e-02,
          2.79209614e-01, 2.12616641e-02, 4.40876558e-02, 1.57577232e-01,
          2.45950967e-01, 1.32019550e-01, 2.81445265e-01, 1.88263670e-01,
          2.73208082e-01, 2.81445265e-01, 2.81445265e-01, 2.81445265e-01,
          8.76948088e-02, 2.81445265e-01, 1.13681309e-01, 8.01535398e-02,
          2.72639673e-02, 2.81445265e-01, 2.24751723e-03, 2.16669261e-01,
          3.26308459e-01, 5.70232002e-03, 3.26308459e-01, 0.,
          1.41662880e-04, 5.79611551e-05, 2.24028644e-03, 4.85653174e-04,
          2.17473015e-01, 3.26308459e-01, 3.98438564e-03, 3.26308459e-01,
          0., 5.52164740e-04, 1.84523742e-04, 4.85653174e-04,
          9.88207906e-02, 2.92312801e-01, 3.26308459e-01, 7.64289871e-03,
          3.26308459e-01, 9.94032715e-03, 2.63751339e-04, 1.88074890e-04,
          9.92643386e-02, 5.84800309e-03, 1.13317460e-01, 3.26308459e-01,
          9.52903880e-04, 1.97399214e-01, 0., 1.15678478e-04,
          3.86577558e-05, 5.84800309e-03, 4.93932366e-02, 8.04729462e-02,
          2.40243956e-01, 4.14239184e-04, 2.82844603e-01, 1.70626532e-04,
          4.76075755e-03, 1.63644901e-03, 4.93970327e-02, 1.10701442e-01,
          8.73455331e-02, 2.62208790e-01, 3.00054962e-04, 1.22158818e-01,
          3.91968002e-04, 5.79494275e-02, 1.94639172e-02, 1.10721789e-01,
          2.09179401e-01, 9.21273232e-02, 2.66241968e-01, 1.36939820e-03,
          2.99293846e-01, 5.62712085e-04, 9.60006416e-02, 3.41587290e-02,
          2.12532565e-01, 2.99293846e-01, 2.99293846e-01, 2.99293846e-01,
          9.00164829e-04, 2.99293846e-01, 1.17590383e-03, 1.04787402e-01,
          3.50181088e-02, 2.99293846e-01, 1.62432268e-01, 1.24835901e-01,
          3.67840022e-01, 0., 2.68607229e-01, 1.32405409e-03,
          1.34852797e-01, 4.51653823e-02, 1.62506804e-01, 4.58829403e-02,
          2.45725387e-04, 7.35301990e-04, 0., 2.57748701e-02,
          6.96870775e-05, 1.61313228e-02, 5.39081916e-03, 4.69054803e-02,
          3.35588694e-01, 3.67840022e-01, 3.67840022e-01, 0.,
          3.67840022e-01, 3.97216249e-03, 2.36475021e-01, 7.90258050e-02,
          3.35588694e-01, 5.58658037e-03, 1.40280160e-03, 4.19770135e-03,
          0., 3.93884182e-02, 2.09061254e-04, 5.40285697e-03,
          1.80554402e-03, 5.58658037e-03, 1.62226826e-01, 1.59549317e-03,
          4.77432413e-03, 4.84530028e-04, 6.73293099e-02, 1.24660358e-02,
          1.03391722e-01, 3.76529060e-02, 1.64657637e-01, 4.10622120e-01,
          1.59868691e-03, 4.78388136e-03, 1.97340071e-01, 4.10622120e-01,
          1.88042313e-01, 4.10622120e-01, 4.10622120e-01, 4.10622120e-01,
          3.40097398e-02, 2.82908767e-03, 8.46567657e-03, 0.,
          2.01618355e-02, 0., 2.84861699e-02, 9.51959752e-03,
          3.40097398e-02, 3.73089463e-02, 1.59663544e-03, 4.77772439e-03,
          0., 2.00668853e-02, 0., 3.48729566e-02, 1.16539579e-02,
          3.73089463e-02, 3.02846164e-01, 1.09197618e-02, 3.15823816e-02,
          1.16459712e-01, 2.12510183e-01, 1.71109438e-01, 3.06449711e-01,
          1.01800889e-01, 3.11654896e-01, 3.11654896e-01, 2.68632531e-01,
          3.11654896e-01, 8.55909213e-02, 3.11654896e-01, 1.89629525e-01,
          6.57369196e-02, 2.46234238e-02, 3.11654896e-01, 3.64278443e-02,
          3.34088312e-04, 9.99717158e-04, 7.36352522e-05, 4.67805937e-02,
          6.51548384e-03, 8.24742764e-03, 3.00176861e-03, 3.83016169e-02,
          1.59945890e-01, 4.98778792e-03, 1.49253607e-02, 1.39907119e-03,
          2.14965165e-01, 1.24045266e-02, 1.51793417e-02, 8.64675827e-03,
          1.67785585e-01, 4.00757641e-01, 4.00757641e-01, 4.00757641e-01,
          1.70344263e-02, 4.00757641e-01, 5.01841232e-02, 8.71163886e-03,
          6.55755633e-03, 4.00757641e-01, 2.85056513e-02, 9.03025344e-02,
          2.70438045e-01, 1.58806637e-04, 1.68853983e-01, 1.14966504e-04,
          5.94087364e-03, 2.22546025e-03, 2.85592992e-02, 1.32897288e-01,
          7.78274331e-03, 2.32889280e-02, 1.70930335e-03, 1.99067235e-01,
          7.14695081e-03, 2.08903681e-02, 1.25508569e-02, 1.39162332e-01,
          9.10639018e-03, 1.49247772e-03, 4.46605170e-03, 0.,
          1.46378903e-02, 6.51476963e-04, 1.49717163e-02, 5.37768099e-03,
          9.20602307e-03, 1.98373765e-01, 4.14386392e-02, 1.13018878e-01,
          8.38824781e-04, 2.53801554e-01, 9.37329838e-04, 2.53801554e-01,
          9.41001028e-02, 2.12004453e-01, 1.63668901e-01, 1.08759187e-01,
          2.53801554e-01, 3.72579350e-04, 1.85927451e-01, 4.87583573e-04,
          3.28880735e-02, 1.13914628e-02, 1.63861632e-01, 2.53801554e-01,
          3.31238620e-02, 9.86592919e-02, 1.23763212e-03, 2.53801554e-01,
          7.98972149e-04, 2.53801554e-01, 1.81955308e-01, 2.53801554e-01,
          2.53801554e-01, 5.01255095e-02, 1.46978110e-01, 2.43118405e-03,
          2.53801554e-01, 2.61523965e-04, 2.53801554e-01, 1.09278359e-01,
          2.53801554e-01, 9.73149911e-02, 1.13630153e-01, 3.06992799e-01,
          0., 1.08775936e-01, 6.86108717e-04, 2.88946070e-02,
          1.03860367e-02, 9.69073251e-02, 7.19918730e-03, 1.74486579e-03,
          4.69020195e-03, 0., 7.92367104e-03, 3.61109960e-05,
          2.03455519e-03, 7.95586209e-04, 7.17380643e-03, 3.06992799e-01,
          1.11481525e-01, 3.06992799e-01, 3.57917114e-03, 3.06992799e-01,
          1.78641302e-03, 3.06992799e-01, 2.03521490e-01, 3.06992799e-01,
          3.06992799e-01, 6.08073138e-02, 1.78188488e-01, 4.93333908e-04,
          3.06992799e-01, 2.18339311e-03, 1.13837734e-01, 4.13405634e-02,
          3.06992799e-01, 1.22161321e-02, 1.64037105e-03, 4.90859710e-03,
          0., 5.76014770e-03, 0., 5.64254215e-03, 2.01657903e-03,
          1.22432644e-02, 1.19106285e-02, 1.88607315e-03, 5.32952929e-03,
          2.63957016e-04, 1.59664247e-02, 0., 5.27488673e-03,
          1.76966912e-03, 1.18902922e-02, 3.61657947e-01, 9.63721201e-02,
          2.79908180e-01, 0., 3.04585546e-01, 5.00831462e-04,
          9.61851552e-02, 3.74647342e-02, 3.61657947e-01, 3.61657947e-01,
          8.21430981e-02, 2.36368880e-01, 1.49575667e-03, 3.55681449e-01,
          0., 2.86940694e-01, 9.83688533e-02, 3.61657947e-01,
          8.25281888e-02, 2.15088110e-03, 5.38856210e-03, 1.82694744e-03,
          9.44830552e-02, 7.65599194e-04, 3.80910025e-03, 1.29349472e-03,
          8.21336880e-02, 1.56165481e-01, 4.60140500e-03, 1.11563671e-02,
          1.83060463e-03, 1.69222206e-01, 3.11958115e-03, 1.15227057e-02,
          4.79161413e-03, 1.55741706e-01, 3.77810478e-01, 1.89138278e-02,
          4.44666743e-02, 1.03527056e-02, 3.77810478e-01, 4.27920371e-03,
          1.74386501e-01, 6.00186475e-02, 3.77810478e-01, 3.77810478e-01,
          9.55256354e-03, 1.63388439e-02, 1.03734294e-02, 3.77810478e-01,
          1.45861628e-02, 4.72379401e-02, 1.63154099e-02, 3.77810478e-01,
          2.50112444e-01, 2.78979782e-02, 7.66772404e-02, 8.90713884e-04,
          3.79688203e-01, 1.15183583e-02, 6.60625696e-02, 2.76967920e-02,
          2.51390129e-01, 2.16301959e-02, 1.76566206e-02, 5.28351665e-02,
          0., 1.15305461e-01, 1.66813389e-03, 3.94011401e-02,
          1.34478575e-02, 2.17448249e-02, 4.67084140e-01, 4.51997705e-02,
          1.14842936e-01, 5.04737999e-03, 4.67084140e-01, 3.20282988e-02,
          2.24861428e-02, 7.51447771e-03, 4.67084140e-01, 2.54949611e-02,
          3.64137441e-02, 1.08963512e-01, 0., 9.17788446e-02, 0.,
          1.16130123e-02, 3.88086750e-03, 2.54949611e-02, 3.16042989e-01,
          2.47189905e-02, 7.54358768e-02, 9.42466839e-04, 2.51768857e-01,
          1.95350105e-04, 3.16042989e-01, 1.54639289e-01, 3.16042989e-01,
          3.16042989e-01, 1.08671583e-01, 3.16042989e-01, 4.26800596e-03,
          3.16042989e-01, 6.51166993e-05, 3.16042989e-01, 2.23125428e-01,
          3.16042989e-01, 2.87632961e-02, 1.63109030e-03, 4.86805057e-03,
          3.18353632e-05, 1.62008535e-02, 0., 1.36079621e-02,
          4.64501325e-03, 2.87632961e-02, 9.03173611e-02, 1.49435215e-02,
          4.49749269e-02, 3.08847608e-04, 1.11243606e-01, 0.,
          9.19259489e-02, 3.14622745e-02, 9.05077755e-02, 2.78546482e-01,
          8.52896720e-02, 2.54048139e-01, 1.84834283e-03, 2.78546482e-01,
          1.37140648e-03, 2.78546482e-01, 1.28024787e-01, 2.78546482e-01,
          2.78546482e-01, 7.07703829e-02, 2.11165503e-01, 3.15834157e-04,
          2.78546482e-01, 1.67616329e-03, 9.17478800e-02, 3.22012715e-02,
          2.78546482e-01, 1.14560321e-01, 2.73906756e-02, 8.28410089e-02,
          2.14618936e-04, 1.47285432e-01, 3.50371585e-04, 8.61503109e-02,
          2.94760820e-02, 1.15111984e-01, 2.78546482e-01, 3.27278227e-02,
          9.80474129e-02, 5.57354215e-05, 2.75503218e-01, 4.28231870e-04,
          3.13370824e-02, 1.07633509e-02, 2.78546482e-01, 2.74457812e-01,
          5.17140478e-02, 1.50449648e-01, 0., 2.74457812e-01,
          2.07850957e-04, 6.01486117e-02, 2.11546570e-02, 2.74457812e-01,
          2.74457812e-01, 5.13101518e-02, 1.52280241e-01, 1.55919974e-04,
          2.54893154e-01, 0., 2.31102884e-01, 7.83176199e-02,
          2.74457812e-01, 2.48651952e-01, 1.91136561e-02, 5.58300279e-02,
          0., 2.27193788e-01, 5.31024634e-05, 3.06441635e-02,
          1.01747122e-02, 2.48657569e-01, 2.74457812e-01, 2.70888545e-02,
          8.22330713e-02, 0., 2.74457812e-01, 0., 1.57548726e-01,
          5.30368835e-02, 2.74457812e-01, 2.83470988e-01, 1.64812971e-02,
          4.87910807e-02, 9.29270929e-04, 1.59418002e-01, 3.84106359e-04,
          1.93893775e-01, 6.62928894e-02, 2.82672316e-01, 1.85567185e-01,
          1.17191346e-02, 3.39451991e-02, 9.31131071e-04, 2.08124846e-01,
          1.30927120e-03, 1.67440370e-01, 5.71968928e-02, 1.86975658e-01,
          2.86954045e-01, 1.72744077e-02, 5.26434258e-02, 0.,
          2.86954045e-01, 0., 2.86954045e-01, 9.95594412e-02,
          2.86954045e-01, 2.14095220e-01, 1.77547205e-02, 5.31287342e-02,
          0., 2.86954045e-01, 0., 2.86954045e-01, 1.38746932e-01,
          2.15040341e-01, 1.85231522e-01, 1.63078066e-02, 4.76153865e-02,
          4.36632545e-04, 4.56506789e-01, 2.77066510e-03, 2.57094443e-01,
          8.78251418e-02, 1.88786015e-01, 6.06745528e-03, 3.77051486e-03,
          1.12827914e-02, 0., 1.03890169e-02, 0., 5.93268871e-03,
          1.98260043e-03, 6.06745528e-03, 1.70135945e-01, 2.23744679e-02,
          6.69527426e-02, 0., 5.08485496e-01, 0., 5.08485496e-01,
          2.41556674e-01, 1.72870591e-01, 3.04450979e-03, 5.12800238e-04,
          1.53449096e-03, 0., 2.20622402e-02, 0., 8.04539304e-03,
          2.68862932e-03, 3.04450979e-03 ]
      - [ 1.37117803e-01, 6.92452043e-02, 2.07208008e-01, 0.,
          3.39927137e-01, 0., 4.56141494e-02, 1.52434548e-02,
          1.37117803e-01, 1.63687184e-01, 4.19536121e-02, 1.25541031e-01,
          0., 3.39927137e-01, 0., 1.30041137e-01, 4.34574783e-02,
          1.63687184e-01, 1.75787851e-01, 2.81448439e-02, 8.42200890e-02,
          0., 3.39927137e-01, 0., 2.01034397e-02, 6.71823416e-03,
          1.75787851e-01, 3.18169802e-01, 8.32082182e-02, 2.48990521e-01,
          0., 3.39927137e-01, 0., 1.17423512e-01, 3.92409228e-02,
          3.18169802e-01, 1.61271751e-01, 1.06606357e-01, 2.94639796e-01,
          0., 2.94639796e-01, 0., 1.85042769e-01, 6.18380718e-02,
          1.61271751e-01, 1.27700940e-01, 9.37660858e-02, 2.80583501e-01,
          0., 2.94639796e-01, 0., 7.53286481e-02, 2.51735188e-02,
          1.27700940e-01, 2.53821731e-01, 1.54126301e-01, 2.94639796e-01,
          0., 2.74483830e-01, 0., 1.26154229e-01, 4.21585441e-02,
          2.53821731e-01, 1.45512819e-01, 1.22535810e-01, 2.94639796e-01,
          0., 1.69653520e-01, 0., 5.46381958e-02, 1.82591267e-02,
          1.45512819e-01, 3.46513726e-02, 2.51527596e-02, 7.52666444e-02,
          0., 1.18287474e-01, 0., 1.22474413e-02, 4.09288052e-03,
          3.46513726e-02, 2.25277945e-01, 5.66457883e-02, 1.69505790e-01,
          0., 3.76791239e-01, 0., 1.49471715e-01, 4.99508642e-02,
          2.25277945e-01, 7.96499997e-02, 5.09194881e-02, 1.52370512e-01,
          0., 2.32185438e-01, 0., 9.47505534e-02, 3.16639841e-02,
          7.96499997e-02, 2.80783474e-01, 9.90770161e-02, 2.96476215e-01,
          0., 3.76791239e-01, 0., 3.76791239e-01, 1.77209914e-01,
          2.80783474e-01, 5.41340932e-02, 1.86110120e-02, 5.56912199e-02,
          0., 1.82343110e-01, 0., 4.97529134e-02, 1.66265611e-02,
          5.41340932e-02, 3.85303348e-02, 1.59344524e-02, 4.76818681e-02,
          1.99204916e-03, 1.46758497e-01, 0., 2.56510098e-02,
          8.57211743e-03, 3.85303348e-02, 4.53220382e-02, 1.15807811e-02,
          3.46541144e-02, 0., 1.77289426e-01, 0., 9.21689942e-02,
          3.08013037e-02, 4.53220382e-02, 4.14066494e-01, 4.69431490e-01,
          4.69431490e-01, 1.12882806e-02, 4.69431490e-01, 0.,
          1.60676613e-02, 5.20172343e-02, 2.00680256e-01, 2.00815629e-02,
          1.95524972e-02, 5.28232306e-02, 9.92082758e-04, 6.34678975e-02,
          1.17058204e-02, 2.16392218e-04, 9.78479628e-03, 3.73940542e-02,
          2.64139235e-01, 1.11905217e-01, 2.91736335e-01, 8.86040330e-02,
          2.91736335e-01, 1.42832533e-01, 1.62101860e-04, 3.19775827e-02,
          2.91374326e-01, 1.08991705e-01, 1.77933440e-01, 2.91736335e-01,
          3.31569044e-03, 2.91736335e-01, 1.12400297e-02, 0.,
          4.30210419e-02, 1.46568522e-01, 2.58283317e-01, 2.30975166e-01,
          2.91736335e-01, 4.41152900e-02, 2.91736335e-01, 7.76097849e-02,
          0., 5.78358509e-02, 2.86946446e-01, 7.11843818e-02,
          3.10517699e-02, 9.10610259e-02, 3.14904214e-03, 2.22106706e-02,
          0., 3.56480852e-02, 2.15434674e-02, 6.98012710e-02,
          1.39213085e-01, 4.91322614e-02, 1.43586576e-01, 3.20623955e-03,
          7.77682383e-03, 4.54755063e-04, 1.50751859e-01, 5.49411550e-02,
          1.41934574e-01, 3.12486678e-01, 2.83211321e-01, 3.12486678e-01,
          5.42977192e-02, 9.12871733e-02, 7.29529420e-05, 1.17539339e-01,
          9.25473943e-02, 3.12486678e-01, 3.12486678e-01, 1.65269628e-01,
          3.12486678e-01, 2.64197327e-02, 1.68526262e-01, 1.12880142e-02,
          3.12486678e-01, 1.82001144e-01, 3.12486678e-01, 1.15130395e-01,
          1.58030540e-02, 4.62814830e-02, 1.51034724e-02, 7.32519338e-03,
          3.03450017e-03, 1.61008254e-01, 5.50165847e-02, 1.20096706e-01,
          5.00081740e-02, 2.37946445e-03, 6.65244693e-03, 1.40733616e-02,
          5.08018164e-03, 2.48277280e-03, 2.40950882e-02, 8.21898412e-03,
          5.14911376e-02, 3.41866732e-01, 5.10929227e-02, 1.49229214e-01,
          1.34141997e-01, 3.06504786e-01, 9.44030732e-02, 3.41866732e-01,
          2.16249466e-01, 3.41866732e-01, 3.41866732e-01, 3.49127054e-02,
          9.55835804e-02, 1.93495750e-01, 1.74797118e-01, 1.79364994e-01,
          1.97984815e-01, 6.79259822e-02, 3.41866732e-01, 4.26520109e-02,
          2.07128143e-03, 5.84603287e-03, 3.29139270e-03, 5.27952053e-03,
          0., 9.53478925e-03, 3.15058790e-03, 4.37353812e-02,
          1.17073758e-02, 1.40320451e-03, 4.19892138e-03, 0.,
          1.00498842e-02, 0., 8.70012026e-03, 2.86465185e-03,
          1.19435741e-02, 3.54579002e-01, 2.74617430e-02, 7.54874051e-02,
          1.75468579e-01, 1.57881469e-01, 1.45887494e-01, 3.54579002e-01,
          1.48919120e-01, 3.54579002e-01, 3.48843306e-01, 2.44275946e-03,
          7.30966171e-03, 1.29544660e-01, 2.32629791e-01, 1.06445551e-01,
          3.54579002e-01, 2.36821964e-01, 3.51375788e-01, 4.71966993e-03,
          8.13345134e-04, 2.43383786e-03, 0., 1.23183783e-02, 0.,
          5.97685575e-03, 1.99736329e-03, 4.71966993e-03, 2.06235245e-01,
          1.31781951e-01, 3.37026298e-01, 5.81319386e-04, 3.37026298e-01,
          6.69500383e-04, 7.41286494e-04, 3.64223868e-02, 1.30213931e-01,
          7.68907368e-02, 1.34451799e-02, 4.02329825e-02, 2.08186340e-02,
          1.85364768e-01, 3.46617848e-02, 3.37026298e-01, 1.21952586e-01,
          9.14968401e-02, 3.37026298e-01, 1.98968858e-01, 3.37026298e-01,
          2.76308510e-05, 3.37026298e-01, 4.02037101e-03, 4.25338419e-03,
          1.28554687e-01, 3.37026298e-01, 2.70154864e-01, 2.47841179e-01,
          3.04744691e-01, 1.26970292e-03, 3.04744691e-01, 1.60597870e-03,
          2.84626385e-05, 4.42023873e-02, 1.54875994e-01, 1.65702030e-01,
          1.87960863e-01, 3.04744691e-01, 1.03884761e-03, 3.04744691e-01,
          2.03032210e-03, 5.40790672e-04, 2.69911177e-02, 9.84527692e-02,
          3.04744691e-01, 1.32047743e-01, 3.04744691e-01, 0.,
          3.04744691e-01, 3.17264651e-03, 6.52147748e-04, 5.85836321e-02,
          2.02967241e-01, 9.29873660e-02, 4.98327240e-02, 1.26736328e-01,
          0., 1.52191579e-01, 8.11008911e-04, 2.20283447e-03,
          8.40871502e-03, 2.82393601e-02, 2.70095795e-01, 3.36132079e-01,
          3.36132079e-01, 5.57018109e-02, 9.39380899e-02, 3.40241357e-04,
          6.37305677e-02, 5.80028743e-02, 2.66960442e-01, 3.36132079e-01,
          9.92044210e-02, 2.93362707e-01, 2.39814073e-02, 3.36132079e-01,
          1.54543072e-02, 2.66728580e-01, 1.03128143e-01, 3.36132079e-01,
          2.85519660e-02, 7.81907216e-02, 2.33860627e-01, 6.11439929e-04,
          1.43883392e-01, 7.06948282e-04, 2.67892168e-03, 8.95249599e-04,
          2.85519660e-02, 3.59679088e-02, 1.68621587e-03, 5.03623532e-03,
          5.68609976e-04, 6.14101924e-02, 1.45896012e-03, 1.92006759e-03,
          1.33626559e-03, 3.74280773e-02, 3.43766183e-01, 2.48562861e-02,
          7.24504068e-02, 9.97346640e-02, 3.43766183e-01, 9.93214399e-02,
          3.39675426e-01, 1.18162438e-01, 3.43766183e-01, 3.43766183e-01,
          2.99852081e-02, 8.21101293e-02, 1.60818815e-01, 2.77145982e-01,
          2.10455880e-01, 1.60867840e-01, 5.97861223e-02, 3.43766183e-01,
          5.81123009e-02, 4.06098261e-04, 1.21519668e-03, 1.13304611e-03,
          8.08623657e-02, 4.25847620e-03, 5.89992013e-03, 3.92200612e-03,
          6.01428412e-02, 1.28166690e-01, 3.22483946e-04, 9.64991574e-04,
          1.39975210e-03, 1.38334200e-01, 1.03619648e-02, 1.43467719e-02,
          8.75789486e-03, 1.30577192e-01, 2.73529977e-01, 8.20908137e-03,
          2.25344058e-02, 7.85221010e-02, 1.86745211e-01, 8.62932578e-02,
          2.73432374e-01, 9.47947428e-02, 2.73529977e-01, 2.73243904e-01,
          5.63243171e-04, 1.68543705e-03, 7.71064088e-02, 2.73529977e-01,
          1.10685870e-01, 2.73529977e-01, 2.45446831e-01, 2.73529977e-01,
          1.30093277e-01, 1.16304145e-04, 3.48026340e-04, 7.01858569e-03,
          1.80292204e-01, 1.42633505e-02, 6.79421052e-02, 2.63623726e-02,
          1.34295315e-01, 1.62228137e-01, 2.78253487e-04, 8.32640450e-04,
          1.92034245e-02, 2.58598506e-01, 7.00775236e-02, 2.73529977e-01,
          1.26952708e-01, 2.73529977e-01, 1.39566123e-01, 2.65651792e-02,
          7.44469091e-02, 3.53893340e-02, 2.56068796e-01, 6.19071834e-02,
          2.56068796e-01, 1.26791105e-01, 2.08971336e-01, 1.80643216e-01,
          1.43224865e-01, 2.56068796e-01, 2.56743133e-02, 2.56068796e-01,
          1.48070809e-02, 3.32184955e-02, 4.75437790e-02, 1.58925861e-01,
          2.52556413e-01, 3.03831156e-02, 7.97101483e-02, 7.95574710e-02,
          2.56068796e-01, 1.03603937e-01, 2.56068796e-01, 1.11527979e-01,
          2.56068796e-01, 2.56068796e-01, 1.29793882e-01, 2.56068796e-01,
          7.83843920e-02, 2.56068796e-01, 3.90455835e-02, 7.17872679e-02,
          3.47735323e-02, 1.92577228e-01, 3.66874069e-01, 2.69629329e-01,
          3.66874069e-01, 6.95664249e-03, 3.66874069e-01, 4.60231910e-03,
          2.65839812e-03, 9.20992643e-02, 3.16391081e-01, 4.50926162e-02,
          7.69605441e-03, 1.32521447e-02, 0., 9.76466313e-02,
          8.54631653e-04, 3.80303222e-03, 4.19025077e-03, 1.24353906e-02,
          2.61697233e-01, 1.99725091e-01, 3.66874069e-01, 2.32723113e-02,
          3.66874069e-01, 3.48452828e-03, 4.65247780e-03, 2.09166501e-02,
          1.42246500e-01, 5.34564676e-03, 4.79321368e-03, 1.42160878e-02,
          0., 1.00082858e-02, 1.57515024e-05, 4.38156712e-04,
          1.43850964e-04, 4.76514222e-03, 1.27810791e-01, 5.13366284e-03,
          1.50072314e-02, 1.78660895e-03, 4.57190096e-01, 1.67487364e-03,
          1.27729401e-01, 4.29502726e-02, 1.27978936e-01, 8.04370642e-03,
          2.19767680e-03, 6.57626940e-03, 0., 1.31053580e-02, 0.,
          7.80059490e-03, 2.60682264e-03, 8.04370642e-03, 2.80109793e-01,
          1.21801184e-03, 3.64474813e-03, 5.21670445e-05, 4.57190096e-01,
          5.17869927e-03, 4.57190096e-01, 3.96408916e-01, 2.79071808e-01,
          2.17883810e-02, 3.61540797e-03, 1.08186454e-02, 0.,
          4.05803211e-02, 1.46584483e-04, 2.25695949e-02, 7.54236476e-03,
          2.17883810e-02, 1.05904937e-01, 5.60222380e-02, 1.67639390e-01,
          0., 1.45478040e-01, 0., 8.63170549e-02, 2.88456995e-02,
          1.05904937e-01, 3.68406028e-01, 3.91879864e-02, 1.17265061e-01,
          3.82362097e-03, 3.68406028e-01, 8.75287782e-03, 1.53200462e-01,
          5.91857806e-02, 3.68406028e-01, 1.71341419e-01, 9.85996872e-02,
          2.95047134e-01, 0., 3.19336474e-01, 0., 1.03838556e-01,
          3.47010605e-02, 1.71341419e-01, 8.31595436e-02, 9.53297317e-02,
          2.85262108e-01, 0., 2.72655904e-01, 0., 1.18429311e-01,
          3.95770781e-02, 8.31595436e-02, 3.48428547e-01, 1.23223581e-03,
          3.68731306e-03, 4.41128109e-03, 3.48428547e-01, 4.53737983e-03,
          5.59225716e-02, 2.61331387e-02, 3.48428547e-01, 3.48428547e-01,
          1.39188615e-03, 4.16505290e-03, 6.28010854e-02, 3.48428547e-01,
          2.48877063e-01, 3.48428547e-01, 2.10760072e-01, 3.48428547e-01,
          3.67856286e-02, 1.05828792e-02, 3.16678919e-02, 0.,
          6.56987280e-02, 0., 5.74472658e-02, 1.91978961e-02,
          3.67856286e-02, 8.14224780e-02, 7.80425733e-03, 2.33532246e-02,
          0., 2.05031391e-02, 9.89208420e-05, 7.60054961e-02,
          2.53835805e-02, 8.14224780e-02, 2.40213946e-01, 1.20643284e-02,
          2.86266059e-02, 6.43550158e-02, 2.30657443e-01, 7.16430545e-02,
          1.32869065e-01, 5.03403582e-02, 2.51184940e-01, 3.12145531e-01,
          4.84411046e-02, 1.22929715e-01, 7.02338070e-02, 3.12145531e-01,
          4.01963294e-02, 1.53780207e-01, 5.63520268e-02, 3.12145531e-01,
          2.79173646e-02, 1.44201366e-03, 3.41995992e-03, 4.02286096e-04,
          3.34887207e-02, 8.88821494e-04, 1.23070311e-02, 4.33067326e-03,
          2.94604376e-02, 3.12145531e-01, 3.85415517e-02, 1.15003072e-01,
          8.16872064e-03, 3.12145531e-01, 1.73876546e-02, 3.12145531e-01,
          2.03826964e-01, 3.12145531e-01, 8.96457210e-02, 1.22739766e-02,
          3.53375375e-02, 3.43117770e-03, 1.13337703e-01, 2.48746690e-03,
          7.85918608e-02, 2.73418874e-02, 7.62144476e-02, 5.24868257e-02,
          5.59658511e-03, 1.74602177e-02, 3.03919049e-04, 2.35837996e-02,
          1.03702163e-03, 7.64957666e-02, 2.53327917e-02, 5.14039956e-02,
          2.45421484e-01, 6.60959259e-02, 2.08487526e-01, 6.20175526e-03,
          3.32759082e-01, 8.69305059e-03, 3.32759082e-01, 2.28191003e-01,
          2.43961111e-01, 2.65918851e-01, 5.46637252e-02, 1.71701640e-01,
          9.38972179e-03, 3.32759082e-01, 1.05453134e-02, 3.32759082e-01,
          3.32759082e-01, 2.68448681e-01, 1.26076147e-01, 6.21580912e-05,
          1.86000165e-04, 0., 3.07202905e-01, 2.33635469e-03,
          3.07202905e-01, 1.91444084e-01, 1.28337592e-01, 9.70143974e-02,
          2.79699278e-04, 8.36964464e-04, 3.85878026e-04, 2.99071837e-02,
          1.91525047e-04, 1.36367887e-01, 4.56854664e-02, 9.75603908e-02,
          2.65099794e-01, 0., 0., 0., 1.46205902e-01, 1.13871228e-03,
          3.07202905e-01, 2.19913363e-01, 2.69965172e-01, 3.07202905e-01,
          3.69527051e-03, 1.10576181e-02, 2.18664273e-03, 2.15610072e-01,
          5.86497132e-04, 3.07202905e-01, 2.48255536e-01, 3.07202905e-01,
          8.08963031e-02, 1.98175060e-03, 5.93013642e-03, 8.52836762e-04,
          7.21247196e-02, 4.63622069e-04, 5.04593067e-02, 1.70687810e-02,
          7.80569091e-02, 1.41753880e-02, 3.65895405e-03, 1.09489467e-02,
          4.48861647e-05, 2.08032001e-02, 1.54540685e-04, 3.91001254e-03,
          1.85057078e-03, 1.39898844e-02, 3.45707625e-01, 2.74596084e-02,
          8.21693093e-02, 4.83274274e-03, 3.45707625e-01, 2.62719207e-03,
          3.45707625e-01, 3.17289174e-01, 3.45707625e-01, 3.45707625e-01,
          4.78188023e-02, 1.41795412e-01, 2.54354964e-04, 1.97246030e-01,
          8.75730708e-04, 2.80533731e-01, 9.77666155e-02, 3.45707625e-01,
          5.78344613e-03, 2.28735059e-03, 6.84459973e-03, 0.,
          7.94729404e-03, 0., 3.67023540e-03, 2.10917252e-03,
          5.96633926e-03, 6.99455440e-02, 1.69181882e-03, 5.06254798e-03,
          1.59020082e-03, 9.63989720e-02, 5.10343642e-04, 4.24520811e-03,
          1.58586865e-03, 7.03104958e-02, 3.39375228e-01, 9.72314104e-02,
          2.87517756e-01, 0., 2.52564847e-01, 0., 2.69917667e-01,
          9.88280177e-02, 3.39375228e-01, 3.39375228e-01, 5.20727746e-02,
          1.54676139e-01, 8.59482121e-03, 3.39375228e-01, 2.89194798e-03,
          3.39375228e-01, 1.44646764e-01, 3.39375228e-01, 7.20557570e-02,
          9.03203897e-03, 2.54532341e-02, 1.96843548e-03, 1.31967202e-01,
          6.55505632e-04, 5.13200983e-02, 1.68710575e-02, 7.47779682e-02,
          1.60539702e-01, 1.78551506e-02, 4.99151163e-02, 2.74429494e-03,
          3.08651298e-01, 3.74285528e-03, 3.08651298e-01, 1.03683323e-01,
          1.67819396e-01, 3.01164269e-01, 1.65771637e-02, 4.76664566e-02,
          6.13002060e-03, 3.08651298e-01, 3.23396688e-03, 2.28164122e-01,
          7.60290623e-02, 3.04283351e-01, 2.28034765e-01, 2.61691269e-02,
          7.43804425e-02, 4.17319825e-03, 3.08651298e-01, 2.73691397e-03,
          3.08651298e-01, 2.57303745e-01, 2.30322093e-01, 2.13324413e-01,
          4.36837710e-02, 1.36324212e-01, 3.58333020e-03, 3.15657467e-01,
          5.32357162e-03, 3.15657467e-01, 1.93514451e-01, 2.19879955e-01,
