%YAML:1.0
---
opencv_ml_svm:
   format: 3
   svmType: C_SVC
   kernel:
      type: LINEAR
   C: 13.
   term_criteria: { iterations:100 }
   var_count: 900
   class_count: 3
   class_labels: !!opencv-matrix
      rows: 3
      cols: 1
      dt: i
      data: [ -1, 1, 1266708103 ]
   sv_total: 3
   support_vectors:
      - [ -1.16166972e-01, -3.28667760e-02, -4.12724428e-02,
          -8.61335620e-02, 5.58694601e-02, 1.91363487e-02,
          1.99519068e-01, 1.84048638e-01, 9.28361714e-02,
          -5.28501086e-02, 1.11561388e-01, 8.62808153e-02,
          4.35687900e-02, 8.70624930e-02, 8.15688148e-02, 7.93993846e-02,
          9.04408693e-02, 7.11596087e-02, -6.26823083e-02,
          -1.92271098e-02, 9.17432383e-02, 3.05241975e-03,
          8.81595984e-02, 1.04562543e-01, 6.81289211e-02,
          -1.29675090e-01, 1.96264647e-02, -3.04413866e-02,
          -9.88912210e-02, 8.60735103e-02, 4.45095338e-02,
          5.31107336e-02, 1.37605861e-01, 1.38003722e-01, 4.35427949e-03,
          2.42767911e-02, -3.66794914e-02, 6.32194355e-02,
          1.37131378e-01, 9.68442950e-03, -7.46688545e-02,
          5.50463200e-02, -3.91989888e-04, 4.54234481e-02,
          -3.83560061e-02, 4.14085807e-03, -5.51515445e-02,
          -9.17481035e-02, 2.83586271e-02, -1.09147035e-01,
          -4.91632782e-02, -4.17308696e-02, -1.07367411e-01,
          -2.47075018e-02, 3.42112519e-02, 1.22863920e-02,
          -7.45904446e-03, 5.78215867e-02, -8.04435462e-02,
          1.28578484e-01, 4.67107445e-03, -3.71800549e-02,
          3.15902717e-02, -7.00862706e-02, -5.45890778e-02,
          8.95862803e-02, 1.66066468e-01, 5.84168248e-02, 2.17207849e-01,
          -1.24048598e-01, -4.92670350e-02, -8.48996788e-02,
          -1.63111892e-02, -6.59397710e-03, 4.05536592e-02,
          -4.43882830e-02, 7.29851797e-02, -1.33281332e-02,
          -6.27321526e-02, -1.32783428e-01, -1.29056081e-01,
          -1.67645097e-01, 3.32068726e-02, 8.65389183e-02,
          9.26268473e-02, 6.97694197e-02, 7.70737082e-02, 1.83874264e-01,
          -9.02693570e-02, -1.09077059e-01, -1.67588349e-02,
          -3.26408334e-02, -1.40383914e-02, 1.70076247e-02,
          5.53919468e-04, 1.40929982e-01, -1.63407996e-01,
          4.89747263e-02, 6.17549382e-02, 1.09504245e-01,
          -1.72331065e-01, -6.25859350e-02, -1.36032496e-02,
          3.12990993e-01, 7.58872554e-02, 1.20519139e-01, 1.58678740e-02,
          7.27093145e-02, -1.35509104e-01, 5.50930109e-03,
          4.79519367e-02, -5.46599627e-02, 5.25596216e-02,
          9.08206999e-02, 1.16887428e-02, 4.63706180e-02,
          -1.10240616e-01, 3.07823438e-02, -3.46798226e-02,
          -6.29441142e-02, -8.54755417e-02, 9.05635506e-02,
          3.07227727e-02, -4.39679213e-02, 2.67566610e-02,
          6.93871900e-02, -6.56945184e-02, -6.01687320e-02,
          -1.08552808e-02, 1.40627045e-02, -3.04403510e-02,
          -7.97744766e-02, -5.89231774e-02, -6.42792806e-02,
          9.49697495e-02, 1.00073084e-01, 7.80399591e-02, 5.99341467e-02,
          -1.09395655e-02, 4.22689654e-02, 1.72228087e-02,
          -3.11425421e-02, 1.01465702e-01, 1.08467929e-01,
          6.80130050e-02, -1.59650687e-02, 2.48474199e-02,
          -2.70052820e-01, 8.20496380e-02, -4.21302021e-02,
          -8.16327706e-03, -5.69502115e-02, 7.69946799e-02,
          1.09898783e-01, -2.13330705e-02, -1.40035912e-01,
          8.87824222e-02, 3.10839832e-01, -6.71867328e-03,
          7.07758814e-02, 7.92052597e-02, 1.30970970e-01,
          -1.03690200e-01, 1.15136817e-01, 4.01106514e-02,
          -9.36014578e-02, -1.74069474e-03, -6.05869517e-02,
          -1.52066723e-03, 6.76825792e-02, -3.52358036e-02,
          -2.26494540e-02, -8.25646222e-02, 8.62269849e-02,
          -1.03479616e-01, 1.73256174e-01, 3.15835997e-02,
          3.46495956e-03, -7.18717352e-02, -1.32236496e-01,
          -8.55754241e-02, -1.74974784e-01, -9.99720022e-02,
          -1.33286655e-01, -5.45799397e-02, 2.00954843e-02,
          -3.34326066e-02, -8.08353573e-02, -1.16375878e-01,
          -2.09336239e-03, -9.29513723e-02, -1.19279429e-01,
          -9.97528061e-03, 1.06219590e-01, 2.53844988e-02,
          6.47208765e-02, 1.87545028e-02, 1.36664342e-02,
          -9.96743888e-02, 1.21642880e-01, 1.87887609e-01,
          -1.35871962e-01, 1.50119960e-01, 5.10587022e-02,
          7.56046325e-02, 7.90399387e-02, -1.20898761e-01,
          -1.68758169e-01, -5.49489558e-02, 8.33752081e-02,
          7.15387762e-02, 1.96565837e-01, 8.84485915e-02, 2.14708924e-01,
          5.15140519e-02, -1.63123056e-01, -5.58312163e-02,
          -7.46980458e-02, -9.22982469e-02, 1.05390601e-01,
          3.17902304e-02, 3.79200578e-02, -9.64045376e-02,
          -1.21035784e-01, -3.54086012e-02, -6.62201196e-02,
          -4.42344248e-02, -5.44704273e-02, 3.32716443e-02,
          8.85615218e-03, 1.24224462e-01, -6.17164150e-02,
          -1.68140337e-01, -1.40943483e-01, 7.53188655e-02,
          2.67646443e-02, 1.45338029e-01, 6.73063621e-02,
          -5.62633947e-03, 1.70321073e-02, -2.77793854e-02,
          2.44470946e-02, 9.82941315e-02, 1.08154476e-01,
          -5.23259640e-02, -4.37999479e-02, -8.49540383e-02,
          9.96676367e-03, 3.40684615e-02, -1.28444927e-02,
          3.26729342e-02, 1.41014233e-01, 4.73798066e-02, 1.12798437e-01,
          1.23798452e-01, 9.08521563e-02, 7.29339123e-02, 1.56639367e-01,
          2.51302924e-02, 6.52315393e-02, 1.03779435e-02, 3.37464921e-02,
          3.09682060e-02, 1.25192627e-01, 1.58624694e-01, 7.13107437e-02,
          1.56635046e-02, -8.44193324e-02, -2.62340959e-02,
          6.05166182e-02, -1.21164627e-01, -1.41073212e-01,
          -2.59391982e-02, -1.47865623e-01, -3.85617800e-02,
          1.54904276e-01, 1.12028502e-01, -6.61851838e-02,
          -1.87451631e-01, 6.81179389e-02, -1.14781104e-01,
          -2.12665880e-03, 2.57426593e-02, 2.84116387e-01,
          -6.15991242e-02, -4.13165465e-02, 9.49712396e-02,
          1.29601717e-01, -4.19397131e-02, -3.34003754e-02,
          1.03566490e-01, -1.94901079e-02, -5.46361841e-02,
          1.66063998e-02, -9.61765125e-02, 8.90957490e-02,
          9.56498384e-02, -3.62881320e-03, -4.14852351e-02,
          -1.68990970e-01, -5.26704872e-03, -5.62004820e-02,
          8.39781612e-02, -1.04282193e-01, 2.32806817e-01,
          7.02925771e-02, 4.86040935e-02, -7.13654682e-02,
          3.66804786e-02, 5.09243421e-02, 1.91496611e-01, 5.16676344e-02,
          5.80393001e-02, 4.84916717e-02, 1.40767679e-01,
          -7.11778998e-02, 1.59888696e-02, 1.49022629e-02,
          -5.32160588e-02, -2.60770600e-02, 1.85577333e-01,
          -2.75231879e-02, 2.23458298e-02, -9.01455954e-02,
          -5.48386425e-02, 6.23226389e-02, -3.94573156e-03,
          -1.82291009e-02, 1.60333812e-02, 9.81845614e-03,
          -1.87714919e-01, 2.75860000e-02, 2.00174786e-02,
          1.33308664e-01, 1.03926538e-02, -1.71609759e-01,
          -1.14387020e-01, -7.53113925e-02, 1.96003914e-03,
          -1.53925970e-01, -1.71704739e-01, 1.85640633e-01,
          8.37151706e-02, -6.25924021e-02, -9.69889015e-02,
          1.15518766e-02, -7.49829635e-02, 2.32414752e-02,
          1.08372523e-02, -1.80095769e-02, -4.08659130e-02,
          1.60933528e-02, -2.59456709e-02, -3.73520888e-02,
          -7.00697005e-02, -6.27470240e-02, 5.12500890e-02,
          4.90705483e-02, 4.31256555e-02, -1.20006166e-02,
          -3.58259976e-02, 6.22980185e-02, 3.69295739e-02,
          -7.91652650e-02, 4.90245447e-02, 2.63116024e-02,
          -7.50052035e-02, -6.19778149e-02, -4.60189544e-02,
          -5.43429633e-04, -8.05614889e-02, -1.26594473e-02,
          1.53592546e-02, 1.67626649e-01, 8.73233974e-02, 2.39381656e-01,
          1.16900198e-01, 5.92504404e-02, -3.63297537e-02,
          -6.62828833e-02, -1.62395108e-02, 7.19217733e-02,
          -1.10293776e-01, -4.29960340e-02, -7.69533142e-02,
          -1.31539404e-01, 6.30342364e-02, 4.21232097e-02,
          7.33825117e-02, 1.91147909e-01, 6.29326999e-02, 2.10762143e-01,
          1.69811249e-02, -8.51097926e-02, -7.36999735e-02,
          1.03885382e-02, 2.89160646e-02, -1.18901087e-02,
          -7.11658597e-02, 5.78246713e-02, 2.87241973e-02,
          1.80641171e-02, 3.05210650e-02, 6.84812889e-02,
          -4.44638431e-02, -7.81702548e-02, -1.37110380e-02,
          -8.91601741e-02, -6.79685362e-03, 6.41984269e-02,
          -2.55689211e-02, -6.44360408e-02, -7.14198053e-02,
          -1.02210026e-02, -2.03104496e-01, 3.61850224e-02,
          -4.91374396e-02, 1.33714359e-03, 8.71769115e-02,
          -3.99386659e-02, 4.63890024e-02, 5.34602739e-02,
          -5.61535694e-02, 5.56839406e-02, -9.65052620e-02,
          -2.16881350e-01, -1.29630463e-02, 7.42486119e-02,
          -5.38351014e-03, -2.39841007e-02, 6.25676364e-02,
          1.06643457e-02, -7.88626820e-02, -1.27780496e-03,
          6.63793460e-02, -2.05016211e-01, 1.94757953e-01,
          4.66274582e-02, 9.93060172e-02, 2.35027876e-02,
          -1.48558393e-01, 4.25035059e-02, -1.85708217e-02,
          3.04759257e-02, 1.41733671e-02, 5.80395721e-02,
          -8.33001137e-02, -1.69365674e-01, -6.89433366e-02,
          6.90663084e-02, -2.40683183e-01, -2.81706806e-02,
          -4.67683524e-02, -1.90186296e-02, 8.03817138e-02,
          -1.44519866e-01, 3.18275690e-02, 1.96044873e-02,
          -1.16421558e-01, -1.13716731e-02, -2.38818061e-02,
          -1.24155171e-01, -6.51377514e-02, -7.55987018e-02,
          5.08785546e-02, -6.58079907e-02, 1.00872526e-02,
          6.81168661e-02, -1.06144138e-01, 1.04419338e-02,
          4.13334221e-02, -1.08928226e-01, 1.30498648e-01,
          7.81509373e-03, -8.73634219e-03, 2.55618002e-02,
          -1.15832500e-01, -7.48980716e-02, -1.02320807e-02,
          -4.00889292e-02, 5.36946319e-02, 9.70574990e-02,
          1.12111561e-01, -1.12028643e-01, 8.97400901e-02,
          -1.42324641e-01, -8.37178230e-02, -3.47681083e-02,
          -1.52448937e-01, -1.16754901e-02, -9.75226983e-02,
          -1.86260074e-01, -3.73556651e-02, -5.01501709e-02,
          -3.48131657e-02, -1.46078706e-01, 2.50632353e-02,
          -1.08465143e-01, -1.54537475e-02, 1.21773608e-01,
          3.27940881e-02, -5.90060651e-02, -5.69849201e-02,
          -7.59241655e-02, 1.03455834e-01, 9.56382155e-02,
          -1.10961981e-02, 2.51753465e-03, -6.68461807e-03,
          -9.73536372e-02, -1.20928064e-01, 4.92864288e-03,
          4.94772615e-03, 1.32042125e-01, 2.14700941e-02,
          -5.46398461e-02, 6.26349747e-02, -1.98766202e-01,
          -1.43366531e-01, -1.53082281e-01, -5.44253998e-02,
          3.23603600e-02, -9.71090347e-02, -1.94311030e-02,
          -1.05458245e-01, -1.54312983e-01, -1.36202961e-01,
          -8.01188797e-02, -1.28983244e-01, -7.61933029e-02,
          -3.91771831e-02, 6.87462687e-02, -1.07428893e-01,
          -2.01925933e-01, -1.53030351e-01, -2.12647468e-01,
          3.06423679e-02, -5.64945564e-02, 9.85122994e-02,
          6.49452955e-02, -1.94419548e-01, 1.33431211e-01,
          1.99732825e-01, 5.03365584e-02, 3.96276265e-02,
          -7.49104619e-02, -5.80638610e-02, -1.25174195e-01,
          -5.01729660e-02, -1.55760318e-01, -7.30468184e-02,
          3.14337127e-02, 3.05504519e-02, 1.05729312e-01, 2.83321664e-02,
          -8.74036625e-02, -8.22037235e-02, -6.51773587e-02,
          -1.15078621e-01, -6.47241920e-02, 5.44751296e-03,
          7.08641559e-02, 5.35353869e-02, -7.42790848e-02,
          -1.37133420e-01, -1.29585728e-01, -1.01302832e-01,
          2.36509126e-02, -7.80112743e-02, -1.34728670e-01,
          3.84359732e-02, -9.11739022e-02, 5.57689704e-02,
          3.08675114e-02, 4.27059121e-02, 2.80423556e-02, 4.35687825e-02,
          3.79035771e-02, -9.75623727e-02, 2.47226581e-02,
          8.14224695e-05, 7.12056318e-03, 1.62690654e-01, 7.48991370e-02,
          6.67558089e-02, 1.03448942e-01, -4.73131472e-03,
          -6.51734993e-02, 3.43424939e-02, 3.74828428e-02,
          -1.28406748e-01, 2.56031360e-02, -3.90955806e-02,
          1.18347630e-01, -6.66638166e-02, -6.35169446e-02,
          -1.18769430e-01, -2.51736157e-02, -3.68118547e-02,
          2.51084473e-02, -4.03424501e-02, -3.00384630e-02,
          -5.28751947e-02, -1.45312309e-01, -4.47556265e-02,
          -7.86627457e-02, -5.12055820e-03, -1.37608424e-02,
          -5.09936661e-02, -5.75464256e-02, -1.43013999e-01,
          -6.85703829e-02, -1.33984074e-01, -1.35976374e-01,
          9.34957936e-02, 1.44266859e-01, 4.55692932e-02,
          -1.57346725e-01, -5.51235899e-02, -4.60952558e-02,
          -9.88611355e-02, 8.45531002e-03, 1.15593247e-01,
          1.09660834e-01, -4.36420776e-02, 2.72670209e-01,
          3.18174995e-02, -3.61700878e-02, -9.35882926e-02,
          2.66362801e-02, 9.09234956e-02, 1.15574107e-01,
          -3.83063033e-02, 1.00427464e-01, -8.56973417e-03,
          3.16768773e-02, -5.95587231e-02, -8.08494389e-02,
          1.32777855e-01, 5.19352220e-02, 7.31875524e-02,
          -7.53713250e-02, 3.30575369e-02, 2.10237682e-01,
          -8.79589003e-03, -8.66263434e-02, -3.32004391e-02,
          1.57396123e-01, 2.22652495e-01, 7.92720616e-02, 6.66218325e-02,
          1.26335263e-01, 1.13882311e-01, 3.64353396e-02, 3.57922502e-02,
          -2.39326581e-02, 1.82970643e-01, -7.21966103e-02,
          5.72047792e-02, 1.95234828e-02, 1.57653853e-01,
          -6.99623078e-02, -1.07005909e-02, -8.35546926e-02,
          -1.18729621e-02, -9.94139761e-02, 1.05415963e-01,
          -8.96739867e-03, -1.02897130e-01, 1.39954742e-02,
          -1.00656860e-01, -3.37767191e-02, 5.84741421e-02,
          -3.11465450e-02, -1.26234107e-02, 1.18677266e-01,
          4.17910591e-02, -1.70014933e-01, 7.71831200e-02,
          -1.73329804e-02, 3.37803103e-02, -1.03103695e-02,
          -2.68577295e-03, 4.89796586e-02, -6.98946267e-02,
          2.81065889e-03, -3.58936861e-02, 7.45036304e-02,
          -7.27739884e-03, 6.39788806e-03, -1.97599724e-01,
          -9.63009521e-02, 1.34246955e-02, -5.95641024e-02,
          9.74752083e-02, 2.31427923e-02, 5.91867082e-02,
          -1.08129587e-02, -8.24531913e-02, -4.90955822e-02,
          -6.65889755e-02, -3.56798805e-02, 4.74899309e-03,
          6.94792941e-02, -9.56860557e-02, 9.32716802e-02,
          -1.84701264e-01, -4.28754985e-02, -1.28978789e-01,
          -1.15802445e-01, -7.79140219e-02, 1.61427528e-01,
          -1.23802759e-01, -1.74530178e-01, 1.00953162e-01,
          -1.44567758e-01, -4.07949202e-02, -1.58886135e-01,
          -2.46404763e-02, 7.39882067e-02, 1.15389012e-01,
          -9.55993757e-02, 1.30716234e-01, 1.79767400e-01,
          3.74527872e-02, 1.40907066e-02, 4.47609164e-02, 1.54740373e-02,
          2.09779188e-01, 7.37319961e-02, -7.45851621e-02,
          7.66596198e-02, 7.39114806e-02, -1.08043283e-01,
          -3.29954587e-02, 6.63602054e-02, 7.55253807e-02,
          1.25186741e-01, 6.02430888e-02, 1.12892985e-01, 1.64127976e-01,
          3.03312540e-02, -4.36551496e-02, -1.18917160e-01,
          6.75270781e-02, -8.11333582e-02, -1.60841048e-01,
          5.37336059e-02, 1.37307383e-02, 3.17555070e-02, 2.33071726e-02,
          -2.39263214e-02, -2.99416046e-04, 1.04429387e-01,
          6.84846416e-02, -3.20291780e-02, 1.19878776e-01,
          5.44536114e-02, -9.87961516e-02, 5.71188703e-02,
          -1.28762498e-01, -5.67316683e-03, -5.11679463e-02,
          2.28816848e-02, 2.41852269e-01, -1.31704196e-01,
          2.33691931e-02, -1.10066518e-01, 1.51586249e-01,
          8.65401998e-02, 5.56650832e-02, 4.12781257e-03,
          -1.14125445e-01, -6.16032705e-02, -1.91307347e-02,
          1.85035422e-01, 1.57234251e-01, 7.01995119e-02,
          -2.24833507e-02, 4.92590815e-02, 2.50068367e-01,
          1.92155495e-01, -6.36150837e-02, 8.73705000e-03,
          -2.45603621e-02, 4.09585945e-02, -1.34791741e-02,
          4.24063671e-03, 6.26680702e-02, 8.36578310e-02,
          -1.86720602e-02, 4.63455692e-02, 1.28503755e-01,
          9.08092363e-04, -9.64365527e-02, 1.13609850e-01,
          -5.15640937e-02, 8.92748460e-02, -7.93346018e-03,
          -6.51845708e-02, 1.31544426e-01, 8.33452716e-02,
          1.28157020e-01, 1.82452917e-01, 5.43426573e-02, 1.37486458e-01,
          -1.10557139e-01, -8.39135349e-02, -2.62719721e-01,
          1.37146875e-01, 2.77140830e-02, -1.20866388e-01,
          -1.34833539e-02, 2.73475386e-02, 8.42634216e-02,
          7.16170296e-03, 3.37368287e-02, -1.02823280e-01,
          1.54360756e-01, 3.81888896e-02, -6.96500391e-02,
          1.75360113e-01, 1.17410362e-01, -1.11591741e-01,
          8.27404633e-02, 1.45056337e-01, 6.01823442e-02,
          -7.82638416e-03, -2.59319856e-03, -2.26209648e-02,
          -1.47677576e-02, -5.41721657e-02, -2.34858114e-02,
          4.97618318e-02, -4.96591702e-02, -6.80600479e-02,
          -1.46291852e-02, -1.80827323e-02, -5.70513867e-03,
          -2.02528723e-02, 1.05180599e-01, 1.36920169e-01,
          1.08349528e-02, 4.26793657e-03, -1.90486908e-02,
          6.33291304e-02, 2.78824903e-02, -8.84185254e-04,
          3.46631408e-02, 1.48220867e-01, 4.67836931e-02,
          -2.42931135e-02, 1.99515328e-01, 5.34956455e-02,
          -3.86178754e-02, 7.95404166e-02, -8.97703227e-03,
          4.61444408e-02, 8.66739824e-02, 7.57174846e-03,
          -1.45784631e-01, -1.01338245e-01, -4.39257510e-02,
          4.86141071e-02, 1.37792751e-01, 2.49481872e-02, 4.69971597e-02,
          4.96224836e-02, -6.85040206e-02, -6.47136793e-02,
          -3.77647765e-02, 4.65083197e-02, 1.06106875e-02,
          -1.28853083e-01, -1.37734748e-02, -4.64780927e-02,
          8.48853588e-02, 7.82017224e-03, 1.05643750e-03, 4.61763851e-02,
          -1.42576590e-01, -1.24464229e-01, 1.29817754e-01,
          2.49239635e-02, 6.43476844e-02, 7.52418861e-02, 3.78376879e-02,
          -2.92031884e-01, -1.22427151e-01, -6.19986653e-02,
          4.12465297e-02, 1.29111961e-01, 1.14084326e-01, 1.18191913e-01,
          4.85713547e-03, 2.69751072e-01, -4.07509170e-02,
          -9.29358304e-02, -4.20728512e-02, 1.05856635e-01 ]
      - [ 1.27567928e-02, 9.20283981e-03, 1.27531867e-02, 4.11335891e-03,
          -9.67079587e-03, -4.04505320e-02, -5.83444908e-02,
          -6.16992638e-02, 5.09118056e-03, -3.48001719e-02,
          -5.32286987e-02, -4.73704897e-02, -5.68756163e-02,
          -1.26969898e-02, -6.36081919e-02, -5.27054109e-02,
          -5.91709726e-02, -3.56296301e-02, 3.04984711e-02,
          9.80699807e-03, 1.12546487e-02, 5.14320238e-03, 2.70316154e-02,
          1.04493853e-02, 1.40240304e-02, 9.50256921e-03, 2.92007253e-02,
          4.40905243e-03, 3.81326792e-03, 7.17591634e-03, 1.70039025e-03,
          9.16105602e-03, 3.01787746e-03, 7.63287535e-03,
          -8.87211412e-04, 1.32386656e-02, -4.47276011e-02,
          -6.90311641e-02, -5.92554100e-02, -7.41297752e-02,
          -3.39584537e-02, -3.04713901e-02, -5.50559200e-02,
          -4.65878844e-02, -1.89987924e-02, 2.23560762e-02,
          -3.51130404e-02, -3.34158428e-02, -1.82414986e-02,
          9.17786919e-03, 1.23406323e-02, 3.06432601e-02, 2.12461818e-02,
          3.40124741e-02, 3.48501070e-03, -4.06530540e-04,
          2.13148003e-03, -2.24767230e-03, 1.81184281e-02,
          3.19788069e-03, 8.83568171e-03, 4.08070674e-03, 1.60189793e-02,
          1.88836753e-02, 7.93284085e-03, 9.37134121e-03, 3.75799439e-03,
          3.98138762e-02, 2.54902197e-03, 1.09352870e-02, 6.95640501e-03,
          1.81077495e-02, 1.52668105e-02, 1.60108246e-02, 1.81039330e-02,
          1.46386754e-02, -1.45713775e-03, -2.60645971e-02,
          1.18971877e-02, -2.34318003e-02, -1.12213078e-03,
          -7.16222227e-02, 1.35987923e-02, 1.58542097e-02,
          7.05794711e-03, -4.35727127e-02, -5.42993918e-02,
          -8.44471250e-03, -8.70754570e-02, -7.22191706e-02,
          2.00571027e-02, 6.59521949e-03, 8.99794325e-03, 5.47015015e-03,
          3.66486385e-02, 2.16009445e-03, 1.44612966e-02, 8.02017190e-03,
          1.90406088e-02, 2.19596736e-02, 6.70313975e-03, 9.50316526e-03,
          3.70037393e-03, 1.12745613e-02, 2.20566546e-03, 1.70537997e-02,
          1.16374781e-02, 2.06139237e-02, -7.93787912e-02,
          1.65948514e-02, 1.65995937e-02, 5.43757016e-03, 7.94027001e-03,
          -8.20081390e-04, 2.20194831e-02, 2.55874172e-03,
          -7.80469403e-02, -7.02643320e-02, 6.99453894e-03,
          1.46577694e-02, 5.47792157e-03, 1.28554758e-02, 3.51895904e-03,
          2.85430737e-02, 2.31350809e-02, -7.01771900e-02,
          2.30117440e-02, 5.41335018e-03, 8.41813069e-03, 1.98760652e-03,
          5.61189605e-03, 1.47977122e-03, 1.85396206e-02, 1.31704928e-02,
          2.23290864e-02, 2.93978285e-02, 8.15792102e-03, 1.05281649e-02,
          4.35323268e-03, 9.62289516e-03, 1.49261975e-03, 2.08795276e-02,
          1.41550424e-02, 3.10930070e-02, -6.42526522e-02,
          -6.03779666e-02, 9.28787235e-03, -2.50205696e-02,
          -1.90968737e-02, 2.58744555e-03, 2.02550776e-02,
          1.45206731e-02, -6.50710091e-02, -7.37942830e-02,
          -6.41640127e-02, 1.80363341e-03, -4.69154567e-02,
          -3.38674411e-02, 7.85165187e-03, 2.66774129e-02,
          2.05306355e-02, -2.01210734e-02, 2.50634383e-02,
          7.99235143e-03, 1.11163156e-02, 3.06588854e-03, 1.33421477e-02,
          2.48295581e-03, 1.74381286e-02, 9.43706930e-03, 2.42146403e-02,
          2.04034988e-02, 8.40504188e-03, 1.74949840e-02, 7.14168930e-03,
          2.94406898e-02, 8.26164987e-03, 3.00470721e-02, 1.87947266e-02,
          2.25443318e-02, 1.83142815e-02, 7.78444065e-03, 9.04096011e-03,
          6.57278020e-03, 3.16508152e-02, 1.26040569e-02, 1.39355483e-02,
          9.88051668e-03, 1.74329616e-02, 1.55988000e-02, 5.75703802e-03,
          8.16001836e-03, 3.45757999e-03, 8.36755335e-03, 4.25110525e-03,
          7.72242434e-03, 6.11942494e-03, 1.49692530e-02,
          -4.09546234e-02, -1.09270066e-02, -9.96143371e-03,
          -5.19861421e-03, 3.38254124e-02, 2.68586781e-02,
          3.48461308e-02, 2.90246624e-02, -4.68869694e-02,
          -4.49175760e-02, 2.08487585e-02, 1.86339058e-02,
          1.09297112e-02, 2.15765517e-02, 1.10303843e-02, 2.30506137e-02,
          2.15592124e-02, -4.27803211e-02, 1.26423463e-02,
          3.32394103e-03, 4.44557052e-03, 1.84481451e-03, 9.11025610e-03,
          2.51487060e-03, 5.26242284e-03, 3.83870280e-03, 1.25977416e-02,
          8.55405349e-03, 8.66642687e-03, 1.18874805e-02, 5.12131490e-03,
          2.44159363e-02, 2.06225156e-03, 6.62033726e-03, 3.22011113e-03,
          7.52460817e-03, -2.00124383e-02, -9.61485598e-03,
          -1.62720233e-02, -8.84819683e-03, 9.67532676e-03,
          1.52344834e-02, 2.18314957e-02, 2.16956120e-02,
          -2.25910470e-02, -8.72660335e-03, -4.35823016e-02,
          -4.44037691e-02, -2.90488619e-02, 2.56804731e-02,
          1.52599381e-03, 1.06515335e-02, -6.70304941e-03,
          -8.66079982e-03, 8.69586412e-03, 7.65216537e-03,
          8.53625964e-03, 4.05384507e-03, 1.83347594e-02, 2.59120390e-03,
          7.11577944e-03, 3.07785138e-03, 8.02970771e-03, 1.36141507e-02,
          4.38259682e-03, 5.00243856e-03, 2.26567965e-03, 7.06322584e-03,
          2.38762377e-03, 6.40978059e-03, 3.58420121e-03, 1.42135285e-02,
          -5.41145494e-03, -4.67298413e-03, -2.25645234e-03,
          1.04503601e-03, 1.33172031e-02, -3.87939289e-02,
          -1.87729839e-02, -2.94476654e-02, -2.84586451e-03,
          -7.95922242e-05, 1.72165371e-02, 1.80280618e-02,
          1.28708975e-02, 4.48384322e-03, -2.03262772e-02,
          -2.43147761e-02, -2.94473935e-02, -1.06084486e-02,
          1.76854879e-02, 4.13489947e-03, 6.08059997e-03, 2.34437035e-03,
          1.04709389e-02, 2.30871304e-03, 1.26258014e-02, 7.51834968e-03,
          1.88742578e-02, 2.13453453e-02, 6.54062675e-03, 7.35164620e-03,
          3.68112396e-03, 5.92596922e-03, 1.39942032e-03, 1.09163653e-02,
          6.74603879e-03, 2.13303100e-02, -3.00738383e-02,
          1.44302556e-02, 1.71062518e-02, 7.70660769e-03,
          -2.37522852e-02, -5.14853373e-02, -3.89103964e-02,
          -4.68087420e-02, -2.07089484e-02, 2.84363590e-02,
          2.18925942e-02, 1.93549339e-02, 6.44593919e-03, 1.35722244e-02,
          1.57735182e-03, 1.81243569e-02, 1.70831233e-02, 3.13878432e-02,
          1.57916509e-02, 7.53089646e-03, 7.94918090e-03, 4.84164804e-03,
          8.12534429e-03, 1.99941709e-03, 8.53318162e-03, 5.12969121e-03,
          1.52116977e-02, 8.11416656e-03, 8.21462832e-03, 1.30361058e-02,
          9.26032569e-03, 1.89526062e-02, 8.40454176e-03, 2.19538063e-02,
          1.21350484e-02, 1.27102584e-02, 3.00926492e-02, 4.83261747e-03,
          -7.80718913e-03, 1.17420708e-03, 1.08871600e-02,
          3.82377184e-03, 1.42218824e-02, 9.12699290e-03, 3.01388726e-02,
          -5.43559864e-02, -7.25596473e-02, -7.19731450e-02,
          -8.55024084e-02, 1.02370204e-02, 1.20028965e-02,
          2.58915387e-02, 1.94786824e-02, -2.08318401e-02,
          -1.30285779e-02, -1.07374340e-02, -1.62969399e-02,
          -8.19921680e-03, 2.34404579e-02, 1.64279621e-02,
          2.43318733e-02, 1.97818149e-02, -2.14881990e-02,
          -1.64867882e-02, 1.15880072e-02, 1.31931501e-02,
          4.17521317e-03, 1.46705331e-02, 7.22702546e-03, 1.61236003e-02,
          1.46984337e-02, -1.60748176e-02, -1.67777874e-02,
          -1.51033271e-02, -1.58259738e-02, -1.40440343e-02,
          2.25915462e-02, 1.14883846e-02, 2.76423749e-02, 2.33749580e-02,
          -1.81376096e-02, -2.38690842e-02, 5.97756309e-03,
          9.92410537e-03, -5.53411141e-04, 1.24777975e-02,
          3.71262454e-03, 1.20096738e-02, 1.23308608e-02,
          -2.52199769e-02, -1.35984644e-02, -7.08143972e-03,
          -3.38807935e-03, -6.69665355e-03, 1.09786410e-02,
          7.04104360e-03, 1.12948166e-02, 1.30874412e-02,
          -1.56289414e-02, -1.32871298e-02, -3.59400660e-02,
          -3.49702984e-02, -2.46980879e-02, 1.15379076e-02,
          6.21320168e-03, 5.73288929e-03, 4.00817767e-03,
          -8.54158774e-03, -2.45709196e-02, 1.26123917e-03,
          8.61337036e-03, 9.40820843e-04, 9.26582236e-03, 5.26433671e-03,
          7.97608681e-03, 8.17973912e-03, -2.34163851e-02,
          -1.33896461e-02, -8.71140696e-03, -2.31317259e-04,
          -5.88355400e-03, 7.88549613e-03, 1.41476523e-02,
          1.40912002e-02, 1.41486507e-02, 1.67483650e-02,
          -8.07749666e-03, 9.05256160e-03, 1.15620997e-02,
          1.35419704e-03, 5.33655938e-03, -2.02132482e-02,
          -2.06654761e-02, -2.86693331e-02, -3.36430292e-03,
          -3.70736932e-03, 1.07746003e-02, 1.16864499e-02,
          7.29362713e-03, 7.19373394e-03, -3.38842198e-02,
          -2.04381160e-02, -2.17060484e-02, -4.43322677e-03,
          1.93028376e-02, 6.53939182e-03, 8.88069347e-03, 3.20173451e-04,
          4.16884851e-03, 4.06331243e-03, 9.93188441e-05, 9.62332473e-04,
          1.53415883e-02, 1.63936578e-02, 1.07921613e-02, 1.19587444e-02,
          8.15427024e-03, 1.01951044e-02, -3.43809538e-02,
          -1.81627925e-02, -2.26293337e-02, -8.37328751e-03,
          2.03420576e-02, 7.59601826e-03, 8.09489097e-03, 3.62102757e-03,
          1.08101610e-02, -2.71055065e-02, -3.17835659e-02,
          -2.50733849e-02, 5.26406243e-03, 3.14576402e-02,
          1.00885471e-02, 8.14061984e-03, 2.65801442e-03, 8.39931611e-03,
          -2.14590528e-03, 4.10964713e-03, 5.97544480e-03,
          3.04011963e-02, 3.23348475e-04, 1.03303194e-02, 1.06910402e-02,
          6.22811820e-03, 8.56011361e-03, -5.16191386e-02,
          -3.88702117e-02, -3.88747416e-02, -1.25943767e-02,
          -1.35569265e-02, 1.19663160e-02, 1.48024978e-02,
          5.74779091e-03, 1.11463908e-02, -1.31360777e-02,
          -5.53095341e-03, -9.18718148e-03, -1.31231481e-02,
          3.36628146e-02, -4.59598936e-03, -1.41416052e-02,
          -2.49010650e-03, 8.10744148e-03, 3.16890934e-03,
          9.32507217e-03, 8.34573992e-03, 3.63083743e-02, 1.74740888e-02,
          -3.66422273e-02, -3.54762748e-02, -4.11381237e-02,
          1.38194039e-02, 5.76166995e-03, 1.04173236e-02, 9.37462412e-03,
          3.13140564e-02, -7.90741201e-03, -3.33792344e-02,
          -4.75765169e-02, -1.90107804e-02, 8.91777594e-03,
          1.15879672e-02, 2.88118366e-02, 2.56743655e-02,
          -9.13571753e-03, 9.11292341e-03, -3.84528451e-02,
          -3.45310830e-02, -3.92746031e-02, 2.63583683e-03,
          1.00750271e-02, 2.08381154e-02, 1.80059243e-02, 2.99585238e-02,
          -2.00407263e-02, -2.24210788e-03, 8.48075375e-03,
          3.55812022e-03, -1.00316666e-03, -1.96583215e-02,
          1.65122692e-02, 5.84656559e-03, -1.94473155e-02,
          2.42167376e-02, 8.86556413e-03, 1.50336679e-02,
          -2.06639105e-03, 1.66428294e-02, 1.44805480e-03,
          9.54425335e-03, 9.82382987e-03, 2.61744969e-02, 3.70311853e-03,
          5.04133524e-03, 5.90238255e-03, 2.64082337e-03,
          -5.37620410e-02, -6.65204450e-02, -5.94412759e-02,
          -6.43527210e-02, -2.86489613e-02, 2.35374589e-02,
          5.89207653e-03, 5.19210845e-03, 3.19411629e-03, 5.81618724e-03,
          1.32438866e-03, 5.38322423e-03, 6.06078608e-03, 2.32948065e-02,
          -1.82387419e-02, -9.88203101e-03, 6.92863809e-03,
          -2.45971754e-02, -1.05394861e-02, -1.04843862e-02,
          -3.18101980e-02, -1.13288043e-02, -1.70847550e-02,
          -1.43413534e-02, -9.04156175e-03, 1.52195198e-03,
          -2.87369769e-02, -3.99550870e-02, -2.52511241e-02,
          -3.44295800e-02, -4.36552465e-02, -1.24169211e-03,
          2.27695685e-02, 6.00776775e-03, -9.08330141e-04,
          4.84753447e-03, -3.06141879e-02, 1.26078529e-02,
          -2.35260278e-02, 3.82593414e-03, 1.89420208e-02,
          2.40644868e-02, 1.01611745e-02, 1.80630889e-02, 8.24294798e-03,
          -6.16267789e-03, 7.77896354e-03, -1.35201972e-03,
          -5.55703591e-04, 1.96455326e-02, 3.89821418e-02,
          3.01450631e-03, 4.67481907e-04, -1.30062541e-02,
          -6.71971822e-03, -1.07435677e-02, -3.96799073e-02,
          -2.33926903e-02, 4.22379151e-02, 2.47118939e-02,
          6.95882947e-04, -2.02083052e-03, -7.58956093e-03,
          -2.02595778e-02, -3.73692848e-02, -2.66246628e-02,
          -2.79933102e-02, -1.08025437e-02, 1.02144191e-02,
          3.80309322e-03, 9.53645445e-03, -5.57383813e-04,
          7.73552456e-04, -7.09956512e-04, -1.17402161e-02,
          -7.06870016e-03, 9.66561399e-03, 8.56540445e-03,
          -2.18681083e-03, 9.22675896e-03, -5.98352030e-03,
          -4.86507416e-02, -6.88679144e-03, -4.10394818e-02,
          -2.44838074e-02, 4.47144639e-03, -1.08498782e-02,
          1.04772076e-02, 1.52171031e-02, 4.85055801e-03, 1.68209635e-02,
          -3.15390676e-02, -4.07396406e-02, -5.32851890e-02,
          -2.85535548e-02, -2.56882738e-02, 1.34124393e-02,
          2.41320040e-02, 7.60634337e-03, 1.44936135e-02,
          -4.92065493e-03, 2.00626859e-03, -8.08030739e-03,
          -2.26458628e-02, 1.23627670e-02, 1.04375212e-02,
          1.73435658e-02, 4.00119461e-03, -1.15756725e-03,
          5.56223746e-03, 5.57537889e-03, 5.95427398e-03, 1.03727514e-02,
          3.38081829e-03, 1.25365276e-02, 1.67107210e-02, 7.47340405e-03,
          1.33402841e-02, 8.57104547e-03, 1.47456648e-02, 1.14807291e-02,
          3.07704718e-03, -1.55946556e-02, -3.35490219e-02,
          -3.36437859e-02, -1.43659217e-02, 1.20775774e-02,
          1.29701765e-02, 2.55659986e-02, 1.86514482e-02,
          -1.32787880e-02, -1.80740859e-02, -5.23816869e-02,
          -4.99904118e-02, -2.87471823e-02, -1.18806178e-03,
          1.28162596e-02, 2.63381712e-02, 2.15977374e-02, 1.26788989e-02,
          4.31600667e-04, 8.44557956e-03, 1.61064491e-02, 4.69754077e-03,
          2.12428793e-02, 1.12066297e-02, 1.72559377e-02, 1.31600015e-02,
          3.47923208e-03, 9.82269645e-03, 6.64316118e-03, 1.23684043e-02,
          1.99000351e-03, 1.34511907e-02, 4.47463943e-03, 1.68869160e-02,
          1.01846913e-02, 1.04527855e-02, 2.14907397e-02, 1.06201135e-02,
          1.28944470e-02, 3.27884918e-03, -4.31265198e-02,
          -4.15512808e-02, -6.34286972e-03, -2.87228972e-02,
          1.30477389e-02, 7.63719436e-03, 9.47451405e-03, 1.09620458e-02,
          4.48465953e-03, 4.37169662e-03, 1.00375451e-02, 2.56409235e-02,
          1.86971705e-02, 5.71875786e-03, -4.06716280e-02,
          1.14086047e-02, 1.58056393e-02, 3.25551932e-03,
          -4.01476808e-02, -5.50477616e-02, -3.16701876e-03,
          -1.46308905e-02, -4.18160595e-02, -4.21137027e-02,
          8.81746132e-03, 1.60355177e-02, 1.65584369e-03, 8.85096192e-03,
          -1.01794908e-02, 1.27859693e-02, -3.65384226e-03,
          -4.17059846e-02, 3.39796743e-03, 8.91637336e-03,
          1.54029764e-02, 4.23526485e-03, 2.53322441e-02, 1.22856786e-02,
          3.67844403e-02, 1.81338508e-02, -7.68710393e-03,
          2.42796130e-02, 1.43698361e-02, 3.12115829e-02, 8.69114231e-03,
          3.28848474e-02, 1.43486401e-02, 4.48568203e-02, 2.63891965e-02,
          1.69222094e-02, -4.66489308e-02, 4.46208240e-03,
          1.06167588e-02, 6.61772036e-04, 7.10359728e-03,
          -5.89563139e-02, -3.57079096e-02, -5.49177527e-02,
          -4.67788242e-02, 9.30105615e-03, 6.41778950e-03,
          1.11993086e-02, -3.78970033e-03, -6.57569990e-03,
          -4.66756970e-02, -3.22463997e-02, -4.28845175e-02,
          -2.92880982e-02, 1.91827193e-02, 1.09877465e-02,
          2.16783937e-02, 3.62588000e-03, 2.28540786e-02, 9.43266787e-03,
          2.20797285e-02, 1.11080036e-02, 2.07829308e-02, 1.61761101e-02,
          3.66415549e-03, 1.77865755e-02, 3.09012504e-03, 6.91837538e-03,
          -6.52727147e-04, 9.79926623e-03, 3.70511389e-03,
          1.84655283e-02, -4.93636131e-02, -3.36252525e-02,
          -2.78537609e-02, -2.99232397e-02, -2.44412813e-02,
          4.65708412e-03, 2.35123448e-02, 9.19221714e-03,
          -5.03061675e-02, -5.20518683e-02, -3.51906754e-02,
          -1.71280336e-02, -1.06751453e-02, 4.38663177e-03,
          2.43069720e-03, 5.95336920e-03, -5.12973545e-03,
          -5.21464534e-02, 1.38351182e-02, 2.46534636e-03,
          1.64862107e-02, 3.06469691e-03, -2.57858001e-02,
          -1.85230107e-03, 7.00896466e-03, 4.64060670e-03,
          1.73558816e-02, 2.08476894e-02, 1.10019622e-02, 2.17607319e-02,
          1.28779691e-02, 2.02384144e-02, 1.65478867e-02, 2.19382178e-02,
          1.57529321e-02, 2.29161419e-02, -5.01902103e-02,
          -4.05332912e-03, 4.95705428e-03, 6.98076840e-03,
          -4.66025211e-02, -3.38336416e-02, -6.08003847e-02,
          -6.50384203e-02, -5.14876507e-02, 2.15663482e-02,
          9.84000973e-03, 1.36677977e-02, 2.31743809e-02, 4.04301565e-03,
          -5.89023996e-03, -8.97209346e-03, -1.14541808e-02,
          7.45725166e-03, 2.02959534e-02, -3.06277666e-02,
          -5.37167713e-02, 1.42313177e-02, -4.19684127e-02,
          1.44435214e-02, 2.87958179e-02, 1.88332163e-02, 2.03233007e-02,
          1.97145194e-02, -6.19004527e-03, -4.17370610e-02,
          1.43879140e-02, -3.88133489e-02, 1.61025897e-02,
          2.42939647e-02, 1.88315939e-02, 1.39833959e-02,
          -1.05910096e-02, -1.81086678e-02, -5.40580936e-02,
          1.43784108e-02, -1.04569951e-02, 1.51354494e-02,
          1.97778717e-02, 1.57550052e-02, -8.94726813e-03,
          8.05485528e-03, 1.91956367e-02, 1.92240980e-02, 8.98716319e-03,
          -3.46608274e-02, 1.69249158e-02, -6.53722207e-04,
          1.25922123e-02, 9.95593425e-03 ]
      - [ 1.48676028e-02, 1.89812668e-02, 3.21698822e-02, 1.01850880e-02,
          2.62235291e-02, -4.26079370e-02, -6.26972094e-02,
          -6.44340739e-02, -4.01014881e-03, -3.20152380e-02,
          -3.24384682e-02, -3.32448408e-02, -4.97933626e-02,
          2.52625439e-02, -6.40139505e-02, -5.80630563e-02,
          -5.98576441e-02, -4.71605733e-02, 2.70216893e-02,
          3.01775355e-02, 3.59548442e-02, 1.59206782e-02, 6.24171570e-02,
          -8.84961162e-04, -1.39886106e-03, -2.05951626e-03,
          1.10672126e-02, -3.94306565e-03, 1.55668510e-02,
          2.91811582e-02, 8.14607460e-03, 4.41045724e-02,
          -2.35547218e-03, -1.72205013e-03, -5.88149671e-03,
          -4.06229263e-03, -3.31325531e-02, -3.19440104e-02,
          -3.28535624e-02, -5.95164448e-02, 9.32763983e-03,
          -3.04339733e-02, -6.10188358e-02, -4.86161970e-02,
          -2.34265625e-02, 7.79610733e-03, -3.42825986e-02,
          -2.95017324e-02, -2.55666487e-02, -1.40221743e-02,
          3.28421453e-03, 8.49872269e-03, 6.51320023e-03, 1.81087740e-02,
          -9.88076068e-03, 4.73026512e-03, 1.60999894e-02,
          -1.89267751e-03, 3.34171318e-02, 2.65968178e-04,
          4.66959318e-03, 5.28497731e-06, -1.18389004e-03,
          1.46235460e-02, 1.74109871e-03, 2.23724684e-03, 4.81675052e-05,
          1.65247377e-02, 6.35037024e-04, 6.66809082e-03, 3.65508115e-03,
          1.55079151e-02, -1.52777892e-03, 7.10931048e-03,
          1.01458747e-02, 3.23082553e-03, -2.19136178e-02,
          -3.30842249e-02, -1.69124193e-02, -3.88434529e-02,
          -1.64587665e-02, -8.29271153e-02, 5.94939850e-03,
          1.00275679e-02, 2.67943880e-03, -5.07213697e-02,
          -5.18444479e-02, -2.53186002e-02, -9.22440961e-02,
          -8.29271153e-02, 1.30163617e-02, 2.88149645e-03,
          5.70305437e-03, 7.48313847e-04, 2.22519916e-02, 3.15087324e-04,
          4.52554878e-03, 2.82624131e-03, 1.26091540e-02, 8.99256952e-03,
          4.20080451e-03, 8.97004735e-03, 7.22271623e-04, 5.25047258e-03,
          1.34267460e-03, 5.36042592e-03, 4.04739007e-03, 1.07066827e-02,
          -9.02127177e-02, 6.80772215e-03, 1.18610431e-02,
          4.90634795e-03, 2.47474783e-03, 2.93403456e-04, 7.91712385e-03,
          -4.77643684e-03, -9.02127177e-02, -9.04557928e-02,
          7.36937206e-03, 1.64335482e-02, 7.71500776e-03, 8.00949801e-03,
          2.58267927e-03, 7.81606976e-03, 6.41559064e-03,
          -9.09544453e-02, 1.02197425e-02, 4.48582321e-03,
          8.53780098e-03, 1.52164302e-03, 4.45358502e-03, 1.60866533e-03,
          4.93711047e-03, 3.45909758e-03, 1.16759911e-02, 1.16948476e-02,
          6.51457859e-03, 8.18915386e-03, 3.96240689e-03, 7.91679788e-03,
          1.63717696e-03, 6.07779855e-03, 3.92659148e-03, 1.22012012e-02,
          -8.74838158e-02, -6.48200661e-02, -2.04178708e-04,
          -2.72332504e-02, -2.22798120e-02, 3.10255866e-03,
          4.96625109e-03, 3.73804150e-03, -8.75677094e-02,
          -8.25005695e-02, -5.56679778e-02, 6.11016387e-03,
          -4.15035151e-02, -4.01113778e-02, 5.53076388e-03,
          7.67405145e-03, 6.15459541e-03, -3.56169194e-02,
          6.12258445e-03, 8.37799627e-03, 1.01492228e-02, 6.86423853e-03,
          1.46448994e-02, 1.87778543e-03, 6.75548473e-03, 3.78124882e-03,
          5.66828717e-03, 4.31541875e-02, 5.08037508e-02, 5.38628027e-02,
          4.29166518e-02, 5.74214458e-02, 1.27593975e-03, 5.74161019e-03,
          4.17915359e-03, 3.94883826e-02, 1.00077437e-02, 1.63307562e-02,
          2.12079231e-02, 1.55304177e-02, 2.40124036e-02, 6.28882903e-04,
          4.33436740e-04, 2.93365272e-04, 6.14197180e-03, 1.39912385e-02,
          1.19956471e-02, 1.74954887e-02, 7.95281213e-03, 1.84590835e-02,
          7.16629904e-04, 3.19229672e-03, 2.37840042e-03, 1.18179470e-02,
          -3.86274904e-02, 1.63838249e-02, 1.58046167e-02,
          1.08645745e-02, 2.26107966e-02, 7.13845016e-03, 1.89871155e-02,
          1.79326329e-02, -4.78087962e-02, -5.16983569e-02,
          2.36083586e-02, 3.17991339e-02, 1.83406211e-02, 2.12708097e-02,
          7.80359330e-03, 2.24579833e-02, 1.89532228e-02,
          -4.46043313e-02, 2.28643641e-02, 9.06502921e-03,
          1.46532236e-02, 6.22655358e-03, 2.14071572e-02, 1.23601442e-03,
          1.18419901e-02, 6.89813448e-03, 2.20434591e-02, 7.54352938e-03,
          4.14713926e-04, 5.16525097e-03, 9.09612922e-04, 1.43962279e-02,
          1.31784100e-03, 1.44413384e-02, 7.03581749e-03, 1.21909790e-02,
          -7.89456908e-03, -2.24256516e-02, -1.57437753e-02,
          -1.53659591e-02, 1.13497404e-02, 1.23689128e-02,
          3.15817632e-02, 2.65092812e-02, -6.40011858e-03,
          -1.13921911e-02, -7.58035704e-02, -7.11058155e-02,
          -5.22496253e-02, 4.17030882e-04, -3.21386242e-03,
          9.83979832e-03, -9.16635385e-04, -9.50033683e-03,
          1.32886996e-03, 1.19080185e-03, 4.37823823e-03, 1.95236388e-03,
          2.06312686e-02, 8.87450471e-04, 1.28112528e-02, 5.00697596e-03,
          1.56987901e-03, 6.63353922e-03, 1.91612192e-03, 3.87003995e-03,
          8.99203762e-04, 8.78643058e-03, 4.12115536e-04, 1.00514647e-02,
          4.03861329e-03, 6.69501442e-03, 1.40313124e-02,
          -3.13035026e-02, -2.32729483e-02, -1.26055991e-02,
          9.54588503e-03, -4.41049971e-02, -3.68804857e-02,
          -3.23027261e-02, 1.84594877e-02, -1.04238857e-02,
          4.65304125e-03, 7.86184613e-03, 2.13167397e-03,
          -2.30262941e-03, -2.97241732e-02, -3.56040932e-02,
          -4.27593254e-02, -2.40377728e-02, 9.34030488e-03,
          1.89780258e-03, 2.82087037e-03, 5.59463457e-04, 5.46961976e-03,
          3.84785817e-04, 7.71318749e-03, 3.75175755e-03, 9.02669691e-03,
          1.51621317e-02, 4.90006851e-03, 6.12775050e-03, 4.25940333e-03,
          9.51500237e-03, 2.78279511e-03, 1.08668311e-02, 6.83540991e-03,
          1.15703838e-02, -5.15974872e-02, 6.08938793e-03,
          1.12608988e-02, 3.19727813e-03, -4.47586067e-02,
          -6.57204986e-02, -5.78765459e-02, -6.13328815e-02,
          -5.13343029e-02, 3.13141532e-02, 1.46821607e-02,
          1.62492990e-02, 7.74257956e-03, 2.66368221e-02,
          -8.01823917e-04, 1.48633942e-02, 1.67215560e-02,
          3.88828851e-02, 9.83204786e-03, 8.28232802e-03, 9.68836062e-03,
          6.88311085e-03, 1.20271361e-02, 2.54725129e-03, 7.83127639e-03,
          5.31702815e-03, 6.34193653e-03, 7.74570694e-03, 2.84623001e-02,
          3.30034718e-02, 2.57206187e-02, 4.77133952e-02, 2.84091337e-03,
          7.06267031e-03, 4.92051058e-03, 4.18709079e-03, 1.92232393e-02,
          9.31441691e-03, 2.59158388e-03, 4.87980107e-03, 1.83874145e-02,
          2.67612399e-03, 8.19731411e-03, 5.29897260e-03, 1.64269619e-02,
          -4.86723147e-02, -3.93698364e-02, -3.65439765e-02,
          -4.51955087e-02, 4.13777754e-02, 4.09311149e-03,
          7.29557732e-03, 5.13927219e-03, -2.46296022e-02,
          -1.35027627e-02, 3.44623905e-03, -4.30084439e-03,
          5.70231536e-03, 1.52943963e-02, 8.39170814e-03, 1.62675325e-02,
          1.32583426e-02, -1.62268840e-02, -2.02755425e-02,
          1.99378505e-02, 2.40858644e-02, 1.04519622e-02, 1.05314935e-02,
          6.96429005e-03, 1.99478753e-02, 1.86166968e-02,
          -1.52685987e-02, -9.68003087e-03, -1.50310788e-02,
          -1.12871043e-02, -1.31808976e-02, 1.68900900e-02,
          1.40320789e-02, 2.34505218e-02, 2.21298188e-02,
          -2.36413330e-02, -3.55303027e-02, 4.70767525e-04,
          3.06927599e-03, -2.61013256e-03, 8.69967695e-03,
          7.80222006e-03, 1.82135794e-02, 1.81836542e-02,
          -3.62466462e-02, -8.37662537e-03, -1.13060931e-02,
          -1.23905565e-03, -8.70421529e-03, 3.51409754e-03,
          1.00673577e-02, 2.46807951e-02, 2.24640686e-02,
          -6.38859067e-03, -7.14785233e-03, -6.52015060e-02,
          -6.15624972e-02, -4.06033471e-02, -7.13921571e-03,
          3.33707430e-03, 1.62376091e-02, 1.76076721e-02,
          -3.26071121e-03, -3.09875309e-02, -2.24268856e-03,
          7.22934259e-03, 3.51619994e-04, 4.34134388e-03, 2.86109396e-03,
          1.55538572e-02, 1.33452825e-02, -2.90562827e-02,
          -6.52312813e-03, -1.87820774e-02, -1.04247751e-02,
          -9.70202312e-03, -4.89893043e-03, 3.71050183e-03,
          1.32934395e-02, 1.35286795e-02, 2.16845628e-02,
          -3.30243749e-03, -1.60414018e-02, -1.51871108e-02,
          -1.02988519e-02, -5.89431729e-03, -2.75698453e-02,
          -3.56456786e-02, -3.71690243e-02, 4.68262564e-03,
          -2.93985615e-03, 3.42770317e-03, 5.27939666e-03,
          1.76709809e-03, -1.08999771e-03, -3.48627567e-02,
          -2.36792192e-02, -2.49826126e-02, -5.01583377e-03,
          2.48357859e-02, -1.38363685e-03, -2.47805566e-03,
          -5.11967484e-03, -2.69126985e-03, 1.00384059e-03,
          -1.65308395e-03, 5.66688506e-03, 1.52969547e-02,
          1.23190051e-02, 6.73385430e-03, 6.36796793e-03, 2.55077565e-03,
          -2.14721565e-03, -3.52223814e-02, -1.10759148e-02,
          -1.75478105e-02, -4.67579998e-03, 1.63288340e-02,
          7.96200708e-03, 1.31637063e-02, 4.64017270e-03,
          -1.01923861e-03, -2.75655929e-02, -3.59042063e-02,
          -2.93029584e-02, -6.68925699e-04, 2.10228302e-02,
          1.44382510e-02, 1.55111244e-02, 6.32094033e-03, 3.09082703e-03,
          -7.33318913e-04, 2.09062062e-02, 1.43253170e-02,
          2.11633611e-02, -1.41953742e-02, 6.06701430e-03,
          7.33669614e-03, 2.80548050e-03, -1.79282704e-03,
          -3.57430540e-02, -1.78326517e-02, -2.28521023e-02,
          -1.31740952e-02, -3.03841699e-02, 2.32929755e-02,
          2.42976230e-02, 1.20879114e-02, 5.89988148e-03,
          -9.55714285e-03, 1.02958046e-02, 2.97584431e-03,
          -3.21888365e-02, 1.21777542e-02, 1.22409370e-02,
          4.70936252e-03, 8.12103413e-03, 1.29848588e-02, 4.03416902e-03,
          1.61531232e-02, 1.12926094e-02, 1.46176107e-02,
          -1.23669230e-03, -2.47658640e-02, -2.06156708e-02,
          -1.70747526e-02, 3.76821384e-02, 2.87660095e-03,
          6.63467590e-03, 3.94501025e-03, 5.94822643e-03,
          -3.77064981e-02, -6.08056271e-03, -2.13048942e-02,
          -1.55775505e-03, 8.88719130e-03, 8.61576665e-03,
          2.40679979e-02, 2.36154813e-02, -4.54619750e-02,
          -1.71055216e-02, -1.56329274e-02, -1.43238325e-02,
          -1.47378854e-02, 2.51578018e-02, 4.41525551e-03,
          1.05795292e-02, 6.94666011e-03, -3.64303892e-03,
          -2.83773150e-02, -1.28052067e-02, 5.25019597e-04,
          -7.35043176e-03, -5.60841477e-03, -1.62300002e-02,
          8.84621590e-03, 1.47805666e-03, -3.12625989e-02,
          7.20769539e-03, -9.02777072e-04, 1.40807685e-03,
          -5.83643187e-03, 1.28157148e-02, 9.26968176e-03,
          1.96542181e-02, 1.81387626e-02, 9.50034149e-03, 1.68793164e-02,
          8.83228425e-03, 1.00961924e-02, 6.18371926e-03,
          -3.18494737e-02, -1.25453565e-02, -1.34192165e-02,
          -1.39529062e-02, 1.89259660e-03, 1.00191701e-02,
          3.87331797e-03, 4.29186597e-03, 1.51126320e-03, 7.44214281e-03,
          2.17921147e-03, 6.28261454e-03, 9.36938915e-03, 1.32998573e-02,
          -2.94161215e-02, -1.86123084e-02, -1.12506282e-03,
          -2.57841758e-02, -6.30195299e-03, -6.20486494e-03,
          -1.35943349e-02, 1.58200634e-03, -2.79249512e-02,
          -2.44765934e-02, -2.15055961e-02, -9.20851622e-03,
          -3.03635802e-02, -3.61186825e-02, -3.07319462e-02,
          -2.39515807e-02, -3.44474763e-02, -1.24841994e-02,
          2.04196833e-02, 8.36147927e-03, 1.54271293e-02, 3.67752416e-03,
          -9.14970599e-03, 1.03540188e-02, -1.65980328e-02,
          2.88062380e-03, 2.33419407e-02, 2.30384544e-02, 8.07455555e-03,
          1.89140346e-02, 1.14552234e-03, 1.13656344e-02,
          -1.26689160e-03, 1.29522933e-02, 4.09554504e-03,
          2.08232403e-02, 1.99046768e-02, 7.72860192e-04,
          -3.58951511e-03, -1.61081068e-02, 1.00661404e-02,
          -1.55324070e-02, -2.44811829e-02, -1.75179727e-02,
          2.57858951e-02, 1.51250977e-02, -5.39670466e-03,
          -1.04009649e-02, -1.42959002e-02, -2.57632788e-02,
          -4.91365716e-02, -1.85651127e-02, -2.38244813e-02,
          -3.70100979e-03, 7.55477929e-03, 3.37276491e-03,
          1.16022825e-02, -4.69756173e-03, 2.23459508e-02,
          -5.36324875e-03, 1.49526848e-02, 1.34743215e-03,
          7.07296282e-03, 5.99230127e-03, -7.20000640e-03,
          1.06337648e-02, -1.69267077e-02, -4.07862812e-02,
          -5.91494422e-03, -2.29148064e-02, -1.36074992e-02,
          6.36520237e-03, -3.67107429e-02, 6.85616722e-03,
          8.42509791e-03, 3.69188283e-03, 3.49362730e-03,
          -3.25171202e-02, -2.15298925e-02, -4.50401381e-02,
          -4.26431485e-02, -3.07642072e-02, 2.68341806e-02,
          3.68991941e-02, 1.36135574e-02, 2.49422416e-02, 1.14781093e-02,
          2.65032537e-02, 1.14606963e-02, -3.12194824e-02,
          1.61291063e-02, 1.81680557e-03, 8.76535662e-03,
          -1.89662178e-03, -7.60200666e-03, 7.53724715e-03,
          1.86212417e-02, 1.29467370e-02, 1.66187733e-02, 1.53122311e-02,
          1.33827301e-02, 1.99602712e-02, 3.94567009e-03, 8.86920746e-03,
          3.88792017e-03, 1.29885692e-02, 8.48167762e-03, 1.24079045e-02,
          -3.03310137e-02, -8.81360099e-03, -9.24761593e-03,
          9.26496368e-03, 1.34468619e-02, 1.40006812e-02, 2.60913968e-02,
          2.58858036e-02, -3.40071879e-02, -4.42151204e-02,
          -2.99336910e-02, -2.78731082e-02, -7.74616608e-03,
          1.42875826e-02, 1.10561475e-02, 2.97375973e-02, 2.15335917e-02,
          -2.19097994e-02, 1.53841497e-02, 1.94097068e-02,
          2.30968390e-02, 8.32353625e-03, 1.31712500e-02, 1.16235996e-03,
          6.45831367e-03, 3.74951097e-03, 1.33362757e-02, 1.36543829e-02,
          1.38614066e-02, 2.04811618e-02, 7.13315792e-03, 1.92190632e-02,
          4.48041130e-03, 2.03128327e-02, 1.21184848e-02, 1.20181236e-02,
          3.74920596e-03, 6.29359949e-03, 6.23163255e-03,
          -1.44765683e-04, -2.03858819e-02, -2.72208750e-02,
          -9.01562336e-04, -6.36968203e-03, 5.35045424e-03,
          -1.13053601e-02, 3.17589240e-03, 2.25677830e-03,
          -9.86225088e-04, 2.29358906e-03, -2.29163008e-04,
          1.16387783e-02, 9.88842640e-03, -8.98846705e-03,
          -4.87756357e-02, 2.04577087e-03, 3.30872228e-03,
          -2.67137052e-03, -2.23456267e-02, -1.46855405e-02,
          1.76225603e-02, 1.30415391e-02, -2.20021736e-02,
          -3.78350541e-02, 8.43623001e-03, 1.20317470e-02,
          4.34674043e-03, 2.12131124e-02, 1.18719246e-02, 2.69180220e-02,
          2.10421886e-02, -2.47719381e-02, -1.41572542e-02,
          5.05133485e-03, 8.21543019e-03, 6.36529818e-04, 8.68190825e-03,
          1.12451660e-03, 8.58811941e-03, 5.47783682e-04,
          -2.17045192e-02, 1.58913415e-02, 4.67024371e-03,
          1.04917949e-02, 7.32345972e-04, 5.75921452e-03,
          -1.32555346e-04, 6.66939095e-03, 1.94497523e-03,
          1.08997496e-02, -9.21443850e-03, 2.35739239e-02,
          3.25539783e-02, 1.31196603e-02, 4.12627198e-02,
          -1.94610730e-02, -1.30716106e-02, -2.00187750e-02,
          -7.11349351e-03, 9.15745366e-03, 2.49630716e-02,
          2.83240434e-02, 1.21209100e-02, 1.38980022e-03,
          -4.80479039e-02, -5.01178056e-02, -5.35558574e-02,
          -2.20836923e-02, 1.42479893e-02, 6.44396234e-04,
          5.38530666e-03, -5.63830254e-04, 4.01131203e-03,
          6.78226235e-04, 7.34494301e-03, 5.13204047e-03, 1.57356914e-02,
          6.90139737e-03, -9.25414916e-03, 2.41657579e-03,
          -6.93189632e-03, -2.47770082e-02, -1.70797145e-03,
          3.92533652e-03, 2.24537589e-03, 1.12561230e-02,
          -1.89903043e-02, -1.00872973e-02, 2.86054821e-03,
          -1.46844666e-02, -2.02263631e-02, -9.60525591e-03,
          7.03056296e-03, 1.81060153e-04, -3.33428644e-02,
          -2.03859378e-02, -1.58456806e-02, 3.02772550e-03,
          -1.00924578e-02, 1.92440534e-03, 3.81068722e-03,
          -3.19526065e-03, -8.05298891e-03, -1.75350513e-02,
          2.00575031e-02, -1.02708209e-02, -2.02885596e-03,
          -6.67098723e-03, -5.34654334e-02, 1.38302497e-03,
          7.76603539e-03, 8.45441502e-03, 2.48442013e-02, 2.62894910e-02,
          5.63217513e-03, 1.04106858e-03, 3.69324372e-03,
          -6.80152653e-03, 5.57314698e-03, 1.28194857e-02,
          1.11049395e-02, 2.69573331e-02, -2.86309868e-02,
          -1.01104528e-02, -6.74065528e-03, -4.96706925e-03,
          -4.47140038e-02, -2.03305800e-02, -5.16862944e-02,
          -5.11632711e-02, -2.13568341e-02, 3.14875357e-02,
          8.13497812e-04, -4.37140558e-03, 2.51068268e-03,
          -7.36067304e-03, -5.17226988e-03, -1.21567873e-02,
          -2.68496526e-03, 2.25525796e-02, 3.71556245e-02,
          -1.72091890e-02, -4.41207401e-02, 1.15158334e-02,
          -4.93633449e-02, 7.71912839e-03, 1.34578720e-02,
          9.88059584e-03, 3.86819802e-02, 3.00396606e-02,
          -3.70221841e-03, -3.71697843e-02, 9.51902848e-03,
          -4.06214632e-02, 7.95298815e-03, 1.50026418e-02,
          1.04043018e-02, 2.71244850e-02, 4.03450569e-03,
          -5.91955753e-03, -4.17441167e-02, 1.45014292e-02,
          -2.03233790e-02, 1.79274827e-02, 2.46109609e-02,
          2.22224090e-02, 5.03674429e-03, 2.10319981e-02, 1.86515059e-02,
          2.04903912e-02, 1.54732121e-02, -5.15115298e-02,
          6.86931843e-03, -1.00386404e-02, 2.27896660e-03,
          1.78834796e-02 ]
   uncompressed_sv_total: 179
   uncompressed_support_vectors:
      - [ 3.73331428e-01, 5.63331181e-04, 1.68569502e-03, 0.,
          9.49272420e-03, 6.54558986e-02, 1.65197864e-01, 7.41529390e-02,
          3.73331428e-01, 3.73331428e-01, 1.32738799e-03, 3.97203537e-03,
          0., 4.73206602e-02, 3.15552056e-01, 3.73331428e-01,
          3.73331428e-01, 3.73331428e-01, 2.04750486e-02, 1.02907093e-03,
          3.07936035e-03, 0., 3.97712877e-03, 8.22204631e-04,
          1.85642485e-02, 7.38512026e-03, 2.22503524e-02, 4.98592369e-02,
          4.14634217e-03, 1.24073885e-02, 0., 1.95786953e-02,
          2.99302954e-02, 5.25435284e-02, 3.86234038e-02, 1.07172586e-01,
          2.15401843e-01, 5.11037069e-04, 1.52921176e-03, 0.,
          3.09085567e-02, 1.91390097e-01, 2.91887403e-01, 2.64607430e-01,
          2.91887403e-01, 2.35802576e-01, 1.07114625e-04, 3.20526597e-04,
          0., 2.91042794e-02, 1.95087358e-01, 2.91887403e-01,
          2.83848763e-01, 2.91887403e-01, 6.14949353e-02, 1.47563394e-03,
          4.41564294e-03, 0., 1.11416904e-02, 4.75337617e-02,
          1.11239389e-01, 6.11717403e-02, 1.60931826e-01, 1.46264151e-01,
          8.85399408e-04, 2.64944253e-03, 0., 2.90961061e-02,
          1.51238889e-01, 2.91887403e-01, 2.51969188e-01, 2.91887403e-01,
          1.18756332e-01, 2.95191658e-05, 8.83322646e-05, 0.,
          3.44667062e-02, 1.51922613e-01, 2.81561673e-01, 2.47308120e-01,
          3.05255473e-01, 1.63576268e-02, 0., 0., 0., 2.38545910e-02,
          5.68061993e-02, 9.04802531e-02, 8.56650397e-02, 4.96460684e-02,
          1.11606337e-01, 3.08781455e-04, 9.23988235e-04, 0.,
          6.54024482e-02, 3.05255473e-01, 3.05255473e-01, 3.05255473e-01,
          3.05255473e-01, 3.78497429e-02, 6.07487018e-05, 1.81782583e-04,
          0., 8.59763473e-02, 3.05255473e-01, 3.05255473e-01,
          3.05255473e-01, 1.58367634e-01, 1.42465467e-02, 0., 0., 0.,
          2.71547399e-02, 2.81696394e-02, 2.77364254e-02, 2.94134580e-02,
          1.90717168e-02, 0., 0., 0., 0., 0., 0., 0., 0., 0.,
          1.40332311e-01, 1.14791139e-04, 3.43497522e-04, 0.,
          3.41776341e-01, 4.64766324e-01, 4.64766324e-01, 4.64766324e-01,
          4.28583652e-01, 1.06646039e-01, 2.98561305e-02, 8.68232641e-03,
          1.36969080e-02, 4.95414622e-02, 2.34580170e-02, 3.15473862e-02,
          4.77048531e-02, 6.79036081e-02, 2.15869179e-04, 1.24090584e-04,
          3.71326343e-04, 0., 4.31738357e-04, 0., 0., 0., 2.15869179e-04,
          5.38107567e-02, 1.21808453e-02, 7.05520855e-03, 0.,
          2.44651781e-03, 0., 0., 0., 4.40989994e-02, 2.04484940e-01,
          1.46537349e-01, 1.64879307e-01, 9.34977382e-02, 2.69916803e-02,
          0., 0., 0., 6.57197386e-02, 4.19463247e-01, 4.19463247e-01,
          4.19463247e-01, 4.19463247e-01, 8.21929723e-02, 0., 0., 0.,
          4.19463247e-01, 2.94508457e-01, 1.20317619e-02, 3.60034853e-02,
          0., 1.21149840e-02, 0., 3.06205124e-01, 1.14965506e-01,
          2.94508457e-01, 3.06205124e-01, 4.80715632e-02, 1.43847913e-01,
          0., 7.13506490e-02, 0., 1.30735904e-01, 4.36896421e-02,
          3.06205124e-01, 3.06205124e-01, 9.10976250e-03, 2.72597764e-02,
          0., 1.13372691e-02, 0., 1.83060899e-01, 6.11757375e-02,
          3.06205124e-01, 3.06205124e-01, 7.12725148e-02, 2.13273704e-01,
          0., 0., 0., 1.21702321e-01, 4.06707749e-02, 3.06205124e-01,
          1.53893024e-01, 2.30862852e-02, 6.90826997e-02, 0.,
          9.02398974e-02, 1.33870393e-02, 3.25153060e-02, 3.80854532e-02,
          1.92728475e-01, 3.55795830e-01, 2.18970608e-02, 6.55241087e-02,
          0., 2.91250557e-01, 3.61147285e-01, 3.61147285e-01,
          3.61147285e-01, 3.61147285e-01, 2.19788551e-01, 3.24989036e-02,
          9.72487479e-02, 0., 1.27594806e-02, 0., 7.87647218e-02,
          2.63217855e-02, 2.19788551e-01, 1.34793743e-01, 4.80140708e-02,
          1.43675849e-01, 0., 3.59049588e-02, 0., 7.80149326e-02,
          2.60712225e-02, 1.34793743e-01, 2.59803496e-02, 2.00760644e-03,
          6.00750139e-03, 0., 4.05820832e-02, 2.09813759e-01,
          3.39708358e-01, 3.39708358e-01, 1.00010015e-01, 3.70169207e-02,
          1.84277957e-03, 5.51427808e-03, 0., 9.81775522e-02,
          3.39708358e-01, 3.39708358e-01, 3.39708358e-01, 2.04708338e-01,
          4.52086003e-03, 6.49182638e-03, 1.94259454e-02, 0.,
          7.83870742e-03, 1.95023585e-02, 3.00484803e-02, 3.08650043e-02,
          1.15460111e-02, 3.48924324e-02, 6.50108559e-03, 1.94536559e-02,
          0., 4.49447371e-02, 2.29302824e-01, 3.39708358e-01,
          3.39708358e-01, 1.42655030e-01, 9.34171379e-02, 2.40166148e-04,
          7.18665950e-04, 0., 5.30443490e-02, 2.12022156e-01,
          2.96206206e-01, 2.96206206e-01, 1.96847677e-01, 2.92663634e-01,
          4.29566950e-02, 5.89136444e-02, 3.59436758e-02, 2.40814090e-02,
          2.94789132e-02, 5.61445430e-02, 4.01789360e-02, 2.54996091e-01,
          2.56844252e-01, 1.77940051e-03, 5.32463379e-03, 0.,
          3.33551951e-02, 1.78750038e-01, 2.96206206e-01, 2.83587784e-01,
          2.96206206e-01, 2.96206206e-01, 7.46810436e-02, 1.05235495e-01,
          5.42845577e-02, 2.21768245e-02, 3.99677530e-02, 8.44004154e-02,
          5.97631596e-02, 2.96206206e-01, 2.76306391e-01, 1.76276028e-01,
          2.10192308e-01, 1.15526579e-01, 2.19969731e-02, 0., 0., 0.,
          1.51956454e-01, 2.76306391e-01, 2.76306391e-01, 2.76306391e-01,
          2.30981603e-01, 2.58810073e-02, 0., 0., 0., 1.52865902e-01,
          2.76306391e-01, 2.05855921e-01, 2.55420387e-01, 1.40375301e-01,
          2.07834467e-02, 0., 1.40487737e-05, 4.69486531e-06,
          2.76306391e-01, 2.76306391e-01, 2.23055214e-01, 2.69236058e-01,
          1.20961882e-01, 1.14561040e-02, 0., 4.89883125e-04,
          1.63710749e-04, 9.21880454e-02, 7.90535584e-02, 2.64005084e-03,
          2.59672967e-03, 3.56722460e-03, 2.57515046e-03, 4.17370070e-03,
          3.53741553e-03, 2.98556034e-03, 8.06375593e-02, 9.83497202e-02,
          5.35256369e-03, 6.37734775e-03, 5.99593204e-03, 5.82692912e-03,
          3.91728524e-03, 1.77387858e-03, 2.04778649e-03, 9.41882506e-02,
          4.89539146e-01, 1.35429958e-02, 1.47316149e-02, 1.56952832e-02,
          5.03383949e-03, 1.25211012e-02, 1.48319791e-03, 7.53873400e-03,
          4.89539146e-01, 4.89539146e-01, 1.40759498e-02, 4.68671834e-03,
          1.97296627e-02, 3.64005715e-02, 2.57689524e-02, 1.82888824e-02,
          3.41435336e-02, 4.89539146e-01, 8.93843323e-02, 5.53499628e-03,
          6.84018433e-03, 6.65836735e-03, 7.94085767e-03, 5.51056862e-03,
          1.19053870e-02, 1.44076245e-02, 1.15220107e-01, 2.70772036e-02,
          6.01084763e-03, 1.06922826e-02, 1.52617344e-03, 3.13177751e-03,
          1.93865621e-03, 1.39549933e-02, 1.27173215e-02, 4.60287407e-02,
          3.88253421e-01, 1.75893754e-02, 6.07299851e-03, 3.93457673e-02,
          3.14021736e-01, 2.11519122e-01, 1.99592382e-01, 2.67908841e-01,
          3.88253421e-01, 1.26677290e-01, 1.72232669e-02, 1.02034779e-02,
          3.20919044e-02, 3.37224364e-01, 2.07489356e-01, 2.03957081e-01,
          2.38452792e-01, 3.73993069e-01, 1.03892304e-01, 7.81707540e-02,
          2.23422840e-01, 1.17660558e-03, 4.52722870e-02, 0.,
          2.21765954e-02, 9.54655185e-03, 1.05196305e-01, 2.14450121e-01,
          1.10616259e-01, 3.00636232e-01, 0., 1.55280188e-01,
          2.94312984e-01, 3.00636232e-01, 3.00636232e-01, 3.00636232e-01,
          9.27089527e-02, 6.00722358e-02, 1.20298624e-01, 5.09179085e-02,
          3.00636232e-01, 1.87595055e-01, 2.26056933e-01, 1.97166741e-01,
          1.19516939e-01, 3.04655209e-02, 1.17979281e-01, 3.00636232e-01,
          0., 1.43971801e-01, 0., 0., 0., 3.04655209e-02, 4.41470295e-01,
          2.04964187e-02, 6.13330640e-02, 0., 2.73358114e-02,
          1.28041789e-01, 2.57756799e-01, 2.01686546e-01, 4.41470295e-01,
          4.41470295e-01, 1.17435090e-01, 1.99805275e-01, 5.29715829e-02,
          1.72363296e-02, 3.60155366e-02, 8.58950764e-02, 6.42496943e-02,
          4.41470295e-01, 6.93547307e-03, 2.95609422e-02, 8.84576142e-02,
          0., 7.64251500e-03, 0., 0., 0., 6.93547307e-03, 3.85709805e-03,
          2.75644828e-02, 8.24834257e-02, 0., 3.83884646e-02, 0.,
          4.93221870e-03, 1.64826075e-03, 3.85709805e-03, 4.08290923e-01,
          3.56760263e-01, 4.08290923e-01, 2.24559590e-01, 3.84255461e-02,
          0., 4.37539886e-04, 1.46218532e-04, 4.08290923e-01,
          4.02514547e-01, 1.66764125e-01, 2.09724486e-01, 1.07426308e-01,
          1.62657276e-02, 0., 1.52570894e-02, 5.09866467e-03,
          1.97994873e-01, 1.30960895e-02, 3.15491483e-02, 9.44070965e-02,
          0., 9.45825949e-02, 0., 1.29275592e-02, 4.32016328e-03,
          1.30960895e-02, 5.63484319e-02, 1.80457961e-02, 5.39998971e-02,
          0., 4.69843522e-02, 0., 1.83641911e-02, 6.13700319e-03,
          5.63484319e-02, 4.87814635e-01, 3.80343348e-02, 5.53376675e-02,
          2.40281597e-02, 4.22811508e-03, 4.60476615e-03, 5.02325827e-04,
          3.38561786e-03, 4.87814635e-01, 4.87814635e-01, 1.42199034e-02,
          1.16660753e-02, 1.24010071e-02, 8.54364410e-02, 3.99696045e-02,
          3.54000814e-02, 3.87031026e-02, 4.87814635e-01, 7.92136937e-02,
          3.49307172e-02, 5.04164100e-02, 1.73357110e-02, 3.30881285e-03,
          0., 3.14748264e-04, 1.05183615e-04, 5.64508066e-02,
          7.72277191e-02, 5.78009477e-03, 7.01121800e-03, 2.83479714e-03,
          4.08166796e-02, 1.47014577e-02, 1.33538274e-02, 4.49158112e-03,
          6.57869950e-02, 3.23161513e-01, 2.91140308e-03, 1.16923451e-03,
          1.58496276e-02, 3.07908088e-01, 1.69407219e-01, 1.66943237e-01,
          1.76915735e-01, 3.29836458e-01, 3.84618156e-02, 3.51311266e-03,
          3.28678242e-03, 1.82989798e-02, 3.29836458e-01, 2.11403742e-01,
          2.20756486e-01, 2.27499932e-01, 1.18095614e-01, 2.10568421e-02,
          1.92208972e-05, 7.74608634e-05, 3.66402674e-03, 3.29836458e-01,
          8.58999938e-02, 1.07052468e-01, 1.05592310e-01, 3.41618955e-02,
          4.76082414e-03, 1.29726762e-03, 3.88191896e-03, 4.36275033e-03,
          3.29836458e-01, 1.46647274e-01, 1.73975796e-01, 1.70909509e-01,
          2.33861562e-02, 1.00129694e-02, 1.73770580e-02, 4.56989817e-02,
          1.70947220e-02, 5.71538985e-01, 2.11554289e-01, 2.38505095e-01,
          2.33959064e-01, 3.66684049e-02, 1.10298926e-02, 3.07196211e-02,
          9.19248164e-02, 0., 3.25141102e-02, 0., 0., 0., 1.10298926e-02,
          6.05581887e-03, 2.71087028e-02, 8.11195821e-02, 3.55154695e-03,
          5.71538985e-01, 2.21464217e-01, 2.28787199e-01, 2.13610202e-01,
          2.78834067e-02, 1.26574468e-02, 3.68767157e-02, 1.10349171e-01,
          0., 2.76061147e-02, 0., 0., 0., 1.26574468e-02, 1.29133433e-01,
          1.75192550e-01, 3.19116890e-01, 0., 6.24716692e-02, 0., 0., 0.,
          1.29133433e-01, 1.62245318e-01, 7.77810067e-02, 2.32750490e-01,
          0., 3.19116890e-01, 0., 4.98942994e-02, 1.66737977e-02,
          1.62245318e-01, 2.33759001e-01, 1.42912313e-01, 3.19116890e-01,
          0., 9.35806558e-02, 0., 8.85213912e-03, 2.95822928e-03,
          2.33759001e-01, 3.19116890e-01, 1.10515207e-01, 3.19116890e-01,
          0., 2.23159194e-01, 0., 3.84794697e-02, 1.28591647e-02,
          3.19116890e-01, 8.34716931e-02, 8.44722912e-02, 2.52773285e-01,
          0., 3.12528461e-01, 0., 7.44790137e-02, 2.48895772e-02,
          8.34716931e-02, 1.54266745e-01, 7.88335055e-02, 2.35899895e-01,
          0., 3.12528461e-01, 0., 5.18604219e-02, 1.73308756e-02,
          1.54266745e-01, 3.00629079e-01, 1.33770749e-01, 3.12528461e-01,
          0., 3.12528461e-01, 0., 1.99977215e-02, 6.68288721e-03,
          3.00629079e-01, 1.59558699e-01, 9.78472531e-02, 2.92795718e-01,
          0., 2.39310116e-01, 0., 3.54805333e-03, 1.18569878e-03,
          1.59558699e-01, 3.69056106e-01, 5.81355572e-01, 5.81355572e-01,
          3.63177568e-01, 6.53102547e-02, 0., 7.36497436e-03,
          2.46125134e-03, 1.55369848e-01, 3.75408866e-02, 3.02114040e-02,
          3.25121395e-02, 5.85356914e-03, 6.60247356e-02, 0.,
          1.04577042e-01, 3.49478126e-02, 3.50358486e-02, 1.65504888e-02,
          8.54339264e-03, 4.30617714e-03, 0., 0., 0., 0., 0.,
          1.25368433e-02, 0., 0., 0., 0., 0., 0., 0., 0., 0.,
          8.23223847e-04, 0., 0., 0., 4.51714844e-01, 2.79126950e-02,
          2.51737591e-02, 2.59341560e-02, 4.42251237e-03, 8.49706645e-04,
          1.59701821e-03, 4.77888715e-03, 0., 4.51714844e-01,
          1.11075141e-01, 1.10913776e-01, 1.25637561e-01, 8.82250909e-03,
          1.53405988e-03, 0., 0., 0., 2.66984999e-01, 5.12726493e-02,
          4.00427356e-02, 4.78537269e-02, 7.98447337e-03, 4.73766448e-03,
          6.18979800e-04, 1.85222377e-03, 0., 4.51714844e-01,
          3.13852906e-01, 2.50047833e-01, 3.17923546e-01, 2.67674252e-02,
          1.06695085e-03, 9.72706173e-03, 2.91070752e-02, 0.,
          4.89818245e-01, 1.15771919e-01, 1.26074389e-01, 1.48626074e-01,
          7.04656960e-03, 2.69645522e-03, 9.41281207e-03, 2.81667244e-02,
          0., 1.92465335e-02, 1.58053380e-03, 1.30428944e-03,
          1.02473726e-03, 2.69645522e-03, 6.27181493e-03, 4.04903991e-03,
          1.21162739e-02, 0., 4.89818245e-01, 4.37763244e-01,
          3.24019253e-01, 3.90908092e-01, 2.46060807e-02, 6.51981402e-03,
          3.37554538e-03, 1.01009114e-02, 0., 1.04990251e-01,
          9.68056358e-03, 6.76949648e-03, 2.88774772e-03, 6.51981402e-03,
          1.48328304e-01, 1.17699265e-01, 3.50242913e-01, 0.,
          1.82727218e-01, 0., 3.79880853e-02, 1.26949502e-02,
          1.48328304e-01, 3.50242913e-01, 1.23239823e-01, 3.50242913e-01,
          0., 2.78605878e-01, 0., 1.48620069e-01, 4.96662110e-02,
          3.50242913e-01, 1.90477952e-01, 4.31029275e-02, 1.28980011e-01,
          0., 3.56705338e-02, 0., 1.20008565e-01, 4.01047468e-02,
          1.90477952e-01, 2.54087895e-01, 1.82117708e-02, 5.44963777e-02,
          0., 1.06595531e-01, 0., 1.97770983e-01, 6.60915822e-02,
          2.54087895e-01, 3.58530611e-01, 1.38150349e-01, 3.58530611e-01,
          0., 1.22971363e-01, 0., 5.53517044e-02, 1.84975658e-02,
          3.58530611e-01, 3.58530611e-01, 1.45429105e-01, 3.58530611e-01,
          0., 1.43408790e-01, 0., 0., 0., 3.58530611e-01, 2.17235863e-01,
          3.04573402e-02, 9.11396369e-02, 0., 3.92821766e-02, 0.,
          5.14098369e-02, 1.71802659e-02, 2.17235863e-01, 1.18091680e-01,
          3.11357304e-02, 9.31696072e-02, 0., 1.35687646e-02, 0., 0., 0.,
          1.18091680e-01 ]
      - [ 0., 0., 0., 0., 7.04615593e-01, 0., 0., 0., 0., 0., 0., 0., 0.,
          0., 0., 0., 0., 0., 0., 0., 0., 0., 7.04615593e-01, 0., 0., 0.,
          0., 0., 0., 0., 0., 0., 0., 0., 0., 0., 0., 0., 0., 0., 0., 0.,
          0., 0., 0., 0., 0., 0., 0., 0., 0., 0., 0., 0., 0., 0., 0., 0.,
          0., 0., 0., 0., 0., 0., 0., 0., 0., 0., 0., 0., 0., 0., 0., 0.,
          0., 0., 0., 0., 0., 0., 0., 0., 0., 0., 0., 0., 0., 0., 0., 0.,
          0., 0., 0., 0., 0., 0., 0., 0., 0., 0., 0., 0., 0., 0., 0., 0.,
          0., 0., 0., 0., 0., 0., 0., 0., 0., 0., 0., 0., 0., 0., 0., 0.,
          0., 0., 0., 0., 0., 0., 0., 0., 0., 0., 0., 0., 0., 0., 0., 0.,
          0., 0., 0., 0., 0., 0., 0., 0., 0., 0., 0., 0., 0., 0., 0., 0.,
          0., 0., 0., 0., 0., 0., 0., 0., 0., 0., 0., 0., 0., 0., 0., 0.,
          0., 0., 0., 0., 0., 0., 0., 0., 0., 0., 2.40814668e-04, 0., 0.,
          0., 1.37092710e-01, 0., 0., 5.97789418e-04, 5.48573327e-04, 0.,
          0., 0., 0., 0., 0., 0., 0., 0., 4.36297327e-01, 1.24020174e-01,
          1.31328598e-01, 3.87486368e-02, 1.43519402e-01, 1.54181093e-01,
          4.36297327e-01, 4.36297327e-01, 4.36297327e-01, 1.12046726e-01,
          0., 0., 0., 3.04424874e-02, 6.34527728e-02, 2.05588549e-01,
          1.19384721e-01, 2.50797331e-01, 0., 0., 0., 0., 0., 0., 0., 0.,
          0., 0., 0., 0., 0., 0., 0., 0., 0., 0., 4.98753130e-01, 0., 0.,
          0., 0., 0., 0., 0., 4.98753130e-01, 4.98753130e-01, 0., 0., 0.,
          0., 0., 0., 0., 4.98753130e-01, 0., 0., 0., 0., 0., 0., 0., 0.,
          0., 0., 0., 0., 0., 0., 0., 0., 0., 0., 7.03920186e-01, 0., 0.,
          0., 0., 0., 0., 0., 7.03920186e-01, 3.13530341e-02, 0., 0., 0.,
          0., 0., 0., 0., 3.13530341e-02, 0., 0., 0., 0., 0., 0., 0., 0.,
          0., 0., 0., 0., 0., 0., 0., 0., 0., 0., 0., 0., 0., 0., 0., 0.,
          0., 0., 0., 0., 0., 0., 0., 0., 0., 0., 0., 0., 0., 0., 0., 0.,
          0., 0., 0., 0., 0., 1.10580074e-02, 0., 0., 0., 0., 0., 0., 0.,
          1.10580074e-02, 3.09114926e-04, 0., 0., 0., 0., 0., 0., 0.,
          3.09114926e-04, 4.07366723e-01, 4.07366723e-01, 4.07366723e-01,
          4.07366723e-01, 4.07366723e-01, 0., 0., 0., 4.07366723e-01,
          2.55226314e-01, 4.85180877e-02, 6.60592690e-02, 2.61147507e-02,
          1.97724886e-02, 8.35188776e-02, 2.41586626e-01, 1.86913833e-01,
          2.66677827e-01, 1.26556709e-01, 2.26994734e-02, 3.05583905e-02,
          1.53119806e-02, 2.60322373e-02, 6.73581064e-02, 1.84737965e-01,
          1.48930639e-01, 2.57476389e-01, 2.52116710e-01, 5.09232953e-02,
          7.03662112e-02, 3.01782452e-02, 3.59244123e-02, 1.09949902e-01,
          2.66677827e-01, 2.22087204e-01, 2.66677827e-01, 2.66677827e-01,
          7.64790550e-02, 9.01619196e-02, 4.64339890e-02, 5.90818338e-02,
          1.62619799e-01, 2.66677827e-01, 2.66677827e-01, 2.66677827e-01,
          2.27528900e-01, 6.81881905e-02, 9.48689282e-02, 4.60754298e-02,
          1.75695959e-02, 1.74859203e-02, 4.34224941e-02, 3.42592299e-02,
          1.84798703e-01, 2.99245209e-01, 3.57521996e-02, 4.57966179e-02,
          2.12461110e-02, 7.97466934e-03, 2.51203459e-02, 8.46894085e-02,
          7.02187642e-02, 2.99245209e-01, 2.99245209e-01, 2.09237754e-01,
          2.82727629e-01, 1.49848551e-01, 4.95909862e-02, 5.70778772e-02,
          1.35889485e-01, 1.08470879e-01, 2.99245209e-01, 2.99245209e-01,
          9.68518928e-02, 1.37986705e-01, 7.53137991e-02, 3.44080776e-02,
          9.75786448e-02, 2.55815148e-01, 2.13011891e-01, 2.99245209e-01,
          1.59542263e-01, 0., 0., 0., 1.38243753e-02, 3.96706946e-02,
          1.55929625e-01, 1.04852960e-01, 2.47085586e-01, 2.87097432e-02,
          0., 0., 0., 4.43599094e-03, 9.08754300e-03, 3.83620411e-02,
          2.46945843e-02, 4.82398905e-02, 3.26237261e-01, 0., 0., 0.,
          3.95434014e-02, 2.14802504e-01, 3.26237261e-01, 3.26237261e-01,
          3.26237261e-01, 1.55470818e-01, 0., 0., 0., 2.94141024e-02,
          2.23767176e-01, 3.26237261e-01, 3.26237261e-01, 3.26237261e-01,
          1.11096883e-02, 0., 0., 0., 1.20869205e-04, 1.16315689e-02,
          2.73685716e-02, 1.78335793e-02, 1.69347413e-02, 1.79783223e-04,
          0., 0., 0., 0., 0., 0., 0., 1.79783223e-04, 8.05497020e-02, 0.,
          0., 0., 1.13033831e-01, 4.79471743e-01, 4.79471743e-01,
          4.79471743e-01, 3.17117453e-01, 1.01215251e-01, 2.73131579e-01,
          2.53517389e-01, 1.31209627e-01, 1.14193812e-01, 3.25937085e-02,
          3.00376620e-02, 3.91180255e-02, 3.49742174e-02, 4.58101137e-03,
          1.20337112e-02, 1.42342206e-02, 4.95796092e-03, 5.81912883e-03,
          0., 0., 0., 3.57851898e-03, 8.72691870e-02, 2.60914505e-01,
          2.80377060e-01, 2.46967256e-01, 2.94875234e-01, 0., 0., 0.,
          4.27430980e-02, 5.13383150e-02, 3.28271657e-01, 3.31277251e-01,
          1.56487659e-01, 4.50040884e-02, 0., 0., 0., 1.64945442e-02,
          1.36120871e-01, 3.47675651e-01, 3.47675651e-01, 3.47675651e-01,
          2.46701792e-01, 0., 3.16861289e-04, 1.05889478e-04,
          5.52971624e-02, 1.47501752e-01, 2.61716973e-02, 2.99657658e-02,
          1.29519161e-02, 5.37389964e-02, 6.91670179e-02, 1.74755931e-01,
          1.44677028e-01, 2.79525936e-01, 3.03798735e-01, 1.01336971e-01,
          1.04916058e-01, 5.16063124e-02, 7.27358982e-02, 1.66343719e-01,
          3.03798735e-01, 3.03798735e-01, 3.03798735e-01, 1.50655419e-01,
          3.52781895e-03, 4.11362527e-03, 0., 7.02366680e-02,
          2.88886994e-01, 3.03798735e-01, 3.03798735e-01, 3.03798735e-01,
          5.60047887e-02, 1.14657835e-03, 3.43098701e-03, 0.,
          1.90786570e-02, 1.91168934e-02, 4.15900126e-02, 4.80952896e-02,
          1.19103335e-01, 3.38224560e-01, 2.73220032e-01, 3.38224560e-01,
          1.80363253e-01, 6.84275478e-02, 6.73094690e-02, 1.67217717e-01,
          1.52208418e-01, 3.38224560e-01, 3.38224560e-01, 1.15561001e-01,
          1.66358352e-01, 9.57361832e-02, 6.24836273e-02, 1.30660936e-01,
          3.18088770e-01, 2.89698303e-01, 3.38224560e-01, 1.58175323e-02,
          7.49337079e-04, 2.24229367e-03, 0., 6.58756308e-03,
          2.77261646e-03, 6.40780851e-03, 4.55035036e-03, 1.70265790e-02,
          8.40931665e-03, 3.06873786e-04, 9.18279984e-04, 0.,
          1.65989494e-03, 0., 4.70786449e-03, 2.52062408e-03,
          8.99549294e-03, 1.69690266e-01, 0., 0., 0., 2.53922436e-02,
          1.33686915e-01, 3.12721193e-01, 3.12721193e-01, 3.12721193e-01,
          1.08721867e-01, 0., 0., 0., 4.58166786e-02, 3.12721193e-01,
          3.12721193e-01, 3.12721193e-01, 2.90570050e-01, 5.22657111e-03,
          6.64983352e-04, 1.98987615e-03, 0., 9.10541322e-03,
          1.61711555e-02, 3.85540724e-02, 3.42376381e-02, 1.08709317e-02,
          7.43244737e-02, 7.94609252e-04, 2.37776455e-03, 0.,
          3.03988010e-02, 1.95285514e-01, 3.12721193e-01, 3.12721193e-01,
          1.45302355e-01, 1.57476008e-01, 0., 9.98457035e-05,
          5.34781502e-05, 1.85850374e-02, 1.75577328e-01, 2.85473615e-01,
          2.85473615e-01, 2.24038050e-01, 2.85473615e-01, 1.18924633e-01,
          1.23376817e-01, 5.91088422e-02, 3.19694951e-02, 1.96897797e-02,
          3.23042497e-02, 3.02379318e-02, 2.85473615e-01, 2.85473615e-01,
          1.12247723e-03, 2.63172854e-03, 1.01608585e-03, 1.26046073e-02,
          1.43007040e-01, 2.77286619e-01, 2.53015935e-01, 2.85473615e-01,
          2.85473615e-01, 1.28094584e-01, 1.24615550e-01, 5.63886389e-02,
          2.78923810e-02, 2.30121948e-02, 5.01920991e-02, 4.82399873e-02,
          2.85473615e-01, 2.18678370e-01, 2.87723869e-01, 2.87723869e-01,
          2.58090407e-01, 6.56506047e-02, 3.98985198e-04, 1.64773432e-04,
          2.64856571e-05, 1.27036527e-01, 9.60165635e-02, 2.87723869e-01,
          2.87723869e-01, 2.87723869e-01, 6.70817718e-02, 2.34107301e-03,
          2.39805551e-03, 2.09012814e-03, 3.51497941e-02, 2.87723869e-01,
          2.87723869e-01, 2.87723869e-01, 1.63564503e-01, 5.12664057e-02,
          5.01207309e-03, 3.22867441e-03, 2.18232884e-03, 2.68405586e-01,
          5.39439358e-02, 1.85906023e-01, 1.82025373e-01, 1.05206221e-01,
          3.05915475e-02, 9.30504501e-03, 5.65281231e-03, 2.89978320e-03,
          2.82189883e-02, 1.39170349e-01, 1.25721665e-04, 6.84970946e-05,
          0., 3.43432501e-02, 2.11057842e-01, 2.85708874e-01,
          2.85708874e-01, 2.85708874e-01, 5.63506223e-02, 5.99486462e-04,
          1.79388525e-03, 0., 2.04483718e-02, 8.85349959e-02,
          2.20952004e-01, 1.92588106e-01, 1.56939551e-01, 1.14679098e-01,
          0., 0., 0., 3.32068875e-02, 1.55211568e-01, 2.85708874e-01,
          2.85708874e-01, 2.85708874e-01, 9.06309485e-02, 4.87440178e-04,
          1.45860121e-03, 0., 6.20308667e-02, 2.48915702e-01,
          2.85708874e-01, 2.85708874e-01, 2.11357012e-01, 1.51569564e-02,
          2.65844469e-03, 5.12602832e-03, 1.38216314e-03, 1.54602500e-02,
          3.15719396e-02, 7.96311721e-02, 7.15700760e-02, 1.91872772e-02,
          7.51341656e-02, 2.09313408e-02, 3.26809473e-02, 2.63837054e-02,
          2.03569187e-03, 2.23962488e-04, 2.52368278e-03, 4.60212119e-03,
          3.10728624e-02, 3.29766959e-01, 5.68770543e-02, 8.59007835e-02,
          3.16711925e-02, 4.84471656e-02, 2.03899264e-01, 3.29766959e-01,
          3.29766959e-01, 3.29766959e-01, 3.29766959e-01, 3.29766959e-01,
          3.29766959e-01, 2.13699311e-01, 1.03585785e-02, 1.29214618e-02,
          3.76277752e-02, 4.07602154e-02, 3.29766959e-01, 1.07925698e-01,
          3.64552662e-02, 6.92556426e-02, 4.47605997e-02, 9.90955345e-03,
          1.67995915e-02, 3.13123018e-02, 3.27182524e-02, 7.09976703e-02,
          9.01974365e-02, 2.05641836e-02, 3.81453224e-02, 1.81425251e-02,
          2.55162772e-02, 5.57473227e-02, 8.59593898e-02, 7.78164044e-02,
          1.08309127e-01, 2.99901128e-01, 2.99901128e-01, 2.99901128e-01,
          2.05637947e-01, 2.46413443e-02, 9.36885327e-02, 2.11714447e-01,
          2.03555852e-01, 2.99901128e-01, 2.22644567e-01, 1.06948122e-01,
          1.79009095e-01, 7.35296905e-02, 1.03987999e-01, 2.99901128e-01,
          2.99901128e-01, 2.99901128e-01, 2.31711432e-01, 3.45826298e-01,
          4.79106186e-03, 8.36976804e-03, 2.70915497e-03, 3.10257971e-02,
          9.07080844e-02, 1.66357324e-01, 1.47737086e-01, 3.45826298e-01,
          3.45826298e-01, 7.56955519e-02, 6.41623586e-02, 2.91065760e-02,
          1.91451609e-02, 2.48759761e-02, 7.19765127e-02, 5.92913516e-02,
          3.45826298e-01, 5.38640060e-02, 1.22474413e-03, 2.86416640e-03,
          1.63772982e-03, 2.21693456e-01, 3.45826298e-01, 3.45826298e-01,
          3.45826298e-01, 1.45432562e-01, 2.40285117e-02, 2.39796378e-03,
          4.49177437e-03, 1.33996073e-03, 4.03758958e-02, 4.66409475e-02,
          3.39931771e-02, 2.58340500e-02, 2.75839698e-02, 3.82996142e-01,
          3.73015106e-01, 3.79730374e-01, 2.03183934e-01, 8.39568526e-02,
          6.49942160e-02, 3.55820656e-02, 2.27756537e-02, 3.82996142e-01,
          2.34459892e-01, 2.63940990e-01, 3.40292841e-01, 1.87786743e-01,
          7.48276561e-02, 6.30123913e-02, 2.02646442e-02, 5.07821376e-03,
          1.65405273e-01, 9.18145105e-02, 2.24727839e-02, 5.99997900e-02,
          8.62338208e-03, 9.78794228e-03, 1.08875753e-02, 4.34107846e-03,
          1.58194255e-03, 9.03550535e-02, 6.62246719e-02, 5.04132845e-02,
          1.42525047e-01, 1.29562458e-02, 1.48774683e-02, 7.44225411e-03,
          0., 0., 5.80168329e-02 ]
      - [ 2.12959219e-02, 4.92797121e-02, 3.58812213e-02, 5.46994358e-02,
          2.32449174e-01, 6.25158921e-02, 4.65624891e-02, 6.41190112e-02,
          8.99368525e-02, 3.41066308e-02, 6.17217459e-03, 1.44741023e-02,
          2.70935837e-02, 1.09918930e-01, 2.57291738e-02, 2.86957305e-02,
          2.67386176e-02, 6.54533654e-02, 3.11896265e-01, 2.31535688e-01,
          2.04479501e-01, 1.47448912e-01, 2.38878608e-01, 3.43787894e-02,
          2.33785048e-01, 3.55327070e-01, 3.55327070e-01, 3.55327070e-01,
          1.42935719e-02, 1.65300705e-02, 2.93090641e-02, 4.39938642e-02,
          6.22806465e-03, 1.44884899e-01, 1.98984489e-01, 3.55327070e-01,
          3.29005830e-02, 9.62670543e-04, 4.32672445e-03, 3.36024654e-03,
          2.05416456e-02, 3.31089878e-03, 7.18495063e-03, 3.38706817e-03,
          4.37863544e-02, 3.95276919e-02, 1.30247492e-02, 1.42331077e-02,
          5.18794591e-03, 2.54105814e-02, 1.00863457e-03, 5.51281404e-03,
          2.17389427e-02, 6.08382896e-02, 3.70198935e-01, 3.65669955e-03,
          7.53431628e-03, 7.10890722e-03, 1.91264153e-02, 1.42630818e-03,
          1.24142103e-01, 2.12184027e-01, 3.70198935e-01, 3.70198935e-01,
          1.40729025e-01, 1.45700663e-01, 2.45875672e-01, 3.26586485e-01,
          5.71559649e-03, 1.77832976e-01, 3.70198935e-01, 3.70198935e-01,
          5.52764460e-02, 1.46389911e-02, 1.53089529e-02, 5.59776090e-03,
          2.40199994e-02, 7.29516149e-04, 1.63279027e-02, 5.35917096e-02,
          9.91857201e-02, 2.62231510e-02, 1.42275391e-03, 2.08141608e-03,
          2.94619036e-04, 1.40513731e-02, 0., 8.51310138e-03,
          2.56625433e-02, 4.88962047e-02, 3.23878109e-01, 1.44796073e-01,
          1.33920714e-01, 2.44032517e-01, 2.85130978e-01, 3.59306373e-02,
          3.23878109e-01, 3.23878109e-01, 3.23878109e-01, 1.99096397e-01,
          1.16862645e-02, 9.79141984e-03, 1.09655131e-02, 5.69366552e-02,
          1.30784839e-01, 3.23878109e-01, 3.23878109e-01, 3.23878109e-01,
          4.11062390e-02, 5.02472743e-03, 1.50358910e-02, 0.,
          3.56364921e-02, 0., 1.92186341e-03, 6.37321221e-03,
          4.59657833e-02, 3.67966406e-02, 4.62848740e-03, 1.86447334e-02,
          3.62848453e-02, 1.90304443e-02, 1.46088051e-03, 1.07344659e-02,
          3.58727737e-03, 3.67966406e-02, 3.12977940e-01, 1.91571042e-02,
          5.73252812e-02, 0., 1.10855542e-01, 2.04459742e-01,
          3.32202882e-01, 3.32202882e-01, 3.32202882e-01, 2.88366318e-01,
          1.51268721e-01, 3.32202882e-01, 3.32202882e-01, 2.61505038e-01,
          1.78691652e-02, 6.48566931e-02, 3.53987888e-02, 3.14214319e-01,
          3.13560292e-03, 3.18794064e-02, 1.75681710e-01, 1.64728448e-01,
          3.03103864e-01, 7.71163090e-04, 1.70129840e-03, 5.68545423e-04,
          3.13560292e-03, 6.64819265e-04, 5.90313263e-02, 3.03103864e-01,
          3.03103864e-01, 3.03103864e-01, 4.15241724e-04, 3.56704026e-04,
          1.19204538e-04, 6.64819265e-04, 2.08080616e-02, 9.11931768e-02,
          3.03103864e-01, 3.03103864e-01, 3.03103864e-01, 7.50875473e-03,
          3.51944496e-03, 1.17613946e-03, 1.83902495e-02, 5.39796939e-03,
          8.07129368e-02, 3.03103864e-01, 3.03103864e-01, 3.03103864e-01,
          3.64030432e-03, 6.62450271e-04, 2.21379814e-04, 3.41975968e-03,
          3.24446797e-01, 1.74150839e-01, 2.78140485e-01, 2.25353643e-01,
          3.47579628e-01, 1.03491452e-02, 1.87899053e-01, 2.67627865e-01,
          3.51221740e-01, 3.51221740e-01, 6.63768919e-03, 6.94865640e-03,
          6.45207381e-03, 5.77859348e-03, 6.81968988e-04, 1.24708578e-01,
          1.52701735e-01, 3.51221740e-01, 5.98045848e-02, 6.32039979e-02,
          1.58723801e-01, 1.05441265e-01, 1.95988640e-01, 9.27800965e-03,
          2.30463836e-02, 1.08491415e-02, 6.12887070e-02, 6.37837127e-02,
          6.19276799e-03, 1.30564254e-02, 2.48806039e-03, 1.97241697e-02,
          4.59654024e-03, 1.19369207e-02, 6.24541519e-03, 6.42846376e-02,
          3.69125456e-01, 4.64233803e-03, 4.40081814e-03, 4.41930583e-03,
          8.44012294e-03, 2.60198984e-04, 1.35979816e-01, 2.45276451e-01,
          3.69125456e-01, 3.69125456e-01, 1.34336144e-01, 1.11558951e-01,
          2.53197163e-01, 2.47843519e-01, 2.82658846e-03, 1.83730677e-01,
          3.69125456e-01, 3.69125456e-01, 5.98409213e-02, 6.61452021e-03,
          1.01779960e-02, 3.49263824e-03, 1.46718258e-02, 5.98515477e-03,
          1.74849611e-02, 2.49880515e-02, 9.07939896e-02, 8.47773030e-02,
          1.75404157e-02, 7.77277024e-03, 1.95957869e-02, 1.90598648e-02,
          4.59937099e-03, 3.40685062e-02, 4.27625701e-02, 1.48295403e-01,
          2.72739798e-01, 9.45290253e-02, 7.28221759e-02, 1.91846400e-01,
          1.79800585e-01, 4.94540520e-02, 2.58287698e-01, 3.05469424e-01,
          3.05469424e-01, 2.34779254e-01, 5.52320806e-03, 3.54439928e-03,
          8.50944966e-03, 6.41869754e-02, 1.91268831e-01, 3.05469424e-01,
          3.05469424e-01, 3.05469424e-01, 5.07508591e-02, 1.08545432e-02,
          4.96614072e-03, 1.36899436e-02, 1.85547192e-02, 1.37395728e-02,
          3.88229974e-02, 2.91439667e-02, 6.31435588e-02, 1.50282323e-01,
          2.21271184e-03, 1.20719220e-03, 1.65836036e-03, 2.81745736e-02,
          5.03273718e-02, 2.84111947e-01, 2.30199158e-01, 1.95238203e-01,
          2.68087834e-01, 1.21677760e-03, 3.64105497e-03, 0.,
          2.17679050e-02, 5.32067306e-02, 2.68087834e-01, 2.68087834e-01,
          2.68087834e-01, 2.68087834e-01, 9.31286812e-02, 2.68087834e-01,
          7.76755735e-02, 5.21657355e-02, 3.74142220e-03, 5.44063002e-02,
          1.38541311e-01, 2.68087834e-01, 2.68087834e-01, 1.53306653e-04,
          0., 1.05064566e-04, 7.42312055e-03, 1.35575552e-02,
          1.95823222e-01, 2.21240669e-01, 2.68087834e-01, 2.68087834e-01,
          7.38028958e-02, 1.93643719e-01, 3.19657065e-02, 2.07191464e-02,
          2.55782250e-03, 6.28526360e-02, 1.67146683e-01, 2.68087834e-01,
          1.68606445e-01, 2.82580465e-01, 2.97338903e-01, 2.97338903e-01,
          2.97338903e-01, 9.71059594e-03, 1.32899294e-02, 4.43875492e-02,
          2.34500393e-01, 1.67668574e-02, 1.11273378e-01, 2.97338903e-01,
          2.87021428e-01, 2.95555443e-01, 3.22491000e-03, 1.15687214e-03,
          8.29561322e-04, 1.03608463e-02, 2.20754817e-01, 1.66565329e-01,
          2.97338903e-01, 9.57278088e-02, 6.83451444e-02, 8.54104850e-03,
          3.55063416e-02, 6.90573007e-02, 2.97338903e-01, 1.70614626e-02,
          4.25485559e-02, 1.30492538e-01, 3.16123851e-02, 3.79421301e-02,
          3.95527994e-03, 1.52894827e-02, 7.53707159e-03, 1.57728288e-02,
          2.70102084e-01, 1.42968297e-01, 1.74886435e-01, 8.29490349e-02,
          2.71341771e-01, 9.76803005e-02, 1.03859387e-01, 1.05613723e-01,
          2.71341771e-01, 1.46248475e-01, 4.10544612e-02, 9.73858461e-02,
          1.14764990e-02, 2.13088676e-01, 3.77687402e-02, 1.49649410e-02,
          2.41540913e-02, 1.59899816e-01, 2.46068910e-01, 7.61091560e-02,
          5.03274761e-02, 2.05986202e-02, 2.71341771e-01, 2.71341771e-01,
          2.71341771e-01, 2.71341771e-01, 2.68795341e-01, 1.77926242e-01,
          4.63441797e-02, 6.38894811e-02, 2.05535032e-02, 2.03265458e-01,
          1.07810348e-01, 4.38302904e-02, 5.92651740e-02, 2.21483365e-01,
          2.08115265e-01, 7.10696280e-02, 1.32280245e-01, 5.72218113e-02,
          2.88714767e-01, 9.07777250e-02, 4.91954200e-02, 4.39459980e-02,
          2.43516400e-01, 2.17921734e-01, 3.05405967e-02, 4.44258526e-02,
          7.39872679e-02, 2.88714767e-01, 7.91841149e-02, 1.30581722e-01,
          8.18977430e-02, 2.46459097e-01, 2.88714767e-01, 3.64941470e-02,
          5.83303235e-02, 7.90547580e-02, 2.88714767e-01, 1.20645739e-01,
          2.50785947e-02, 2.89636441e-02, 2.88714767e-01, 2.88714767e-01,
          1.51007334e-02, 1.69077367e-02, 8.24854448e-02, 2.88714767e-01,
          7.29712322e-02, 4.70703281e-02, 2.70352550e-02, 2.88714767e-01,
          2.56374240e-01, 4.43786085e-02, 3.47813517e-02, 7.62937963e-02,
          2.79457420e-01, 4.26685624e-02, 2.04904556e-01, 1.43692464e-01,
          2.24950731e-01, 2.79457420e-01, 3.77080515e-02, 1.44342482e-02,
          7.48071894e-02, 2.79457420e-01, 8.61625075e-02, 2.30996922e-01,
          2.17178151e-01, 2.79457420e-01, 1.99640632e-01, 2.74582189e-02,
          1.33232642e-02, 7.00727776e-02, 2.79457420e-01, 3.23431492e-02,
          1.27186760e-01, 7.20095038e-02, 1.77648127e-01, 2.06018135e-01,
          8.02627504e-02, 4.02806364e-02, 6.22017644e-02, 2.79457420e-01,
          2.56182887e-02, 1.27525583e-01, 1.33753181e-01, 1.86592549e-01,
          2.14529961e-01, 1.41564466e-03, 1.32347003e-03, 3.87573102e-03,
          6.51361570e-02, 1.15922065e-02, 6.92063272e-02, 1.00715816e-01,
          2.63629436e-01, 3.23485821e-01, 5.09480797e-02, 7.77882785e-02,
          2.61067471e-04, 5.72642647e-02, 1.18117761e-02, 9.14856195e-02,
          1.57815427e-01, 3.23485821e-01, 2.76670843e-01, 2.44674280e-01,
          1.25436351e-01, 3.22264922e-03, 4.25812043e-02, 2.78084353e-03,
          1.63585693e-02, 2.69974619e-02, 1.48344606e-01, 3.23485821e-01,
          3.23485821e-01, 2.02459320e-01, 4.96028643e-03, 7.54303187e-02,
          3.08580720e-03, 1.77725777e-02, 2.63342291e-01, 3.23485821e-01,
          1.20708138e-01, 4.44372743e-02, 7.19010606e-02, 4.33339505e-04,
          7.46060312e-02, 3.34019475e-02, 6.16200306e-02, 5.08326590e-02,
          1.69065505e-01, 2.37966105e-02, 8.49813689e-03, 1.87863670e-02,
          1.44446502e-04, 6.22994825e-02, 2.15094164e-02, 3.97814959e-02,
          1.47895394e-02, 2.48453282e-02, 3.08737814e-01, 3.08737814e-01,
          3.08737814e-01, 6.36770651e-02, 1.49512216e-01, 6.16929680e-02,
          8.65595788e-03, 1.73663393e-01, 3.08737814e-01, 3.08737814e-01,
          2.94690549e-01, 3.08737814e-01, 7.05088899e-02, 2.78153211e-01,
          1.68976620e-01, 4.57383599e-03, 1.90013293e-02, 3.08737814e-01,
          9.62163508e-02, 5.66240307e-03, 8.10057577e-03, 8.91155470e-03,
          4.27449830e-02, 6.94857091e-02, 2.72021264e-01, 2.72021264e-01,
          1.36959761e-01, 1.29291221e-01, 9.73004252e-02, 1.94331601e-01,
          1.51619986e-02, 1.74586792e-02, 2.51769088e-02, 8.66188928e-02,
          9.53236893e-02, 1.22088939e-01, 2.72021264e-01, 1.50274131e-02,
          2.07476839e-02, 2.34768037e-02, 9.99480486e-02, 7.43285939e-02,
          2.72021264e-01, 2.72021264e-01, 2.65263647e-01, 2.72021264e-01,
          2.41296574e-01, 2.72021264e-01, 4.49687578e-02, 6.07988164e-02,
          2.91301180e-02, 2.48416618e-01, 2.45496094e-01, 2.72021264e-01,
          1.53152794e-01, 1.16331823e-01, 2.34463856e-01, 1.42021310e-02,
          5.23225851e-02, 5.49193174e-02, 4.63402122e-02, 5.76014817e-02,
          2.32470512e-01, 1.19784288e-01, 2.59564966e-02, 4.99538295e-02,
          6.11775322e-03, 9.97637808e-02, 9.81020331e-02, 5.38718440e-02,
          8.21781531e-02, 2.51805156e-01, 2.66021699e-01, 2.45790094e-01,
          2.66021699e-01, 2.36034058e-02, 1.15409590e-01, 1.15302272e-01,
          8.20041746e-02, 1.14394650e-01, 2.66021699e-01, 2.66021699e-01,
          6.43555745e-02, 1.17373928e-01, 5.56495879e-03, 2.66021699e-01,
          2.66021699e-01, 2.06553116e-01, 2.57569551e-01, 2.66021699e-01,
          3.87236588e-02, 1.53308352e-02, 1.99603904e-02, 9.51851544e-04,
          3.77129018e-02, 3.78803350e-02, 1.51450951e-02, 2.26309709e-02,
          6.54834211e-02, 1.33111045e-01, 1.59763306e-01, 2.48773545e-01,
          7.93879107e-03, 1.54005084e-02, 3.77488541e-05, 1.80764904e-03,
          6.43804530e-03, 5.26677929e-02, 3.31084162e-01, 1.86933219e-01,
          2.42152736e-01, 2.03967164e-03, 1.77992970e-01, 2.40488783e-01,
          1.21229559e-01, 1.33684024e-01, 3.31084162e-01, 3.31084162e-01,
          3.31084162e-01, 3.31084162e-01, 2.66700480e-02, 8.06680098e-02,
          3.88162746e-03, 1.00453719e-02, 1.24023845e-02, 3.27381551e-01,
          2.68709660e-01, 2.68709660e-01, 2.50718832e-01, 5.61064295e-03,
          1.07712410e-02, 1.72205429e-04, 5.98687446e-03, 8.81622825e-03,
          1.03437059e-01, 2.68709660e-01, 2.68709660e-01, 1.34164110e-01,
          2.82524759e-03, 8.53876844e-02, 7.00898096e-03, 2.58801077e-02,
          1.33212253e-01, 2.68709660e-01, 2.68709660e-01, 2.68709660e-01,
          2.68709660e-01, 1.95418671e-02, 5.65316230e-02, 5.03000058e-03,
          2.64460891e-02, 1.36356028e-02, 1.34309679e-01, 2.68709660e-01,
          2.68709660e-01, 1.44590184e-01, 5.78036020e-03, 1.91389829e-01,
          3.35261114e-02, 8.23765099e-02, 9.48627591e-02, 2.46324897e-01,
          2.39100367e-01, 2.39100367e-01, 2.07222626e-01, 3.46652903e-02,
          1.78022236e-01, 4.25314493e-02, 5.27216755e-02, 1.36410639e-01,
          2.35555574e-01, 2.38022044e-01, 1.50175691e-01, 2.29634926e-01,
          3.87042500e-02, 1.58290684e-01, 7.73417950e-02, 4.70626093e-02,
          5.28373495e-02, 1.16010718e-01, 2.39100367e-01, 1.54733360e-01,
          1.87137216e-01, 4.73254733e-02, 2.39100367e-01, 6.36669695e-02,
          2.11634472e-01, 2.07445115e-01, 1.95934400e-01, 1.31006286e-01,
          1.02286078e-01, 2.15142682e-01, 6.56725466e-02, 2.39100367e-01,
          6.06622472e-02, 2.39100367e-01, 1.92330509e-01, 8.23074207e-02,
          2.40165770e-01, 5.44207282e-02, 3.50684635e-02, 7.15269297e-02,
          2.61088252e-01, 1.36652380e-01, 2.61088252e-01, 2.61088252e-01,
          1.68697819e-01, 2.61088252e-01, 1.94435179e-01, 2.61088252e-01,
          9.51672122e-02, 2.61088252e-01, 9.49572474e-02, 2.31442764e-01,
          2.02397451e-01, 2.61088252e-01, 1.72667392e-02, 4.82270345e-02,
          7.06613585e-02, 1.53704524e-01, 2.61088252e-01, 1.31980881e-01,
          1.09241813e-01, 4.58029546e-02, 8.18268303e-03, 4.75676777e-03,
          5.26175909e-02, 1.07165724e-01, 1.25328824e-01, 2.61088252e-01,
          9.23072994e-02, 1.26264602e-01, 4.61126417e-02, 5.05068991e-03,
          2.99897283e-01, 1.90054715e-01, 2.99897283e-01, 4.55322340e-02,
          2.39989579e-01, 1.18733585e-01, 8.27324539e-02, 9.94388834e-02,
          2.20847636e-01, 2.99897283e-01, 8.03295746e-02, 1.32069692e-01,
          1.06351543e-02, 2.99897283e-01, 2.99897283e-01, 2.99897283e-01,
          2.88235992e-01, 2.99897283e-01, 1.79768493e-03, 2.55410001e-02,
          5.22364862e-02, 5.08161448e-02, 2.53467381e-01, 2.84034796e-02,
          4.96555716e-02, 2.39899829e-02, 1.63983938e-03, 6.81577250e-02,
          5.68627054e-03, 1.26578370e-02, 3.52959218e-03, 2.95884907e-02,
          6.10990543e-03, 2.24019010e-02, 1.03082741e-02, 6.72225654e-02,
          3.24974030e-01, 2.09034845e-01, 2.70599484e-01, 6.18971232e-03,
          1.85705841e-01, 1.95360392e-01, 1.24842644e-01, 1.17657959e-01,
          3.24974030e-01, 3.24974030e-01, 3.24974030e-01, 3.24974030e-01,
          2.59600636e-02, 1.99556708e-01, 1.58061944e-02, 1.21531934e-02,
          9.52758174e-03, 3.24974030e-01, 7.80746117e-02, 1.01966942e-02,
          1.48971947e-02, 2.01412626e-02, 8.50934684e-02, 1.05287274e-02,
          1.37162684e-02, 7.14640692e-03, 7.58986026e-02, 3.68722416e-02,
          1.77739225e-02, 2.80441679e-02, 6.91145286e-02, 2.71493137e-01,
          2.88762376e-02, 1.18687171e-02, 4.16472554e-03, 3.10070124e-02,
          3.09053928e-01, 3.09053928e-01, 3.09053928e-01, 5.40969633e-02,
          3.09053928e-01, 4.44011837e-02, 8.17880481e-02, 3.03447992e-02,
          2.08638579e-01, 2.26484358e-01, 1.08084887e-01, 1.30131111e-01,
          4.24091741e-02, 3.09053928e-01, 1.50748789e-01, 2.67478377e-01,
          1.19696558e-01, 2.10120589e-01, 2.46066302e-02, 2.08911113e-02,
          4.18680757e-02, 6.78396150e-02, 3.09053928e-01, 3.70141529e-02,
          4.10391651e-02, 1.74169056e-02, 1.94261726e-02, 1.50740579e-01,
          2.12843101e-02, 3.40848006e-02, 2.16408148e-02, 1.64286032e-01,
          3.53785492e-02, 1.19002894e-01, 1.01826414e-01, 2.11234793e-01,
          5.77761345e-02, 3.04051898e-02, 7.41385669e-02, 4.97164465e-02,
          3.32812697e-01, 4.73998711e-02, 3.28231633e-01, 1.70073465e-01,
          7.61520118e-02, 3.65079120e-02, 4.10302579e-02, 1.10982053e-01,
          7.32615292e-02, 3.32812697e-01, 1.18478417e-01, 3.32812697e-01,
          3.04415315e-01, 4.49977927e-02, 6.48666099e-02, 1.75657235e-02,
          1.21937739e-02, 9.48427152e-03, 7.20262825e-02, 1.93115026e-02,
          1.58624724e-01, 7.88340867e-02, 8.87304544e-02, 5.69156781e-02,
          2.47119348e-02, 1.85042098e-02, 1.13987047e-02, 2.33826101e-01,
          3.15908253e-01, 3.32812697e-01, 2.34304845e-01, 6.31611571e-02 ]
      - [ 2.10005008e-02, 8.70798901e-02, 1.27861306e-01, 4.22053337e-02,
          1.92722585e-02, 0., 0., 0., 9.48337838e-03, 1.09874189e-01,
          3.45273912e-01, 3.45273912e-01, 2.35098019e-01, 6.34836927e-02,
          0., 0., 0., 2.95050442e-02, 1.05642565e-01, 3.45273912e-01,
          3.45273912e-01, 2.38024235e-01, 6.59873262e-02, 0., 0., 0.,
          2.86509395e-02, 1.34970725e-01, 3.45273912e-01, 3.45273912e-01,
          2.92024761e-01, 7.10354820e-02, 0., 0., 0., 2.95634847e-02,
          1.79691061e-01, 3.62505168e-01, 3.62505168e-01, 3.62505168e-01,
          1.08449414e-01, 0., 0., 0., 4.00926359e-02, 7.12971762e-02,
          3.14967275e-01, 3.62505168e-01, 1.67963192e-01, 9.22545195e-02,
          0., 0., 0., 1.64246950e-02, 7.90379941e-02, 3.40415329e-01,
          3.62505168e-01, 1.55462086e-01, 4.68655415e-02, 0., 0., 0.,
          1.95981599e-02, 5.03295939e-03, 2.64777727e-02, 5.17625362e-02,
          8.01337883e-03, 5.88810164e-03, 0., 0., 0., 2.74983654e-03,
          8.11079517e-02, 4.96518344e-01, 4.96518344e-01, 4.96518344e-01,
          4.96518344e-01, 0., 0., 0., 4.60597686e-02, 0., 0., 0., 0., 0.,
          0., 0., 0., 0., 8.12819228e-03, 1.60329754e-03, 4.79765888e-03,
          0., 7.82190356e-03, 0., 0., 0., 8.12819228e-03, 0., 0., 0., 0.,
          0., 0., 0., 0., 0., 0., 0., 0., 0., 0., 0., 0., 0., 0., 0., 0.,
          0., 0., 0., 0., 0., 0., 0., 0., 0., 0., 0., 0., 0., 0., 0., 0.,
          0., 0., 0., 0., 0., 0., 0., 0., 0., 3.31072806e-04,
          3.51219816e-04, 9.02474334e-04, 2.84771435e-03, 9.23024118e-02,
          4.98228800e-03, 3.05181788e-03, 5.57351974e-04, 2.92432349e-04,
          1.57075912e-01, 1.24218412e-01, 1.07770965e-01, 1.70563370e-01,
          3.66311431e-01, 1.91733345e-01, 1.59316689e-01, 1.26374871e-01,
          2.28208393e-01, 8.41101108e-04, 8.54409358e-04, 4.03595902e-03,
          4.50917473e-03, 5.95524050e-02, 3.47464997e-03, 3.17080342e-03,
          6.81207865e-04, 8.41101108e-04, 2.07444459e-01, 3.45291674e-01,
          3.66311431e-01, 2.93836117e-01, 3.66311431e-01, 1.18286751e-01,
          1.37190938e-01, 1.31653652e-01, 2.68084258e-01, 1.64108798e-01,
          3.49068165e-01, 3.49068165e-01, 3.49068165e-01, 1.83746696e-01,
          0., 0., 0., 3.68680768e-02, 7.42757916e-02, 2.99562275e-01,
          3.49068165e-01, 1.47052467e-01, 4.32715416e-02, 0., 0., 0.,
          1.74692888e-02, 6.77537471e-02, 2.33379900e-01, 3.42219532e-01,
          1.63486645e-01, 3.49068165e-01, 0., 0., 0., 1.70390289e-02,
          4.62817028e-03, 2.43482273e-02, 4.75993976e-02, 7.36888172e-03,
          5.41453529e-03, 0., 0., 0., 2.52867350e-03, 2.75524080e-01,
          5.77558279e-01, 5.77558279e-01, 4.14104462e-01, 2.56976336e-01,
          0., 0., 0., 1.14729308e-01, 3.72774689e-03, 1.52819254e-03,
          4.57291724e-03, 0., 1.54948691e-02, 0., 0., 0., 3.72774689e-03,
          7.74743455e-03, 1.52819254e-03, 4.57291724e-03, 0.,
          7.45549379e-03, 0., 0., 0., 7.74743455e-03, 0., 0., 0., 0., 0.,
          0., 0., 0., 0., 0., 0., 0., 0., 0., 0., 0., 0., 0., 0., 0., 0.,
          0., 0., 0., 0., 0., 0., 0., 0., 0., 0., 0., 0., 0., 0., 0., 0.,
          0., 0., 0., 0., 0., 0., 0., 0., 0., 0., 0., 0., 0., 0., 0., 0.,
          0., 0., 0., 0., 0., 0., 0., 0., 0., 0., 0., 0., 0., 0., 0., 0.,
          0., 0., 0., 0., 0., 0., 0., 0., 0., 0., 0., 0., 3.03146720e-04,
          5.74578822e-04, 3.20338015e-03, 5.25568565e-03, 9.27033201e-02,
          3.09296581e-03, 1.12936075e-03, 3.91743873e-04, 3.40904458e-04,
          5.07714413e-02, 2.43688777e-01, 2.98142582e-01, 2.79874384e-01,
          4.02788222e-01, 1.57534271e-01, 8.99084285e-02, 1.15293585e-01,
          5.80519550e-02, 4.32112080e-04, 0., 7.81064009e-05,
          5.51555422e-04, 6.51389062e-02, 6.57734927e-03, 2.55779247e-03,
          1.69577543e-03, 6.46072614e-04, 2.89120935e-02, 5.06692706e-03,
          1.32473381e-02, 3.27644832e-02, 4.02788222e-01, 4.02788222e-01,
          2.97124475e-01, 3.44872564e-01, 9.08117741e-02, 1.65055916e-02,
          1.55440932e-02, 3.12629901e-02, 3.57790142e-02, 6.98374450e-01,
          0., 0., 0., 5.89784328e-03, 3.10412870e-04, 1.27253996e-04,
          3.80790996e-04, 0., 1.29027187e-03, 0., 0., 0., 3.10412870e-04,
          0., 0., 0., 0., 6.98374450e-01, 0., 0., 0., 0., 2.15201527e-02,
          7.96026960e-02, 6.92180395e-02, 3.79451066e-02, 3.72626223e-02,
